{"learner":{"attributes":{"best_iteration":"4","best_score":"0.9573898180196296","scikit_learn":"{\"_estimator_type\": \"classifier\"}"},"feature_names":[],"feature_types":[],"gradient_booster":{"model":{"cats":{"enc":[],"feature_segments":[],"sorted_idx":[]},"gbtree_model_param":{"num_parallel_tree":"1","num_trees":"35"},"iteration_indptr":[0,1,2,3,4,5,6,7,8,9,10,11,12,13,14,15,16,17,18,19,20,21,22,23,24,25,26,27,28,29,30,31,32,33,34,35],"tree_info":[0,0,0,0,0,0,0,0,0,0,0,0,0,0,0,0,0,0,0,0,0,0,0,0,0,0,0,0,0,0,0,0,0,0,0],"trees":[{"base_weights":[3.882495E-2,1.7074269E0,-7.795883E-1,1.7510171E0,-9.550562E-2,-1.2816619E0,1.7254763E0,1.9285297E0,1.1658037E0,-1.9300914E0,1.8919462E0,-9.402985E-2,1.8221189E0,-8.62069E-2,1.9463357E0,-9.7590365E-2,1.5008646E0,1.2888174E0,-9.996041E-2,-9.1111116E-2,1.969068E0,-8.857143E-2,1.8715376E0,-8.095238E-2,1.9585361E0,-9.42029E-2,1.6561246E0,9.460489E-2,-8.947369E-2,-5.555556E-2,1.9786828E0,-8.260869E-2,1.9024632E0,-6.923077E-2,9.825129E-2,-9.090909E-2,8.7935306E-2,-5E-2,9.9320404E-2,9.6361466E-2,-7.894737E-2],"categories":[],"categories_nodes":[],"categories_segments":[],"categories_sizes":[],"default_left":[0,0,0,0,0,0,0,0,0,0,0,0,0,0,0,0,0,0,0,0,0,0,0,0,0,0,0,0,0,0,0,0,0,0,0,0,0,0,0,0,0],"id":0,"left_children":[1,3,5,7,-1,9,11,13,15,17,19,-1,21,-1,23,-1,25,27,-1,-1,29,-1,31,-1,33,-1,35,-1,-1,-1,37,-1,39,-1,-1,-1,-1,-1,-1,-1,-1],"loss_changes":[7.5884365E3,2.916958E2,4.691331E3,1.855039E2,0E0,6.3960947E3,2.2050647E2,9.3447266E1,4.4495996E2,5.76541E2,1.546914E2,0E0,1.1113757E2,0E0,6.3154297E1,0E0,2.0422534E2,1.0522445E2,0E0,0E0,1.7517456E1,0E0,6.846094E1,0E0,3.2546387E1,0E0,1.3378656E2,0E0,0E0,0E0,1.3860596E1,0E0,5.4313965E1,0E0,0E0,0E0,0E0,0E0,0E0,0E0,0E0],"parents":[2147483647,0,0,1,1,2,2,3,3,5,5,6,6,7,7,8,8,9,9,10,10,12,12,14,14,16,16,17,17,20,20,22,22,24,24,26,26,30,30,32,32],"right_children":[2,4,6,8,-1,10,12,14,16,18,20,-1,22,-1,24,-1,26,28,-1,-1,30,-1,32,-1,34,-1,36,-1,-1,-1,38,-1,40,-1,-1,-1,-1,-1,-1,-1,-1],"split_conditions":[-1.5214972E0,-1.7103043E-1,3.1287436E0,4.4356883E-1,-9.550562E-2,2.308911E0,-3.509315E-1,-5.689735E-1,3.95523E-1,-2.27684E0,2.7835065E-1,-9.402985E-2,-5.323407E-1,-8.62069E-2,-9.46415E-1,-9.7590365E-2,-1.2547989E0,-8.8133097E-1,-9.996041E-2,-9.1111116E-2,8.391085E-1,-8.857143E-2,-6.8565434E-1,-8.095238E-2,-8.389765E-1,-9.42029E-2,-6.118454E-1,9.460489E-2,-8.947369E-2,-5.555556E-2,-1.0386128E0,-8.260869E-2,8.969038E-1,-6.923077E-2,9.825129E-2,-9.090909E-2,8.7935306E-2,-5E-2,9.9320404E-2,9.6361466E-2,-7.894737E-2],"split_indices":[25,17,2,22,0,0,36,12,24,28,10,0,49,0,49,0,50,35,0,0,14,0,24,0,39,0,32,0,0,0,47,0,24,0,0,0,0,0,0,0,0],"split_type":[0,0,0,0,0,0,0,0,0,0,0,0,0,0,0,0,0,0,0,0,0,0,0,0,0,0,0,0,0,0,0,0,0,0,0,0,0,0,0,0,0],"sum_hessian":[5.554853E3,1.8276029E3,3.72725E3,1.8063529E3,2.125E1,3.105353E3,6.2189703E2,1.3841912E3,4.2216174E2,2.5788381E3,5.265147E2,1.575E1,6.0614703E2,6.25E0,1.3779412E3,4.05E1,3.8166174E2,5.3838234E1,2.525E3,1.025E1,5.162647E2,7.75E0,5.9839703E2,4.25E0,1.3736912E3,1.625E1,3.6541174E2,4.5338234E1,8.5E0,1.25E0,5.150147E2,4.75E0,5.9364703E2,2.25E0,1.3714412E3,1E1,3.5541174E2,1E0,5.140147E2,5.8989703E2,3.75E0],"tree_param":{"num_deleted":"0","num_feature":"68","num_nodes":"41","size_leaf_vector":"1"}},{"base_weights":[7.2880164E-2,1.6335818E0,-6.663932E-1,1.7340695E0,2.0544203E-1,-1.1245736E0,9.595063E-2,1.7554164E0,-8.9704804E-2,-9.479266E-2,1.483161E0,-1.7463222E0,1.8256271E0,-8.549087E-2,1.7728583E0,-8.1809446E-2,1.7501055E0,-1.8074942E0,1.7268068E0,-8.629989E-2,1.8872514E0,1.8198943E0,6.1843985E-1,9.298975E-2,-6.665217E-2,1.2407131E0,-1.87067E0,-6.0554545E-2,9.330924E-2,-5.8495343E-2,9.487756E-2,-7.9296105E-2,9.1465116E-2,8.738669E-2,-9.417578E-2,8.9228906E-2,-8.557906E-2,-9.524877E-2,7.3555745E-2],"categories":[],"categories_nodes":[],"categories_segments":[],"categories_sizes":[],"default_left":[0,0,0,0,0,0,0,0,0,0,0,0,0,0,0,0,0,0,0,0,0,0,0,0,0,0,0,0,0,0,0,0,0,0,0,0,0,0,0],"id":1,"left_children":[1,3,5,7,9,11,-1,13,-1,-1,15,17,19,-1,21,-1,23,25,27,-1,29,31,33,-1,-1,35,37,-1,-1,-1,-1,-1,-1,-1,-1,-1,-1,-1,-1],"loss_changes":[6.5389873E3,2.6106885E2,4.5578613E3,1.3131836E2,3.2737006E2,5.996729E3,0E0,1.0529834E2,0E0,0E0,6.5927536E1,5.7660254E2,1.2784619E2,0E0,9.031641E1,0E0,2.6236267E1,5.1322266E2,2.1599976E1,0E0,1.9854126E1,5.473291E1,1.93851E2,0E0,0E0,9.051481E1,3.008203E2,0E0,0E0,0E0,0E0,0E0,0E0,0E0,0E0,0E0,0E0,0E0,0E0],"parents":[2147483647,0,0,1,1,2,2,3,3,4,4,5,5,7,7,10,10,11,11,12,12,14,14,16,16,17,17,18,18,20,20,21,21,22,22,25,25,26,26],"right_children":[2,4,6,8,10,12,-1,14,-1,-1,16,18,20,-1,22,-1,24,26,28,-1,30,32,34,-1,-1,36,38,-1,-1,-1,-1,-1,-1,-1,-1,-1,-1,-1,-1],"split_conditions":[-1.5214972E0,-7.837906E-1,4.251972E0,1.5502943E0,1.3142014E0,2.308911E0,9.595063E-2,-1.6194563E0,-8.9704804E-2,-9.479266E-2,3.8608888E-1,4.5799074E0,2.7835065E-1,-8.549087E-2,2.0572593E0,-8.1809446E-2,4.8740256E-1,-2.27684E0,1.0078074E-1,-8.629989E-2,-1.0386128E0,-1.3590853E-1,-1.021349E0,9.298975E-2,-6.665217E-2,-1.0317575E0,3.3423092E0,-6.0554545E-2,9.330924E-2,-5.8495343E-2,9.487756E-2,-7.9296105E-2,9.1465116E-2,8.738669E-2,-9.417578E-2,8.9228906E-2,-8.557906E-2,-9.524877E-2,7.3555745E-2],"split_indices":[25,17,2,66,13,0,0,47,0,0,24,29,10,0,28,0,24,28,2,0,47,40,36,0,0,34,10,0,0,0,0,0,0,0,0,0,0,0,0],"split_type":[0,0,0,0,0,0,0,0,0,0,0,0,0,0,0,0,0,0,0,0,0,0,0,0,0,0,0,0,0,0,0,0,0,0,0,0,0,0,0],"sum_hessian":[5.6654785E3,1.8206472E3,3.8448313E3,1.7007628E3,1.198844E2,3.2665117E3,5.783195E2,1.6910337E3,9.729028E0,4.5149395E1,7.473501E1,2.6982659E3,5.6824585E2,7.9830685E0,1.6830507E3,5.4870768E0,6.924793E1,2.6520354E3,4.6230522E1,9.230858E0,5.5901495E2,1.6166067E3,6.6443985E1,6.725208E1,1.9958459E0,5.3470394E1,2.598565E3,1.7456357E0,4.4484886E1,1.4990263E0,5.575159E2,3.991693E0,1.612615E3,4.598806E1,2.0455927E1,4.54865E1,7.9838924E0,2.5725857E3,2.5979166E1],"tree_param":{"num_deleted":"0","num_feature":"68","num_nodes":"39","size_leaf_vector":"1"}},{"base_weights":[7.0319587E-4,1.5437738E0,-7.0837903E-1,1.8179774E0,6.2669253E-1,-1.0926185E0,1.7925234E0,9.13988E-2,-7.495158E-2,-1.1870999E0,1.3706403E0,-1.4762414E0,1.6186824E0,-7.863914E-2,9.184176E-2,-9.52542E-2,8.740382E-2,-9.1364205E-2,1.5935227E0,-1.6374575E0,1.1660619E0,3.8224343E-2,9.053008E-2,-8.460039E-2,1.6965979E0,-1.7272319E0,1.3805039E0,-8.801488E-2,1.7631571E0,-8.7451346E-2,8.722526E-2,-7.775471E-2,8.805481E-2,5.6613464E-2,-8.945552E-2,-8.3357744E-2,9.21018E-2,-6.132139E-2,9.056911E-2],"categories":[],"categories_nodes":[],"categories_segments":[],"categories_sizes":[],"default_left":[0,0,0,0,0,0,0,0,0,0,0,0,0,0,0,0,0,0,0,0,0,0,0,0,0,0,0,0,0,0,0,0,0,0,0,0,0,0,0],"id":2,"left_children":[1,3,5,7,9,11,13,-1,-1,15,17,19,21,-1,-1,-1,-1,-1,23,25,27,29,-1,-1,31,33,35,-1,37,-1,-1,-1,-1,-1,-1,-1,-1,-1,-1],"loss_changes":[5.911082E3,4.265857E2,3.5588562E3,4.6149414E1,5.319746E2,3.340252E3,7.6456055E1,0E0,0E0,2.4537543E2,2.0190039E2,1.1997139E3,1.20729614E2,0E0,0E0,0E0,0E0,0E0,9.143762E1,7.2052295E2,2.8665845E2,1.3767673E2,0E0,0E0,5.6024048E1,4.575547E2,1.1155348E2,0E0,2.172519E1,0E0,0E0,0E0,0E0,0E0,0E0,0E0,0E0,0E0,0E0],"parents":[2147483647,0,0,1,1,2,2,3,3,4,4,5,5,6,6,9,9,10,10,11,11,12,12,18,18,19,19,20,20,21,21,24,24,25,25,26,26,28,28],"right_children":[2,4,6,8,10,12,14,-1,-1,16,18,20,22,-1,-1,-1,-1,-1,24,26,28,30,-1,-1,32,34,36,-1,38,-1,-1,-1,-1,-1,-1,-1,-1,-1,-1],"split_conditions":[-1.5214972E0,-2.1085002E0,4.6163516E0,-2.1088715E0,4.4147453E-1,2.1365461E0,-1.0760129E-1,9.13988E-2,-7.495158E-2,3.2185202E0,6.619824E-1,3.5787964E0,1.4375825E0,-7.863914E-2,9.184176E-2,-9.52542E-2,8.740382E-2,-9.1364205E-2,-2.172229E-1,2.9173715E0,-3.509315E-1,1.6672158E0,9.053008E-2,-8.460039E-2,-8.3849716E-1,-2.27684E0,2.6855153E-1,-8.801488E-2,-2.0103876E-1,-8.7451346E-2,8.722526E-2,-7.775471E-2,8.805481E-2,5.6613464E-2,-8.945552E-2,-8.3357744E-2,9.21018E-2,-6.132139E-2,9.056911E-2],"split_indices":[25,1,38,17,48,5,39,0,0,16,13,39,12,0,0,0,0,0,12,15,36,15,0,0,38,28,12,0,18,0,0,0,0,0,0,0,0,0,0],"split_type":[0,0,0,0,0,0,0,0,0,0,0,0,0,0,0,0,0,0,0,0,0,0,0,0,0,0,0,0,0,0,0,0,0,0,0,0,0,0,0],"sum_hessian":[5.400374E3,1.6999177E3,3.7004563E3,1.3078834E3,3.9203433E2,3.2081223E3,4.923339E2,1.3044005E3,3.4829965E0,1.1385437E2,2.7817996E2,2.8108674E3,3.9725504E2,5.950144E0,4.8638376E2,9.175966E1,2.209471E1,1.7655777E1,2.6052417E2,2.6495872E3,1.6128024E2,4.3146E1,3.54109E2,7.4557676E0,2.530684E2,2.5734626E3,7.612437E1,2.7000906E1,1.3427934E2,2.1060762E1,2.2085238E1,4.472566E0,2.4859584E2,5.4142757E1,2.51932E3,9.668387E0,6.645598E1,1.743833E0,1.325355E2],"tree_param":{"num_deleted":"0","num_feature":"68","num_nodes":"39","size_leaf_vector":"1"}},{"base_weights":[5.2849483E-3,1.5017165E0,-7.0134765E-1,1.5525413E0,-8.846521E-2,-1.124896E0,1.4908125E0,1.7524527E0,9.929788E-1,-1.6035153E0,1.5850756E0,-8.576884E-2,1.6196327E0,-5.2575596E-2,8.780348E-2,-8.950577E-2,1.2650739E0,-1.691286E0,1.36329E0,-8.257149E-2,1.7010021E0,-7.7933975E-2,1.663982E0,-8.7431364E-2,1.4379267E0,1.109256E0,-8.760291E-2,-7.94441E-2,8.833059E-2,-6.7134574E-2,1.7226856E0,-7.641837E-2,1.6936338E0,7.861367E-2,-8.8603176E-2,8.416359E-2,-8.5163616E-2,-5.2193474E-2,8.671341E-2,-6.933749E-2,8.5828796E-2],"categories":[],"categories_nodes":[],"categories_segments":[],"categories_sizes":[],"default_left":[0,0,0,0,0,0,0,0,0,0,0,0,0,0,0,0,0,0,0,0,0,0,0,0,0,0,0,0,0,0,0,0,0,0,0,0,0,0,0,0,0],"id":3,"left_children":[1,3,5,7,-1,9,11,13,15,17,19,-1,21,-1,-1,-1,23,25,27,-1,29,-1,31,-1,33,35,-1,-1,-1,-1,37,-1,39,-1,-1,-1,-1,-1,-1,-1,-1],"loss_changes":[5.6973057E3,2.9005176E2,3.3996863E3,1.8867969E2,0E0,3.981485E3,2.4771326E2,1.4553467E1,3.4332336E2,6.813545E2,1.7576575E2,0E0,8.302893E1,0E0,0E0,0E0,2.1654053E2,4.3308838E2,9.268446E1,0E0,3.1717041E1,0E0,5.5906982E1,0E0,1.7059412E2,9.071908E1,0E0,0E0,0E0,0E0,1.5999756E1,0E0,4.185388E1,0E0,0E0,0E0,0E0,0E0,0E0,0E0,0E0],"parents":[2147483647,0,0,1,1,2,2,3,3,5,5,6,6,7,7,8,8,9,9,10,10,12,12,16,16,17,17,18,18,20,20,22,22,24,24,25,25,30,30,32,32],"right_children":[2,4,6,8,-1,10,12,14,16,18,20,-1,22,-1,-1,-1,24,26,28,-1,30,-1,32,-1,34,36,-1,-1,-1,-1,38,-1,40,-1,-1,-1,-1,-1,-1,-1,-1],"split_conditions":[-1.5214972E0,-1.7038035E-1,3.1287436E0,-2.0161355E0,-8.846521E-2,2.1365461E0,-1.6783395E-1,-1.1398511E0,-3.1988987E-1,2.9173715E0,-6.0296524E-1,-8.576884E-2,-5.323407E-1,-5.2575596E-2,8.780348E-2,-8.950577E-2,-2.1148406E-1,-2.27684E0,2.6855153E-1,-8.257149E-2,-2.3144321E-1,-7.7933975E-2,-9.891368E-1,-8.7431364E-2,6.991491E-1,-1.0317575E0,-8.760291E-2,-7.94441E-2,8.833059E-2,-6.7134574E-2,-6.3383895E-1,-7.641837E-2,-7.2911173E-1,7.861367E-2,-8.8603176E-2,8.416359E-2,-8.5163616E-2,-5.2193474E-2,8.671341E-2,-6.933749E-2,8.5828796E-2],"split_indices":[25,1,2,1,0,5,35,49,48,15,50,0,49,0,0,0,12,28,12,0,15,0,46,0,24,34,0,0,0,0,24,0,24,0,0,0,0,0,0,0,0],"split_type":[0,0,0,0,0,0,0,0,0,0,0,0,0,0,0,0,0,0,0,0,0,0,0,0,0,0,0,0,0,0,0,0,0,0,0,0,0,0,0,0,0],"sum_hessian":[5.3858975E3,1.727165E3,3.6587322E3,1.7012566E3,2.5908558E1,3.0667002E3,5.9203186E2,1.251875E3,4.493816E2,2.6067244E3,4.5997598E2,2.2392467E1,5.696394E2,1.2395427E0,1.2506354E3,3.9525047E1,4.0985654E2,2.5322397E3,7.448453E1,1.5447867E1,4.445281E2,7.3693223E0,5.622701E2,2.1737926E1,3.8811862E2,5.341655E1,2.4788232E3,8.599528E0,6.5885E1,2.7134995E0,4.418146E2,4.709359E0,5.5756067E2,3.7301706E2,1.5101563E1,4.4695953E1,8.720596E0,1.4704331E0,4.4034418E2,3.682425E0,5.538783E2],"tree_param":{"num_deleted":"0","num_feature":"68","num_nodes":"41","size_leaf_vector":"1"}},{"base_weights":[-3.4370914E-2,1.5925947E0,-5.382524E-1,8.457094E-2,6.9855887E-1,-9.8071885E-1,8.575181E-2,-8.657389E-2,1.3696377E0,-1.5563936E0,1.684731E0,1.5844513E0,-7.8325845E-2,9.119322E-1,-1.6373963E0,-6.3938156E-2,8.50844E-2,-6.2458165E-2,8.3410054E-2,1.4095246E0,-8.0319226E-2,-1.6648146E0,1.3812131E0,-6.990275E-2,7.9837695E-2,-8.4738515E-2,5.763042E-2,-5.484087E-2,8.087717E-2],"categories":[],"categories_nodes":[],"categories_segments":[],"categories_sizes":[],"default_left":[0,0,0,0,0,0,0,0,0,0,0,0,0,0,0,0,0,0,0,0,0,0,0,0,0,0,0,0,0],"id":4,"left_children":[1,3,5,-1,7,9,-1,-1,11,13,15,17,-1,19,21,-1,-1,-1,-1,23,-1,25,27,-1,-1,-1,-1,-1,-1],"loss_changes":[4.2491055E3,1.0710742E2,3.9472397E3,0E0,2.0409283E2,5.079292E3,0E0,0E0,6.397081E1,5.456074E2,3.1730225E1,2.3760101E1,0E0,1.1142339E2,2.2040869E2,0E0,0E0,0E0,0E0,4.074849E1,0E0,2.2239941E2,1.5985973E1,0E0,0E0,0E0,0E0,0E0,0E0],"parents":[2147483647,0,0,1,1,2,2,4,4,5,5,8,8,9,9,10,10,11,11,13,13,14,14,19,19,21,21,22,22],"right_children":[2,4,6,-1,8,10,-1,-1,12,14,16,18,-1,20,22,-1,-1,-1,-1,24,-1,26,28,-1,-1,-1,-1,-1,-1],"split_conditions":[-2.014443E0,-2.0138583E0,4.251972E0,8.457094E-2,-6.252723E-1,2.7187326E0,8.575181E-2,-8.657389E-2,-2.2364703E-1,-2.683634E0,1.5596469E-1,-6.207632E-1,-7.8325845E-2,-4.7389993E-1,4.5799074E0,-6.3938156E-2,8.50844E-2,-6.2458165E-2,8.3410054E-2,6.6137545E-2,-8.0319226E-2,2.179186E0,5.3660136E-1,-6.990275E-2,7.9837695E-2,-8.4738515E-2,5.763042E-2,-5.484087E-2,8.087717E-2],"split_indices":[17,18,2,0,47,0,0,0,35,27,10,18,0,46,29,0,0,0,0,42,0,9,2,0,0,0,0,0,0],"split_type":[0,0,0,0,0,0,0,0,0,0,0,0,0,0,0,0,0,0,0,0,0,0,0,0,0,0,0,0,0],"sum_hessian":[5.1810684E3,1.2246564E3,3.9564119E3,1.1019576E3,1.2269881E2,3.3075002E3,6.489116E2,2.620998E1,9.648882E1,2.7203782E3,5.87122E2,9.033979E1,6.149034E0,8.611163E1,2.6342666E3,2.9169977E0,5.84205E2,2.193938E0,8.814585E1,7.227179E1,1.383984E1,2.610999E3,2.3267427E1,4.1139765E0,6.8157814E1,2.5839246E3,2.707464E1,1.7088041E0,2.1558624E1],"tree_param":{"num_deleted":"0","num_feature":"68","num_nodes":"29","size_leaf_vector":"1"}},{"base_weights":[3.0900365E-2,1.4098557E0,-6.6712123E-1,1.4562159E0,-8.243363E-2,-1.0391915E0,1.5499843E0,1.636105E0,9.827918E-1,-1.5747607E0,1.4772209E0,-7.494017E-2,1.6122675E0,8.204099E-2,-5.7136532E-2,-8.3367355E-2,1.2210523E0,-1.6050174E0,1.2418839E0,-7.661555E-2,1.5545154E0,-5.730151E-2,1.6242797E0,1.3964232E0,-8.348329E-2,1.419404E0,-8.16968E-2,-7.156755E-2,8.666172E-2,-6.98618E-2,1.589272E0,-4.9425278E-2,8.164194E-2,-7.743342E-2,7.40153E-2,7.964661E-2,-4.8283204E-2,8.067231E-2,-6.827461E-2],"categories":[],"categories_nodes":[],"categories_segments":[],"categories_sizes":[],"default_left":[0,0,0,0,0,0,0,0,0,0,0,0,0,0,0,0,0,0,0,0,0,0,0,0,0,0,0,0,0,0,0,0,0,0,0,0,0,0,0],"id":5,"left_children":[1,3,5,7,-1,9,11,13,15,17,19,-1,21,-1,-1,-1,23,25,27,-1,29,-1,31,33,-1,35,-1,-1,-1,-1,37,-1,-1,-1,-1,-1,-1,-1,-1],"loss_changes":[5.058425E3,2.5283228E2,2.8798691E3,1.4660474E2,0E0,4.0297546E3,9.770178E1,1.8378662E1,3.0619342E2,2.1201758E2,1.2448865E2,0E0,1.817102E1,0E0,0E0,0E0,2.2667804E2,2.1561035E2,3.762415E1,0E0,5.4775757E1,0E0,1.2583374E1,1.0550079E2,0E0,1.1318977E1,0E0,0E0,0E0,0E0,3.840161E1,0E0,0E0,0E0,0E0,0E0,0E0,0E0,0E0],"parents":[2147483647,0,0,1,1,2,2,3,3,5,5,6,6,7,7,8,8,9,9,10,10,12,12,16,16,17,17,18,18,20,20,22,22,23,23,25,25,30,30],"right_children":[2,4,6,8,-1,10,12,14,16,18,20,-1,22,-1,-1,-1,24,26,28,-1,30,-1,32,34,-1,36,-1,-1,-1,-1,38,-1,-1,-1,-1,-1,-1,-1,-1],"split_conditions":[-1.5214972E0,-1.7038035E-1,2.308911E0,-2.0161355E0,-8.243363E-2,3.396179E0,2.7835065E-1,-9.9984753E-1,-2.0657286E-1,3.3423092E0,-3.9425296E-1,-7.494017E-2,-7.0788497E-1,8.204099E-2,-5.7136532E-2,-8.3367355E-2,6.991491E-1,-2.9023237E0,9.9444145E-1,-7.661555E-2,-6.745275E-1,-5.730151E-2,-1.1265332E0,-3.1988987E-1,-8.348329E-2,-2.3303023E-1,-8.16968E-2,-7.156755E-2,8.666172E-2,-6.98618E-2,7.8442043E-1,-4.9425278E-2,8.164194E-2,-7.743342E-2,7.40153E-2,7.964661E-2,-4.8283204E-2,8.067231E-2,-6.827461E-2],"split_indices":[25,1,0,1,0,2,10,17,12,10,35,0,24,0,0,0,24,1,1,0,24,0,25,48,0,0,0,0,0,0,24,0,0,0,0,0,0,0,0],"split_type":[0,0,0,0,0,0,0,0,0,0,0,0,0,0,0,0,0,0,0,0,0,0,0,0,0,0,0,0,0,0,0,0,0,0,0,0,0,0,0],"sum_hessian":[5.2533076E3,1.7651666E3,3.4881409E3,1.7393264E3,2.5840258E1,2.9873425E3,5.0079852E2,1.2586251E3,4.8070132E2,2.4634248E3,5.239177E2,9.564152E0,4.9123438E2,1.256902E3,1.7230388E0,3.9157696E1,4.415436E2,2.4376692E3,2.5755545E1,1.26476E1,5.1127008E2,1.7206953E0,4.8951367E2,4.1677603E2,2.4767574E1,2.2632044E1,2.415037E3,3.701907E0,2.2053638E1,5.493876E0,5.057762E2,1.2244895E0,4.8828918E2,1.105837E1,4.0571768E2,2.14067E1,1.2253433E0,5.021221E2,3.654122E0],"tree_param":{"num_deleted":"0","num_feature":"68","num_nodes":"39","size_leaf_vector":"1"}},{"base_weights":[1.6235586E-2,1.342686E0,-5.753485E-1,1.3889698E0,-7.904172E-2,-9.321412E-1,1.5071816E0,1.5832719E0,9.215812E-1,-1.3435506E0,1.5614654E0,-7.3558055E-2,1.573907E0,-5.175214E-2,7.9359785E-2,-8.038688E-2,1.1598341E0,-1.4665967E0,9.3403196E-1,-6.983572E-2,8.0478095E-2,-5.7873946E-2,7.933974E-2,1.2642965E0,-8.1429355E-2,1.0063431E0,-1.5214194E0,-7.6942585E-2,1.5094272E0,-8.292586E-2,6.731579E-2,7.756124E-2,-7.702997E-2,-7.755362E-2,5.8299214E-2,-6.0239244E-2,7.882138E-2],"categories":[],"categories_nodes":[],"categories_segments":[],"categories_sizes":[],"default_left":[0,0,0,0,0,0,0,0,0,0,0,0,0,0,0,0,0,0,0,0,0,0,0,0,0,0,0,0,0,0,0,0,0,0,0,0,0],"id":6,"left_children":[1,3,5,7,-1,9,11,13,15,17,19,-1,21,-1,-1,-1,23,25,27,-1,-1,-1,-1,29,-1,31,33,-1,35,-1,-1,-1,-1,-1,-1,-1,-1],"loss_changes":[3.9951294E3,2.146753E2,2.617585E3,1.389729E2,0E0,3.0865195E3,1.0473779E2,1.2850342E1,2.7694354E2,7.2477783E2,6.2894775E1,0E0,1.9598389E1,0E0,0E0,0E0,1.2374567E2,3.336045E2,1.9145045E2,0E0,0E0,0E0,0E0,9.889929E1,0E0,7.694847E1,1.9279932E2,0E0,2.1600113E1,0E0,0E0,0E0,0E0,0E0,0E0,0E0,0E0],"parents":[2147483647,0,0,1,1,2,2,3,3,5,5,6,6,7,7,8,8,9,9,10,10,12,12,16,16,17,17,18,18,23,23,25,25,26,26,28,28],"right_children":[2,4,6,8,-1,10,12,14,16,18,20,-1,22,-1,-1,-1,24,26,28,-1,-1,-1,-1,30,-1,32,34,-1,36,-1,-1,-1,-1,-1,-1,-1,-1],"split_conditions":[-1.5214972E0,-1.7038035E-1,2.308911E0,-2.0161355E0,-7.904172E-2,4.6163516E0,2.7835065E-1,-6.833015E-1,-3.1988987E-1,3.5787964E0,3.146709E-1,-7.3558055E-2,-8.024815E-1,-5.175214E-2,7.9359785E-2,-8.038688E-2,-6.091609E-1,-2.27684E0,-3.509315E-1,-6.983572E-2,8.0478095E-2,-5.7873946E-2,7.933974E-2,-1.3054298E0,-8.1429355E-2,-8.8133097E-1,2.179186E0,-7.6942585E-2,3.0899498E-1,-8.292586E-2,6.731579E-2,7.756124E-2,-7.702997E-2,-7.755362E-2,5.8299214E-2,-6.0239244E-2,7.882138E-2],"split_indices":[25,1,0,1,0,38,10,37,48,39,39,0,23,0,0,0,26,28,36,0,0,0,0,41,0,35,9,0,21,0,0,0,0,0,0,0,0],"split_type":[0,0,0,0,0,0,0,0,0,0,0,0,0,0,0,0,0,0,0,0,0,0,0,0,0,0,0,0,0,0,0,0,0,0,0,0,0],"sum_hessian":[5.0892534E3,1.5692993E3,3.5199543E3,1.5453588E3,2.3940445E1,3.0055723E3,5.1438196E2,1.0898855E3,4.5547333E2,2.580318E3,4.2525427E2,1.0810226E1,5.0357172E2,1.237612E0,1.0886478E3,3.8715656E1,4.1675766E2,2.4483997E3,1.3191843E2,6.354916E0,4.1889935E2,1.947837E0,5.016239E2,4.0223535E2,1.4522322E1,5.272506E1,2.3956746E3,2.4584946E1,1.0733349E2,1.045467E1,3.9178067E2,4.375521E1,8.969847E0,2.369947E3,2.5727419E1,2.1766067E0,1.05156876E2],"tree_param":{"num_deleted":"0","num_feature":"68","num_nodes":"37","size_leaf_vector":"1"}},{"base_weights":[-6.4586274E-2,1.2878757E0,-6.8113893E-1,1.4162538E0,-9.825103E-2,-1.0058885E0,1.5662236E0,1.4358336E0,-7.422262E-2,1.1280202E0,-8.1657246E-2,-1.380846E0,1.445293E0,-4.972604E-2,7.893882E-2,1.4514676E0,-7.489521E-2,1.4583648E0,-7.62944E-2,-1.4526939E0,5.460715E-1,-7.325522E-2,1.5314231E0,-7.443315E-2,1.4641271E0,7.634503E-2,-4.7293417E-2,-1.4809992E0,1.1742399E0,-7.609804E-2,7.58165E-2,-4.5790497E-2,7.715469E-2,-7.2604574E-2,7.3785275E-2,6.350332E-2,-7.537972E-2,-6.658926E-2,8.134968E-2],"categories":[],"categories_nodes":[],"categories_segments":[],"categories_sizes":[],"default_left":[0,0,0,0,0,0,0,0,0,0,0,0,0,0,0,0,0,0,0,0,0,0,0,0,0,0,0,0,0,0,0,0,0,0,0,0,0,0,0],"id":7,"left_children":[1,3,5,7,9,11,13,15,-1,17,-1,19,21,-1,-1,23,-1,25,-1,27,29,-1,31,-1,33,-1,-1,35,37,-1,-1,-1,-1,-1,-1,-1,-1,-1,-1],"loss_changes":[3.9897493E3,2.6674512E2,2.4000723E3,8.0013916E1,2.4263753E2,2.64167E3,1.4920227E1,6.4671875E1,0E0,6.509184E1,0E0,3.4573145E2,9.788501E1,0E0,0E0,5.264673E1,0E0,1.2036224E1,0E0,1.8035986E2,1.834713E2,0E0,1.2011108E1,0E0,4.7745117E1,0E0,0E0,1.7583252E2,3.1855034E1,0E0,0E0,0E0,0E0,0E0,0E0,0E0,0E0,0E0,0E0],"parents":[2147483647,0,0,1,1,2,2,3,3,4,4,5,5,6,6,7,7,9,9,11,11,12,12,15,15,17,17,19,19,20,20,22,22,24,24,27,27,28,28],"right_children":[2,4,6,8,10,12,14,16,-1,18,-1,20,22,-1,-1,24,-1,26,-1,28,30,-1,32,-1,34,-1,-1,36,38,-1,-1,-1,-1,-1,-1,-1,-1,-1,-1],"split_conditions":[-1.5214972E0,-7.8460574E-1,4.5799074E0,-2.2235039E-1,-8.9985967E-1,2.308911E0,-3.3660048E-1,1.5502943E0,-7.422262E-2,-1.227006E0,-8.1657246E-2,3.5787964E0,2.9446068E-1,-4.972604E-2,7.893882E-2,-1.6010331E0,-7.489521E-2,3.7466663E-1,-7.62944E-2,2.73287E0,1.0507632E0,-7.325522E-2,2.7835065E-1,-7.443315E-2,-1.6015825E0,7.634503E-2,-4.7293417E-2,-2.9023237E0,9.9444145E-1,-7.609804E-2,7.58165E-2,-4.5790497E-2,7.715469E-2,-7.2604574E-2,7.3785275E-2,6.350332E-2,-7.537972E-2,-6.658926E-2,8.134968E-2],"split_indices":[25,1,29,17,55,0,39,66,0,45,0,39,12,0,0,42,0,27,0,6,38,0,10,0,3,0,0,1,1,0,0,0,0,0,0,0,0,0,0],"split_type":[0,0,0,0,0,0,0,0,0,0,0,0,0,0,0,0,0,0,0,0,0,0,0,0,0,0,0,0,0,0,0,0,0,0,0,0,0,0,0],"sum_hessian":[4.7826E3,1.4972228E3,3.2853772E3,1.3702897E3,1.26933174E2,2.871055E3,4.1432227E2,1.3616039E3,8.68582E0,7.070777E1,5.6225403E1,2.4905168E3,3.805381E2,1.6394885E0,4.1268277E2,1.3548888E3,6.7150016E0,6.3281322E1,7.426448E0,2.4012297E3,8.928716E1,1.0477736E1,3.7006033E2,5.3089643E0,1.3495798E3,6.1882206E1,1.3991176E0,2.3760637E3,2.516597E1,2.8331694E1,6.0955475E1,1.3887268E0,3.686716E2,4.845072E0,1.3447347E3,2.2302372E1,2.3537615E3,3.5538154E0,2.1612154E1],"tree_param":{"num_deleted":"0","num_feature":"68","num_nodes":"39","size_leaf_vector":"1"}},{"base_weights":[2.9769532E-2,1.2856662E0,-6.031404E-1,1.3932757E0,-9.251349E-3,-1.0253621E0,1.3355619E0,1.4111723E0,-7.268096E-2,-8.518854E-1,8.139077E-2,-1.4196241E0,1.4851815E0,-7.592305E-2,1.4704703E0,1.4253553E0,-7.402685E-2,-7.956194E-2,7.2675005E-2,1.0201441E0,-1.4750055E0,-6.1666813E-2,7.5413615E-2,-6.8126805E-2,1.501325E0,-7.051876E-2,1.4369885E0,7.759957E-2,-7.299283E-2,-7.504877E-2,1.06998E0,1.5216907E0,-6.4835705E-2,-6.629457E-2,7.224356E-2,-5.883454E-2,7.128009E-2,7.65735E-2,-5.2854963E-2],"categories":[],"categories_nodes":[],"categories_segments":[],"categories_sizes":[],"default_left":[0,0,0,0,0,0,0,0,0,0,0,0,0,0,0,0,0,0,0,0,0,0,0,0,0,0,0,0,0,0,0,0,0,0,0,0,0,0,0],"id":8,"left_children":[1,3,5,7,9,11,13,15,-1,17,-1,19,21,-1,23,25,-1,-1,-1,27,29,-1,-1,-1,31,-1,33,-1,-1,-1,35,37,-1,-1,-1,-1,-1,-1,-1],"loss_changes":[3.914598E3,2.299646E2,2.681856E3,7.96792E1,1.7741502E2,2.664275E3,2.2788477E2,6.4229004E1,0E0,1.47027E2,0E0,3.1565723E2,2.480597E1,0E0,5.1006348E1,5.1764404E1,0E0,0E0,0E0,7.111206E1,1.5188965E2,0E0,0E0,0E0,3.357422E1,0E0,3.4628418E1,0E0,0E0,0E0,2.0494926E1,1.5514404E1,0E0,0E0,0E0,0E0,0E0,0E0,0E0],"parents":[2147483647,0,0,1,1,2,2,3,3,4,4,5,5,6,6,7,7,9,9,11,11,12,12,14,14,15,15,19,19,20,20,24,24,26,26,30,30,31,31],"right_children":[2,4,6,8,10,12,14,16,-1,18,-1,20,22,-1,24,26,-1,-1,-1,28,30,-1,-1,-1,32,-1,34,-1,-1,-1,36,38,-1,-1,-1,-1,-1,-1,-1],"split_conditions":[-1.5214972E0,-7.8460574E-1,3.1287436E0,-2.2235039E-1,3.1287436E0,2.6434503E0,1.1435435E-1,1.5502943E0,-7.268096E-2,2.7333677E0,8.139077E-2,-2.27684E0,1.5641917E0,-7.592305E-2,8.926246E-2,-1.6015825E0,-7.402685E-2,-7.956194E-2,7.2675005E-2,-8.8133097E-1,2.7187326E0,-6.1666813E-2,7.5413615E-2,-6.8126805E-2,8.5725933E-1,-7.051876E-2,-1.6194563E0,7.759957E-2,-7.299283E-2,-7.504877E-2,5.941943E-1,1.22736E0,-6.4835705E-2,-6.629457E-2,7.224356E-2,-5.883454E-2,7.128009E-2,7.65735E-2,-5.2854963E-2],"split_indices":[25,1,2,17,2,14,38,66,0,5,0,28,5,0,35,3,0,0,0,35,0,0,0,0,11,0,47,0,0,0,1,65,0,0,0,0,0,0,0],"split_type":[0,0,0,0,0,0,0,0,0,0,0,0,0,0,0,0,0,0,0,0,0,0,0,0,0,0,0,0,0,0,0,0,0,0,0,0,0,0,0],"sum_hessian":[4.922855E3,1.6492272E3,3.2736282E3,1.5226194E3,1.2660779E2,2.6885676E3,5.8506055E2,1.5136086E3,9.010727E0,8.390149E1,4.2706303E1,2.3240305E3,3.6453702E2,2.594441E1,5.5911615E2,1.5067256E3,6.8829694E0,6.3762253E1,2.0139233E1,5.119662E1,2.272834E3,2.628824E0,3.619082E2,5.5588303E0,5.535573E2,5.664625E0,1.501061E3,4.2464184E1,8.732436E0,2.2502817E3,2.2552256E1,5.500102E2,3.5471275E0,3.7946887E0,1.4972664E3,2.7664084E0,1.9785847E1,5.48337E2,1.6732454E0],"tree_param":{"num_deleted":"0","num_feature":"68","num_nodes":"39","size_leaf_vector":"1"}},{"base_weights":[-4.8431475E-2,1.2284818E0,-6.492249E-1,1.3687773E0,-1.4522484E-1,-9.451486E-1,7.483445E-2,1.3846272E0,-6.9371544E-2,-7.726776E-2,8.403427E-1,-1.3265064E0,1.450899E0,-7.3289245E-2,1.3977462E0,1.2580729E0,-7.729772E-2,1.0488569E0,-1.3776941E0,-5.732174E-2,7.365118E-2,1.4091264E0,-7.097441E-2,-6.493784E-2,1.4340904E0,7.547118E-2,-7.039559E-2,-1.4362098E0,2.0076534E-1,-6.6560365E-2,7.0879236E-2,7.577132E-2,-5.3325582E-2,-7.324789E-2,5.6803342E-2,-7.579022E-2,8.261926E-2],"categories":[],"categories_nodes":[],"categories_segments":[],"categories_sizes":[],"default_left":[0,0,0,0,0,0,0,0,0,0,0,0,0,0,0,0,0,0,0,0,0,0,0,0,0,0,0,0,0,0,0,0,0,0,0,0,0],"id":9,"left_children":[1,3,5,7,9,11,-1,13,-1,-1,15,17,19,-1,21,23,-1,25,27,-1,-1,29,-1,-1,31,-1,-1,33,35,-1,-1,-1,-1,-1,-1,-1,-1],"loss_changes":[3.4913381E3,2.808352E2,1.9666912E3,5.9643555E1,1.8874579E2,2.4876492E3,0E0,5.119507E1,0E0,0E0,8.2059555E1,2.868584E2,2.3180603E1,0E0,4.3959473E1,3.289228E1,0E0,5.879635E1,2.1256592E2,0E0,0E0,3.2111572E1,0E0,0E0,1.4832855E1,0E0,0E0,1.655498E2,2.0940356E2,0E0,0E0,0E0,0E0,0E0,0E0,0E0,0E0],"parents":[2147483647,0,0,1,1,2,2,3,3,4,4,5,5,7,7,10,10,11,11,12,12,14,14,15,15,17,17,18,18,21,21,24,24,27,27,28,28],"right_children":[2,4,6,8,10,12,-1,14,-1,-1,16,18,20,-1,22,24,-1,26,28,-1,-1,30,-1,-1,32,-1,-1,34,36,-1,-1,-1,-1,-1,-1,-1,-1],"split_conditions":[-1.5214972E0,-9.1853464E-1,4.251972E0,-1.7103043E-1,4.7307792E-1,2.7187326E0,7.483445E-2,-1.6008888E0,-6.9371544E-2,-7.726776E-2,2.856618E-2,-2.27684E0,2.8827274E-1,-7.3289245E-2,1.8067433E0,-4.286611E-1,-7.729772E-2,-1.0317575E0,3.1287436E0,-5.732174E-2,7.365118E-2,-7.658002E-1,-7.097441E-2,-6.493784E-2,-5.5347276E-1,7.547118E-2,-7.039559E-2,2.73287E0,1.8631909E0,-6.6560365E-2,7.0879236E-2,7.577132E-2,-5.3325582E-2,-7.324789E-2,5.6803342E-2,-7.579022E-2,8.261926E-2],"split_indices":[25,1,2,17,48,0,0,41,0,0,66,28,12,0,28,41,0,34,2,0,0,12,0,0,43,0,0,6,60,0,0,0,0,0,0,0,0],"split_type":[0,0,0,0,0,0,0,0,0,0,0,0,0,0,0,0,0,0,0,0,0,0,0,0,0,0,0,0,0,0,0,0,0,0,0,0,0],"sum_hessian":[4.548945E3,1.4551517E3,3.093793E3,1.320313E3,1.3483884E2,2.719351E3,3.7444177E2,1.3132585E3,7.054412E0,5.5469303E1,7.936954E1,2.3463499E3,3.7300143E2,5.509279E0,1.3077493E3,6.7947815E1,1.1421724E1,4.908478E1,2.297265E3,2.7212377E0,3.702802E2,1.3029857E3,4.763592E0,3.9655592E0,6.3982254E1,4.166038E1,7.424401E0,2.2152334E3,8.203168E1,3.5281534E0,1.2994575E3,6.234826E1,1.6339952E0,2.191175E3,2.4058178E1,3.7565502E1,4.446618E1],"tree_param":{"num_deleted":"0","num_feature":"68","num_nodes":"37","size_leaf_vector":"1"}},{"base_weights":[-3.472508E-2,1.2023671E0,-6.2023616E-1,1.4284075E0,6.708742E-1,-9.3237615E-1,1.3829336E0,1.0641862E0,7.1784854E-2,-2.8027874E-1,1.3339934E0,-1.3506476E0,1.230817E0,-6.3037805E-2,1.4229071E0,7.221819E-2,-6.976525E-2,8.847865E-1,-8.0341846E-2,-7.389753E-2,1.43273E0,9.753946E-1,-1.4035671E0,1.334253E0,-7.049268E-2,-5.1357456E-2,7.194087E-2,1.230251E0,-7.330965E-2,-6.624862E-2,1.4682903E0,-7.096159E-2,1.4224589E0,-7.158867E-2,1.057316E0,-6.538477E-2,1.3950317E0,-6.5553546E-2,6.7864284E-2,7.4719355E-2,-5.3536065E-2,7.529564E-2,-4.2339873E-2,-6.4192936E-2,7.47325E-2,7.153262E-2,-6.485821E-2],"categories":[],"categories_nodes":[],"categories_segments":[],"categories_sizes":[],"default_left":[0,0,0,0,0,0,0,0,0,0,0,0,0,0,0,0,0,0,0,0,0,0,0,0,0,0,0,0,0,0,0,0,0,0,0,0,0,0,0,0,0,0,0,0,0,0,0],"id":10,"left_children":[1,3,5,7,9,11,13,15,-1,17,19,21,23,-1,25,-1,-1,27,-1,-1,29,31,33,35,-1,-1,-1,37,-1,-1,39,-1,41,-1,43,-1,45,-1,-1,-1,-1,-1,-1,-1,-1,-1,-1],"loss_changes":[3.2533176E3,1.7238965E2,1.907456E3,1.1577148E0,2.7312042E2,2.388672E3,4.5269104E1,2.4185902E1,0E0,2.7724084E2,7.290744E1,2.7354932E2,1.1877991E2,0E0,1.7294006E1,0E0,0E0,7.9496765E1,0E0,0E0,2.6150452E1,5.5307827E1,1.5161182E2,6.8039E1,0E0,0E0,0E0,2.888086E1,0E0,0E0,1.7778015E1,0E0,9.313446E0,0E0,2.7597235E1,0E0,4.0557495E1,0E0,0E0,0E0,0E0,0E0,0E0,0E0,0E0,0E0,0E0],"parents":[2147483647,0,0,1,1,2,2,3,3,4,4,5,5,6,6,7,7,9,9,10,10,11,11,12,12,14,14,17,17,20,20,21,21,22,22,23,23,27,27,30,30,32,32,34,34,36,36],"right_children":[2,4,6,8,10,12,14,16,-1,18,20,22,24,-1,26,-1,-1,28,-1,-1,30,32,34,36,-1,-1,-1,38,-1,-1,40,-1,42,-1,44,-1,46,-1,-1,-1,-1,-1,-1,-1,-1,-1,-1],"split_conditions":[-1.5214972E0,-2.0161355E0,2.308911E0,-1.4765569E0,4.9506235E-1,3.1287436E0,8.6007816E-1,-2.9023237E0,7.1784854E-2,-9.6357495E-1,8.502896E-1,-2.27684E0,3.2503074E-1,-6.3037805E-2,-1.0386128E0,7.221819E-2,-6.976525E-2,-1.297847E0,-8.0341846E-2,-7.389753E-2,-7.0458794E-1,6.1038494E-1,2.73287E0,-3.9256993E-1,-7.049268E-2,-5.1357456E-2,7.194087E-2,-4.421415E-1,-7.330965E-2,-6.624862E-2,6.848727E-1,-7.096159E-2,-2.0161355E0,-7.158867E-2,9.9444145E-1,-6.538477E-2,1.22736E0,-6.5553546E-2,6.7864284E-2,7.4719355E-2,-5.3536065E-2,7.529564E-2,-4.2339873E-2,-6.4192936E-2,7.47325E-2,7.153262E-2,-6.485821E-2],"split_indices":[25,1,0,28,12,2,14,1,0,60,9,28,9,0,47,0,0,26,0,0,30,25,6,36,0,0,0,30,0,0,24,0,1,0,1,0,65,0,0,0,0,0,0,0,0,0,0],"split_type":[0,0,0,0,0,0,0,0,0,0,0,0,0,0,0,0,0,0,0,0,0,0,0,0,0,0,0,0,0,0,0,0,0,0,0,0,0,0,0,0,0,0,0,0,0,0,0],"sum_hessian":[4.4894487E3,1.4418964E3,3.0475525E3,1.0104649E3,4.314315E2,2.637157E3,4.103953E2,2.2710749E1,9.8775415E2,1.7746288E2,2.5396863E2,2.2101765E3,4.2698047E2,5.6579814E0,4.047373E2,2.0027693E1,2.6830552E0,9.4659805E1,8.280307E1,8.141317E0,2.458273E2,4.877715E1,2.1613994E3,4.11362E2,1.5618463E1,2.2012796E0,4.0253604E2,8.294776E1,1.1712046E1,2.6679502E0,2.4315936E2,7.3316755E0,4.1445473E1,2.1373198E3,2.407954E1,8.789328E0,4.0257266E2,3.5052314E0,7.9442535E1,2.4109277E2,2.0665889E0,4.0299797E1,1.1456763E0,3.4854228E0,2.0594118E1,3.9777823E2,4.794447E0],"tree_param":{"num_deleted":"0","num_feature":"68","num_nodes":"47","size_leaf_vector":"1"}},{"base_weights":[2.8446231E-2,1.1739545E0,-4.9846247E-1,1.3027005E0,6.682829E-2,-8.8366944E-1,1.3038839E0,1.346159E0,4.0588453E-1,-8.969732E-1,7.434293E-2,-1.272778E0,1.2901951E0,-6.591626E-2,1.3606806E0,-6.37785E-2,1.356113E0,1.3037932E0,-7.838765E-2,-7.497204E-2,6.558188E-2,-1.3487712E0,1.1086924E0,-6.554382E-2,1.3725253E0,1.3891138E0,-6.515067E-2,-6.702859E-2,1.3651416E0,-5.5748947E-2,7.220784E-2,9.0671116E-1,-7.013991E-2,-6.431442E-2,7.344576E-2,-5.7916917E-2,1.4000967E0,-5.9491336E-2,1.4115337E0,-5.868253E-2,6.8529755E-2,7.087474E-2,-6.514348E-2,-3.7409414E-2,7.041178E-2,7.135449E-2,-5.7614204E-2],"categories":[],"categories_nodes":[],"categories_segments":[],"categories_sizes":[],"default_left":[0,0,0,0,0,0,0,0,0,0,0,0,0,0,0,0,0,0,0,0,0,0,0,0,0,0,0,0,0,0,0,0,0,0,0,0,0,0,0,0,0,0,0,0,0,0,0],"id":11,"left_children":[1,3,5,7,9,11,13,15,17,19,-1,21,23,-1,25,-1,27,29,-1,-1,-1,31,33,-1,35,37,-1,-1,39,-1,-1,41,-1,-1,-1,-1,43,-1,45,-1,-1,-1,-1,-1,-1,-1,-1],"loss_changes":[2.7400767E3,2.0378076E2,2.1599927E3,4.9388184E1,2.0669778E2,2.1692065E3,8.34021E1,3.36084E1,1.0952149E2,1.2173292E2,0E0,3.9493457E2,8.521747E1,0E0,4.246808E1,0E0,3.147168E1,1.5947601E1,0E0,0E0,0E0,2.5805054E2,6.0361664E1,0E0,2.8003601E1,3.2418823E1,0E0,0E0,1.841504E1,0E0,0E0,5.8167065E1,0E0,0E0,0E0,0E0,7.60083E0,0E0,2.2683472E1,0E0,0E0,0E0,0E0,0E0,0E0,0E0,0E0],"parents":[2147483647,0,0,1,1,2,2,3,3,4,4,5,5,6,6,7,7,8,8,9,9,11,11,12,12,14,14,16,16,17,17,21,21,22,22,24,24,25,25,28,28,31,31,36,36,38,38],"right_children":[2,4,6,8,10,12,14,16,18,20,-1,22,24,-1,26,-1,28,30,-1,-1,-1,32,34,-1,36,38,-1,-1,40,-1,-1,42,-1,-1,-1,-1,44,-1,46,-1,-1,-1,-1,-1,-1,-1,-1],"split_conditions":[-1.5214972E0,-9.1853464E-1,3.396179E0,-7.837906E-1,2.6879706E0,2.1365461E0,-3.9425296E-1,-1.6015825E0,-7.7920735E-1,2.2593842E0,7.434293E-2,2.9173715E0,-8.022198E-1,-6.591626E-2,9.30772E-1,-6.37785E-2,-1.684664E0,-9.963842E-2,-7.838765E-2,-7.497204E-2,6.558188E-2,-3.0754318E0,1.6879651E-1,-6.554382E-2,-2.7958658E-1,-6.745275E-1,-6.515067E-2,-6.702859E-2,-1.5620804E0,-5.5748947E-2,7.220784E-2,-8.8133097E-1,-7.013991E-2,-6.431442E-2,7.344576E-2,-5.7916917E-2,7.787795E-1,-5.9491336E-2,5.260336E-1,-5.868253E-2,6.8529755E-2,7.087474E-2,-6.514348E-2,-3.7409414E-2,7.041178E-2,7.135449E-2,-5.7614204E-2],"split_indices":[25,1,2,17,2,5,35,3,16,13,0,15,47,0,63,0,43,40,0,0,0,27,12,0,46,24,0,0,48,0,0,35,0,0,0,0,9,0,12,0,0,0,0,0,0,0,0],"split_type":[0,0,0,0,0,0,0,0,0,0,0,0,0,0,0,0,0,0,0,0,0,0,0,0,0,0,0,0,0,0,0,0,0,0,0,0,0,0,0,0,0,0,0,0,0,0,0],"sum_hessian":[4.5377515E3,1.4292689E3,3.1084824E3,1.2802178E3,1.4905118E2,2.5615286E3,5.4695374E2,1.2205696E3,5.9648197E1,8.900806E1,6.004312E1,2.172991E3,3.8853775E2,1.1124888E1,5.3582886E2,4.1357164E0,1.2164338E3,4.122997E1,1.8418226E1,7.018421E1,1.8823845E1,2.1062148E3,6.67761E1,1.1463006E1,3.7707474E2,5.3064307E2,5.185763E0,3.5669966E0,1.2128668E3,1.8805457E0,3.9349422E1,4.890197E1,2.0573127E3,8.394371E0,5.838173E1,3.621624E0,3.7345312E2,4.124594E0,5.265185E2,2.1405964E0,1.2107262E3,4.0011158E1,8.89081E0,1.0663359E0,3.7238678E2,5.2378375E2,2.7347202E0],"tree_param":{"num_deleted":"0","num_feature":"68","num_nodes":"47","size_leaf_vector":"1"}},{"base_weights":[1.5160375E-2,1.3032501E0,-4.078011E-1,-6.626143E-2,1.326578E0,-8.615437E-1,1.2837793E0,-6.307972E-2,1.3385628E0,-1.3580276E0,1.3600324E0,-6.803926E-2,1.356262E0,1.3486228E0,-6.2458336E-2,-6.920802E-2,9.4797707E-1,-6.318863E-2,1.4070722E0,-6.066077E-2,1.3775352E0,-4.89446E-2,1.3544588E0,-6.69247E-2,7.092749E-2,-4.5125123E-2,7.083251E-2,1.3937384E0,-5.9850164E-2,-4.562668E-2,6.794442E-2,-5.8260478E-2,7.0267215E-2],"categories":[],"categories_nodes":[],"categories_segments":[],"categories_sizes":[],"default_left":[0,0,0,0,0,0,0,0,0,0,0,0,0,0,0,0,0,0,0,0,0,0,0,0,0,0,0,0,0,0,0,0,0],"id":12,"left_children":[1,3,5,-1,7,9,11,-1,13,15,17,-1,19,21,-1,-1,23,-1,25,-1,27,-1,29,-1,-1,-1,-1,31,-1,-1,-1,-1,-1],"loss_changes":[2.3809348E3,6.79978E1,2.5262698E3,0E0,3.491858E1,2.8637422E3,1.3530322E2,0E0,2.9456665E1,1.2914355E2,6.0336426E1,0E0,3.8740234E1,1.5767334E1,0E0,0E0,2.8112307E1,0E0,1.1599426E1,0E0,2.9745361E1,0E0,1.1893921E1,0E0,0E0,0E0,0E0,2.1515259E1,0E0,0E0,0E0,0E0,0E0],"parents":[2147483647,0,0,1,1,2,2,4,4,5,5,6,6,8,8,9,9,10,10,12,12,13,13,16,16,18,18,20,20,22,22,27,27],"right_children":[2,4,6,-1,8,10,12,-1,14,16,18,-1,20,22,-1,-1,24,-1,26,-1,28,-1,30,-1,-1,-1,-1,32,-1,-1,-1,-1,-1],"split_conditions":[-2.0161355E0,-4.786765E-1,3.1287436E0,-6.626143E-2,-6.480076E-1,2.308911E0,-1.2348286E-1,-6.307972E-2,1.5502943E0,3.3423092E0,2.7835065E-1,-6.803926E-2,-6.8565434E-1,-1.6438354E0,-6.2458336E-2,-6.920802E-2,9.421015E-1,-6.318863E-2,-1.0797247E0,-6.066077E-2,8.969038E-1,-4.89446E-2,-1.6448271E0,-6.69247E-2,7.092749E-2,-4.5125123E-2,7.083251E-2,-1.2795762E0,-5.9850164E-2,-4.562668E-2,6.794442E-2,-5.8260478E-2,7.0267215E-2],"split_indices":[1,66,2,0,37,0,36,0,66,10,10,0,24,43,0,0,1,0,47,0,24,0,3,0,0,0,0,46,0,0,0,0,0],"split_type":[0,0,0,0,0,0,0,0,0,0,0,0,0,0,0,0,0,0,0,0,0,0,0,0,0,0,0,0,0,0,0,0,0],"sum_hessian":[4.3682173E3,1.0792823E3,3.288935E3,9.003495E0,1.0702788E3,2.5937017E3,6.952333E2,4.452627E0,1.0658262E3,2.120251E3,4.734507E2,1.8072598E1,6.7716064E2,1.0621758E3,3.6504068E0,2.0968877E3,2.3363178E1,7.8829985E0,4.6556772E2,5.1002445E0,6.720604E2,2.2396283E0,1.0599362E3,3.6728299E0,1.9690348E1,1.5377437E0,4.6402997E2,6.68313E2,3.7474496E0,1.6672387E0,1.0582689E3,2.5686119E0,6.657444E2],"tree_param":{"num_deleted":"0","num_feature":"68","num_nodes":"33","size_leaf_vector":"1"}},{"base_weights":[9.898766E-3,1.2789958E0,-4.2320788E-1,-6.589576E-2,1.3078564E0,-7.3036283E-1,1.2792604E0,-6.184686E-2,1.3209496E0,-1.1716869E0,1.2298238E0,-6.472719E-2,1.34092E0,1.3278273E0,-5.5754956E-2,-1.257453E0,6.5613675E-1,-6.5507494E-2,1.3704958E0,-5.606554E-2,1.359964E0,-5.4780643E-2,1.3338332E0,-1.2859731E0,6.621394E-1,-6.6883124E-2,6.8656355E-2,-5.0616015E-2,6.911928E-2,-4.215229E-2,1.3677456E0,-4.4736415E-2,6.6907115E-2,-6.684648E-2,-1.7663185E-2,7.631342E-2,-6.1701834E-2,-3.899457E-2,6.875429E-2],"categories":[],"categories_nodes":[],"categories_segments":[],"categories_sizes":[],"default_left":[0,0,0,0,0,0,0,0,0,0,0,0,0,0,0,0,0,0,0,0,0,0,0,0,0,0,0,0,0,0,0,0,0,0,0,0,0,0,0],"id":13,"left_children":[1,3,5,-1,7,9,11,-1,13,15,17,-1,19,21,-1,23,25,-1,27,-1,29,-1,31,33,35,-1,-1,-1,-1,-1,37,-1,-1,-1,-1,-1,-1,-1,-1],"loss_changes":[2.3286636E3,8.251453E1,1.6526652E3,0E0,3.7172485E1,2.3168384E3,7.840997E1,0E0,1.92677E1,3.4338354E2,1.7771375E2,0E0,2.367279E1,1.6876587E1,0E0,1.1513965E2,1.4278209E2,0E0,1.4630188E1,0E0,9.19574E0,0E0,1.1347168E1,9.730884E1,5.3041767E1,0E0,0E0,0E0,0E0,0E0,8.44812E0,0E0,0E0,0E0,0E0,0E0,0E0,0E0,0E0],"parents":[2147483647,0,0,1,1,2,2,4,4,5,5,6,6,8,8,9,9,10,10,12,12,13,13,15,15,16,16,18,18,20,20,22,22,23,23,24,24,30,30],"right_children":[2,4,6,-1,8,10,12,-1,14,16,18,-1,20,22,-1,24,26,-1,28,-1,30,-1,32,34,36,-1,-1,-1,-1,-1,38,-1,-1,-1,-1,-1,-1,-1,-1],"split_conditions":[-2.0161355E0,-8.980559E-1,2.1365461E0,-6.589576E-2,-4.786765E-1,3.3953605E0,-7.1462196E-1,-6.184686E-2,1.5502943E0,3.5787964E0,-1.2655005E-1,-6.472719E-2,-4.786765E-1,-6.480076E-1,-5.5754956E-2,2.5396333E0,1.0507632E0,-6.5507494E-2,4.8767284E-1,-5.606554E-2,-1.1370736E0,-5.4780643E-2,-1.8130006E0,1.7156315E0,-1.6447161E0,-6.6883124E-2,6.8656355E-2,-5.0616015E-2,6.911928E-2,-4.215229E-2,-1.0283349E0,-4.4736415E-2,6.6907115E-2,-6.684648E-2,-1.7663185E-2,7.631342E-2,-6.1701834E-2,-3.899457E-2,6.875429E-2],"split_indices":[1,49,5,0,66,29,50,0,66,39,40,0,66,37,0,4,38,0,35,0,55,0,3,10,23,0,0,0,0,0,47,0,0,0,0,0,0,0,0],"split_type":[0,0,0,0,0,0,0,0,0,0,0,0,0,0,0,0,0,0,0,0,0,0,0,0,0,0,0,0,0,0,0,0,0,0,0,0,0,0,0],"sum_hessian":[4.234612E3,1.0769525E3,3.1576592E3,1.1346183E1,1.0656063E3,2.6755198E3,4.821394E2,4.976078E0,1.0606302E3,2.1841694E3,4.9135022E2,1.0812381E1,4.7132703E2,1.0580978E3,2.5324228E0,2.0865742E3,9.759522E1,2.5348259E1,4.6600195E2,3.1732454E0,4.6815378E2,2.1672716E0,1.0559305E3,2.0563523E3,3.0221863E1,2.5584486E1,7.2010735E1,1.8959571E0,4.64106E2,1.27001E0,4.6688376E2,1.6389856E0,1.0542915E3,1.9494167E3,1.069357E2,2.0894749E1,9.327114E0,1.2317756E0,4.6565198E2],"tree_param":{"num_deleted":"0","num_feature":"68","num_nodes":"39","size_leaf_vector":"1"}},{"base_weights":[1.6859444E-2,1.2580228E0,-4.1153726E-1,-6.21691E-2,1.2796807E0,-7.606727E-1,1.1913643E0,1.291618E0,-6.1441906E-2,-1.2368945E0,1.2555535E0,-6.9117546E-2,1.3288263E0,-5.5101868E-2,1.2983564E0,-6.6838734E-2,1.1623306E0,-6.431312E-2,1.3162516E0,-5.937568E-2,1.3504801E0,-4.8561495E-2,1.304014E0,-6.0016163E-2,7.009978E-2,-5.4338604E-2,1.3332746E0,-5.7043213E-2,1.3637056E0,-4.567961E-2,6.543966E-2,-4.4586703E-2,6.711291E-2,6.8593435E-2,-4.415613E-2],"categories":[],"categories_nodes":[],"categories_segments":[],"categories_sizes":[],"default_left":[0,0,0,0,0,0,0,0,0,0,0,0,0,0,0,0,0,0,0,0,0,0,0,0,0,0,0,0,0,0,0,0,0,0,0],"id":14,"left_children":[1,3,5,-1,7,9,11,13,-1,15,17,-1,19,-1,21,-1,23,-1,25,-1,27,-1,29,-1,-1,-1,31,-1,33,-1,-1,-1,-1,-1,-1],"loss_changes":[2.2063374E3,5.9273193E1,1.7272557E3,0E0,3.321118E1,2.4343164E3,1.9717346E2,1.8392334E1,0E0,4.928247E2,7.645819E1,0E0,3.0190735E1,0E0,1.4737061E1,0E0,4.83806E1,0E0,2.0830017E1,0E0,1.871045E1,0E0,1.2290649E1,0E0,0E0,0E0,1.0609619E1,0E0,1.0718384E1,0E0,0E0,0E0,0E0,0E0,0E0],"parents":[2147483647,0,0,1,1,2,2,4,4,5,5,6,6,7,7,9,9,10,10,12,12,14,14,16,16,18,18,20,20,22,22,26,26,28,28],"right_children":[2,4,6,-1,8,10,12,14,-1,16,18,-1,20,-1,22,-1,24,-1,26,-1,28,-1,30,-1,-1,-1,32,-1,34,-1,-1,-1,-1,-1,-1],"split_conditions":[-2.0161355E0,-4.786765E-1,3.1287436E0,-6.21691E-2,1.5502943E0,2.1365461E0,3.0677277E-1,-6.480076E-1,-6.1441906E-2,2.9173715E0,-7.0556873E-1,-6.9117546E-2,-5.614307E-1,-5.5101868E-2,-1.6489309E0,-6.6838734E-2,1.6879651E-1,-6.431312E-2,-2.2272821E-1,-5.937568E-2,-4.5569775E-1,-4.8561495E-2,-1.3590853E-1,-6.0016163E-2,7.009978E-2,-5.4338604E-2,-4.786765E-1,-5.7043213E-2,8.969038E-1,-4.567961E-2,6.543966E-2,-4.4586703E-2,6.711291E-2,6.8593435E-2,-4.415613E-2],"split_indices":[1,66,2,0,66,5,34,37,0,15,50,0,24,0,41,0,12,0,15,0,12,0,40,0,0,0,66,0,24,0,0,0,0,0,0],"split_type":[0,0,0,0,0,0,0,0,0,0,0,0,0,0,0,0,0,0,0,0,0,0,0,0,0,0,0,0,0,0,0,0,0,0,0],"sum_hessian":[4.1475366E3,1.0637301E3,3.0838064E3,8.646817E0,1.0550833E3,2.5326775E3,5.5112885E2,1.0505691E3,4.5142255E0,2.049082E3,4.8359564E2,2.7484154E1,5.236447E2,2.492877E0,1.0480762E3,1.9676128E3,8.1469154E1,1.08079405E1,4.7278772E2,4.0083017E0,5.196364E2,2.1817393E0,1.0458944E3,7.1338835E0,7.433527E1,2.8836267E0,4.6990408E2,2.293731E0,5.1734265E2,1.8401816E0,1.0440543E3,1.4944696E0,4.684096E2,5.158579E2,1.4847618E0],"tree_param":{"num_deleted":"0","num_feature":"68","num_nodes":"35","size_leaf_vector":"1"}},{"base_weights":[7.760278E-3,1.0916045E0,-5.286397E-1,1.1969168E0,-3.919622E-2,-8.4730226E-1,1.164004E0,-7.049844E-2,1.2200614E0,-6.779134E-2,6.773768E-2,-1.2523948E0,1.2538416E0,-6.451444E-2,1.2665881E0,1.2332046E0,-6.338562E-2,-1.2800002E0,9.908315E-1,-6.347584E-2,1.3135091E0,-5.730761E-2,1.3003005E0,1.2465024E0,-5.922843E-2,6.3163614E-1,-6.5407805E-2,-5.607148E-2,6.891384E-2,-4.4589005E-2,6.640546E-2,1.3265853E0,-5.968343E-2,-6.1971318E-2,6.2718876E-2,6.8308644E-2,-5.76751E-2,6.736289E-2,-5.632552E-2],"categories":[],"categories_nodes":[],"categories_segments":[],"categories_sizes":[],"default_left":[0,0,0,0,0,0,0,0,0,0,0,0,0,0,0,0,0,0,0,0,0,0,0,0,0,0,0,0,0,0,0,0,0,0,0,0,0,0,0],"id":15,"left_children":[1,3,5,7,9,11,13,-1,15,-1,-1,17,19,-1,21,23,-1,25,27,-1,29,-1,31,33,-1,35,-1,-1,-1,-1,-1,37,-1,-1,-1,-1,-1,-1,-1],"loss_changes":[2.2974678E3,1.558468E2,1.4268516E3,7.393262E1,2.0818011E2,1.8956238E3,1.0718909E2,0E0,4.037036E1,0E0,0E0,1.1682593E2,5.589673E1,0E0,3.4264465E1,3.945105E1,0E0,1.0006909E2,2.0572105E1,0E0,1.2529114E1,0E0,2.766388E1,2.4560547E1,0E0,3.755346E1,0E0,0E0,0E0,0E0,0E0,2.1506836E1,0E0,0E0,0E0,0E0,0E0,0E0,0E0],"parents":[2147483647,0,0,1,1,2,2,3,3,4,4,5,5,6,6,8,8,11,11,12,12,14,14,15,15,17,17,18,18,20,20,22,22,23,23,25,25,31,31],"right_children":[2,4,6,8,10,12,14,-1,16,-1,-1,18,20,-1,22,24,-1,26,28,-1,30,-1,32,34,-1,36,-1,-1,-1,-1,-1,38,-1,-1,-1,-1,-1,-1,-1],"split_conditions":[-1.5214972E0,-7.8460574E-1,3.1287436E0,-1.5952247E0,3.1287436E0,2.308911E0,-1.2348286E-1,-7.049844E-2,1.5502943E0,-6.779134E-2,6.773768E-2,2.73287E0,9.367863E-1,-6.451444E-2,-6.8565434E-1,-1.7103043E-1,-6.338562E-2,-1.8357018E0,9.9444145E-1,-6.347584E-2,2.7835065E-1,-5.730761E-2,7.4910223E-1,-1.3590853E-1,-5.922843E-2,-2.0161355E0,-6.5407805E-2,-5.607148E-2,6.891384E-2,-4.4589005E-2,6.640546E-2,1.0700707E0,-5.968343E-2,-6.1971318E-2,6.2718876E-2,6.8308644E-2,-5.76751E-2,6.736289E-2,-5.632552E-2],"split_indices":[25,1,2,45,2,0,36,0,66,0,0,6,5,0,24,17,0,11,1,0,10,0,51,40,0,1,0,0,0,0,0,8,0,0,0,0,0,0,0],"split_type":[0,0,0,0,0,0,0,0,0,0,0,0,0,0,0,0,0,0,0,0,0,0,0,0,0,0,0,0,0,0,0,0,0,0,0,0,0,0,0],"sum_hessian":[3.9497976E3,1.307282E3,2.6425156E3,1.1958528E3,1.11429245E2,2.224267E3,4.1824835E2,9.996321E0,1.1858564E3,5.7317947E1,5.4111298E1,1.8650891E3,3.5917813E2,1.6315975E1,4.0193237E2,1.180126E3,5.73047E0,1.8428403E3,2.2248777E1,7.8285637E0,3.5134958E2,5.0839515E0,3.9684842E2,1.1741526E3,5.973424E0,2.6437634E1,1.8164027E3,3.1548507E0,1.9093927E1,1.9156667E0,3.494339E2,3.9317273E2,3.675703E0,3.213947E0,1.1709386E3,1.8896801E1,7.540833E0,3.9033414E2,2.8385937E0],"tree_param":{"num_deleted":"0","num_feature":"68","num_nodes":"39","size_leaf_vector":"1"}},{"base_weights":[4.508823E-2,1.2108363E0,-3.2469374E-1,-5.945416E-2,1.2301077E0,-6.628214E-1,1.278344E0,1.2403666E0,-5.3463127E-2,-1.0672019E0,1.1697726E0,-5.8718573E-2,1.307963E0,-5.1629603E-2,1.2477033E0,-1.2091122E0,9.4942605E-1,-6.2392086E-2,1.3018041E0,-4.3542266E-2,6.584849E-2,-4.767796E-2,1.2541889E0,-1.2433652E0,5.4805833E-1,-6.237597E-2,1.3736205E0,-4.9470495E-2,6.573807E-2,6.297345E-2,-5.0477475E-2,-6.348498E-2,4.1328523E-2,8.2764216E-2,-6.0083956E-2,-3.9219875E-2,7.021705E-2],"categories":[],"categories_nodes":[],"categories_segments":[],"categories_sizes":[],"default_left":[0,0,0,0,0,0,0,0,0,0,0,0,0,0,0,0,0,0,0,0,0,0,0,0,0,0,0,0,0,0,0,0,0,0,0,0,0],"id":16,"left_children":[1,3,5,-1,7,9,11,13,-1,15,17,-1,19,-1,21,23,25,-1,27,-1,-1,-1,29,31,33,-1,35,-1,-1,-1,-1,-1,-1,-1,-1,-1,-1],"loss_changes":[1.7005374E3,4.5399414E1,1.6242286E3,0E0,2.3568481E1,1.8346144E3,3.9460205E1,1.6950562E1,0E0,5.8131104E2,1.4453015E2,0E0,1.1278381E1,0E0,1.4567627E1,1.1470361E2,1.26443375E2,0E0,1.3918213E1,0E0,0E0,0E0,1.2438599E1,1.0235791E2,7.3509415E1,0E0,8.570114E0,0E0,0E0,0E0,0E0,0E0,0E0,0E0,0E0,0E0,0E0],"parents":[2147483647,0,0,1,1,2,2,4,4,5,5,6,6,7,7,9,9,10,10,12,12,14,14,15,15,16,16,18,18,22,22,23,23,24,24,26,26],"right_children":[2,4,6,-1,8,10,12,14,-1,16,18,-1,20,-1,22,24,26,-1,28,-1,-1,-1,30,32,34,-1,36,-1,-1,-1,-1,-1,-1,-1,-1,-1,-1],"split_conditions":[-2.0161355E0,-4.786765E-1,2.308911E0,-5.945416E-2,1.5502943E0,3.3953605E0,-7.1462196E-1,-1.6448271E0,-5.3463127E-2,3.5787964E0,-1.2768988E-1,-5.8718573E-2,-4.786765E-1,-5.1629603E-2,-1.3590853E-1,2.3914113E0,-3.509315E-1,-6.2392086E-2,4.8767284E-1,-4.3542266E-2,6.584849E-2,-4.767796E-2,1.2415139E-1,2.73287E0,-6.837659E-1,-6.237597E-2,-3.8535517E-1,-4.9470495E-2,6.573807E-2,6.297345E-2,-5.0477475E-2,-6.348498E-2,4.1328523E-2,8.2764216E-2,-6.0083956E-2,-3.9219875E-2,7.021705E-2],"split_indices":[1,66,0,0,66,29,50,3,0,39,40,0,66,0,40,41,36,0,35,0,0,0,40,6,19,0,43,0,0,0,0,0,0,0,0,0,0],"split_type":[0,0,0,0,0,0,0,0,0,0,0,0,0,0,0,0,0,0,0,0,0,0,0,0,0,0,0,0,0,0,0,0,0,0,0,0,0],"sum_hessian":[3.9429854E3,9.489907E2,2.9939946E3,7.076134E0,9.419146E2,2.472961E3,5.210335E2,9.381894E2,3.725254E0,2.0262632E3,4.466978E2,5.755764E0,5.152777E2,2.5689745E0,9.3562036E2,1.8934232E3,1.3283998E2,2.2694271E1,4.2400354E2,1.7273762E0,5.1355035E2,2.3195603E0,9.3330084E2,1.8575068E3,3.591647E1,2.118416E1,1.11655815E2,1.960553E0,4.22043E2,9.3157166E2,1.729175E0,1.8345536E3,2.2953196E1,2.202998E1,1.3886489E1,1.2228249E0,1.1043299E2],"tree_param":{"num_deleted":"0","num_feature":"68","num_nodes":"37","size_leaf_vector":"1"}},{"base_weights":[9.37232E-2,1.081161E0,-4.2619854E-1,1.1546596E0,-2.1871643E-1,-7.723734E-1,1.1314031E0,1.1727012E0,-6.347188E-2,-6.831747E-2,6.3162796E-2,-1.216233E0,1.2352601E0,8.002576E-2,1.2802372E0,-6.184424E-2,1.1845242E0,-1.2434785E0,8.739717E-1,-5.9491526E-2,1.2776463E0,-6.6555254E-2,6.344113E-2,1.2943352E0,-5.0152328E-2,-5.8003634E-2,1.1945378E0,5.964924E-1,-6.355963E-2,6.652973E-2,-6.011769E-2,-4.2417523E-2,6.450828E-2,1.3028874E0,-4.1425496E-2,-5.437549E-2,6.0006768E-2,6.556123E-2,-5.5861272E-2,8.096615E-2,6.4055644E-2],"categories":[],"categories_nodes":[],"categories_segments":[],"categories_sizes":[],"default_left":[0,0,0,0,0,0,0,0,0,0,0,0,0,0,0,0,0,0,0,0,0,0,0,0,0,0,0,0,0,0,0,0,0,0,0,0,0,0,0,0,0],"id":17,"left_children":[1,3,5,7,9,11,13,15,-1,-1,-1,17,19,21,23,-1,25,27,29,-1,31,-1,-1,33,-1,-1,35,37,-1,-1,-1,-1,-1,39,-1,-1,-1,-1,-1,-1,-1],"loss_changes":[2.0291982E3,1.3050024E2,1.3970598E3,5.79281E1,1.2724162E2,1.8898574E3,7.3638E1,3.7972534E1,0E0,0E0,0E0,9.99458E1,4.1009705E1,1.0150958E2,1.458429E1,0E0,3.1337036E1,8.8160645E1,2.3333834E1,0E0,1.115686E1,0E0,0E0,8.534607E0,0E0,0E0,1.7538452E1,3.345096E1,0E0,0E0,0E0,0E0,0E0,7.4627686E-1,0E0,0E0,0E0,0E0,0E0,0E0,0E0],"parents":[2147483647,0,0,1,1,2,2,3,3,4,4,5,5,6,6,7,7,11,11,12,12,13,13,14,14,16,16,17,17,18,18,20,20,23,23,26,26,27,27,33,33],"right_children":[2,4,6,8,10,12,14,16,-1,-1,-1,18,20,22,24,-1,26,28,30,-1,32,-1,-1,34,-1,-1,36,38,-1,-1,-1,-1,-1,40,-1,-1,-1,-1,-1,-1,-1],"split_conditions":[-1.5214972E0,-7.837906E-1,3.1287436E0,1.5502943E0,3.739883E0,2.308911E0,6.837331E-1,-1.6015825E0,-6.347188E-2,-6.831747E-2,6.3162796E-2,2.6434503E0,-8.024815E-1,4.251972E0,1.205392E0,-6.184424E-2,-1.6194563E0,-1.8357018E0,-8.5109115E-1,-5.9491526E-2,5.0850436E-2,-6.6555254E-2,6.344113E-2,9.30772E-1,-5.0152328E-2,-5.8003634E-2,-7.3624235E-1,-3.0754318E0,-6.355963E-2,6.652973E-2,-6.011769E-2,-4.2417523E-2,6.450828E-2,-8.159216E-1,-4.1425496E-2,-5.437549E-2,6.0006768E-2,6.556123E-2,-5.5861272E-2,8.096615E-2,6.4055644E-2],"split_indices":[25,17,2,66,2,0,36,3,0,0,0,14,23,2,54,0,47,11,2,0,10,0,0,63,0,0,37,27,0,0,0,0,0,29,0,0,0,0,0,0,0],"split_type":[0,0,0,0,0,0,0,0,0,0,0,0,0,0,0,0,0,0,0,0,0,0,0,0,0,0,0,0,0,0,0,0,0,0,0,0,0,0,0,0,0],"sum_hessian":[3.9506465E3,1.3622932E3,2.5883533E3,1.2894935E3,7.279969E1,2.1181104E3,4.70243E2,1.2804796E3,9.013882E0,4.1071846E1,3.1727844E1,1.7349347E3,3.8317554E2,5.8503906E1,4.117391E2,5.7462654E0,1.2747334E3,1.713011E3,2.1923786E1,6.117146E0,3.770584E2,2.6695724E1,3.1808182E1,4.096429E2,2.0961905E0,4.9326477E0,1.2698008E3,2.5114254E1,1.6878967E3,1.8265926E1,3.6578603E0,1.8165213E0,3.7524188E2,4.0838394E2,1.2589777E0,2.6341453E0,1.2671666E3,1.7888464E1,7.2257905E0,2.1568903E1,3.8681503E2],"tree_param":{"num_deleted":"0","num_feature":"68","num_nodes":"41","size_leaf_vector":"1"}},{"base_weights":[1.1753154E-2,1.1762111E0,-3.57628E-1,-5.9729274E-2,1.1978668E0,-7.450631E-1,1.15898E0,6.283002E-2,7.739018E-1,-1.2371256E0,1.2218572E0,-5.875312E-2,1.2101061E0,1.0801345E0,-7.0138E-2,-6.317844E-2,7.7489305E-1,-5.730781E-2,1.2653618E0,-5.9456844E-2,1.2319627E0,1.2378067E0,-6.2370654E-2,-5.8076512E-2,6.5198556E-2,-4.2680264E-2,1.2736638E0,1.2487618E0,-5.5490684E-2,-4.2207144E-2,6.422725E-2,4.7905114E-2,6.417867E-2,6.328134E-2,-5.502213E-2],"categories":[],"categories_nodes":[],"categories_segments":[],"categories_sizes":[],"default_left":[0,0,0,0,0,0,0,0,0,0,0,0,0,0,0,0,0,0,0,0,0,0,0,0,0,0,0,0,0,0,0,0,0,0,0],"id":18,"left_children":[1,3,5,-1,7,9,11,-1,13,15,17,-1,19,21,-1,-1,23,-1,25,-1,27,29,-1,-1,-1,-1,31,33,-1,-1,-1,-1,-1,-1,-1],"loss_changes":[1.5512026E3,4.602014E1,1.6096194E3,0E0,2.0470215E1,2.1127754E3,6.794861E1,0E0,7.309278E1,9.384131E1,4.6471924E1,0E0,3.0099121E1,3.6299225E1,0E0,0E0,2.534618E1,0E0,8.644653E0,0E0,2.2692444E1,9.76384E0,0E0,0E0,0E0,0E0,1.09680176E-1,2.2716553E1,0E0,0E0,0E0,0E0,0E0,0E0,0E0],"parents":[2147483647,0,0,1,1,2,2,4,4,5,5,6,6,8,8,9,9,10,10,12,12,13,13,16,16,18,18,20,20,21,21,26,26,27,27],"right_children":[2,4,6,-1,8,10,12,-1,14,16,18,-1,20,22,-1,-1,24,-1,26,-1,28,30,-1,-1,-1,-1,32,34,-1,-1,-1,-1,-1,-1,-1],"split_conditions":[-2.0161355E0,-4.786765E-1,3.1287436E0,-5.9729274E-2,-1.677784E0,2.308911E0,-3.509315E-1,6.283002E-2,-4.521517E-1,2.2593842E0,2.7835065E-1,-5.875312E-2,-1.0392559E0,-1.5959522E-1,-7.0138E-2,-6.317844E-2,7.1837354E-1,-5.730781E-2,-7.1462196E-1,-5.9456844E-2,1.22736E0,-5.202637E-1,-6.2370654E-2,-5.8076512E-2,6.5198556E-2,-4.2680264E-2,2.7187326E0,1.1467516E0,-5.5490684E-2,-4.2207144E-2,6.422725E-2,4.7905114E-2,6.417867E-2,6.328134E-2,-5.502213E-2],"split_indices":[1,66,2,0,17,0,36,0,60,13,10,0,48,36,0,0,1,0,50,0,65,2,0,0,0,0,0,11,0,0,0,0,0,0,0],"split_type":[0,0,0,0,0,0,0,0,0,0,0,0,0,0,0,0,0,0,0,0,0,0,0,0,0,0,0,0,0,0,0,0,0,0,0],"sum_hessian":[3.6043892E3,8.674877E2,2.7369014E3,7.3619504E0,8.6012573E2,2.1804014E3,5.565001E2,7.53743E2,1.063828E2,1.7443821E3,4.360193E2,1.1457347E1,5.450428E2,9.370349E1,1.2679301E1,1.7221208E3,2.2261238E1,7.408703E0,4.2861057E2,4.438265E0,5.406045E2,8.819707E1,5.5064297E0,4.520573E0,1.7740665E1,1.275346E0,4.2733524E2,5.372174E2,3.387071E0,1.5618937E0,8.663517E1,1.5985328E1,4.113499E2,5.338462E2,3.3712497E0],"tree_param":{"num_deleted":"0","num_feature":"68","num_nodes":"35","size_leaf_vector":"1"}},{"base_weights":[1.0008683E-2,1.0077268E0,-4.458481E-1,1.091324E0,-5.858785E-1,-7.5274223E-1,6.3892625E-2,1.1621526E0,8.290861E-2,-6.6075854E-2,6.039942E-2,-1.1393559E0,1.1961511E0,-6.558053E-2,1.1774647E0,1.152904E0,-6.577473E-2,-1.1897588E0,1.2034262E0,-5.5572875E-2,1.2432754E0,-5.479734E-2,1.1859425E0,-4.7312424E-2,6.6426545E-2,1.0657529E0,-1.2150325E0,-3.6369216E-2,6.495993E-2,7.9974437E-1,6.3217886E-2,-5.317632E-2,5.967626E-2,6.2483307E-2,-4.117475E-2,-6.2100906E-2,4.4854492E-2,-5.4037552E-2,5.8311023E-2],"categories":[],"categories_nodes":[],"categories_segments":[],"categories_sizes":[],"default_left":[0,0,0,0,0,0,0,0,0,0,0,0,0,0,0,0,0,0,0,0,0,0,0,0,0,0,0,0,0,0,0,0,0,0,0,0,0,0,0],"id":19,"left_children":[1,3,5,7,9,11,-1,13,15,-1,-1,17,19,-1,21,23,-1,25,27,-1,29,-1,31,-1,-1,33,35,-1,-1,37,-1,-1,-1,-1,-1,-1,-1,-1,-1],"loss_changes":[1.5726049E3,1.4509839E2,1.2564338E3,7.351843E1,7.3778656E1,1.5197972E3,0E0,3.8019043E1,1.0433705E2,0E0,0E0,2.0006738E2,3.7712067E1,0E0,1.9755127E1,1.5805752E1,0E0,9.519629E1,7.588276E0,0E0,2.054657E0,0E0,1.7549683E1,0E0,0E0,7.556452E0,9.398804E1,0E0,0E0,1.3388838E1,0E0,0E0,0E0,0E0,0E0,0E0,0E0,0E0,0E0],"parents":[2147483647,0,0,1,1,2,2,3,3,4,4,5,5,7,7,8,8,11,11,12,12,14,14,15,15,17,17,18,18,20,20,22,22,25,25,26,26,29,29],"right_children":[2,4,6,8,10,12,-1,14,16,-1,-1,18,20,-1,22,24,-1,26,28,-1,30,-1,32,-1,-1,34,36,-1,-1,38,-1,-1,-1,-1,-1,-1,-1,-1,-1],"split_conditions":[-1.5214972E0,-7.837906E-1,4.251972E0,-7.8460574E-1,4.251972E0,2.308911E0,6.3892625E-2,-1.5599703E0,-1.451701E0,-6.6075854E-2,6.039942E-2,4.5799074E0,2.7835065E-1,-6.558053E-2,-1.6448271E0,5.53534E-1,-6.577473E-2,-2.9023237E0,5.3660136E-1,-5.5572875E-2,2.7187326E0,-5.479734E-2,-1.3590853E-1,-4.7312424E-2,6.6426545E-2,-2.3303023E-1,3.3423092E0,-3.6369216E-2,6.495993E-2,1.6638076E0,6.3217886E-2,-5.317632E-2,5.967626E-2,6.2483307E-2,-4.117475E-2,-6.2100906E-2,4.4854492E-2,-5.4037552E-2,5.8311023E-2],"split_indices":[25,17,2,1,2,0,0,49,43,0,0,29,10,0,3,12,0,1,2,0,0,0,40,0,0,0,10,0,0,5,0,0,0,0,0,0,0,0,0],"split_type":[0,0,0,0,0,0,0,0,0,0,0,0,0,0,0,0,0,0,0,0,0,0,0,0,0,0,0,0,0,0,0,0,0,0,0,0,0,0,0],"sum_hessian":[3.4556807E3,1.083359E3,2.3723215E3,1.0296605E3,5.3698563E1,2.0142587E3,3.580629E2,9.6194336E2,6.7717125E1,3.8268517E1,1.5430046E1,1.6811702E3,3.3308838E2,5.3967886E0,9.565466E2,3.846273E1,2.9254396E1,1.6462449E3,3.4925404E1,6.2139606E0,3.2687442E2,3.0772347E0,9.534693E2,2.6307902E0,3.583194E1,1.778605E1,1.6284587E3,1.3388416E0,3.3586563E1,1.659897E1,3.1027545E2,2.7353816E0,9.5073395E2,1.651673E1,1.2693218E0,1.608322E3,2.0136806E1,2.3893716E0,1.42095995E1],"tree_param":{"num_deleted":"0","num_feature":"68","num_nodes":"39","size_leaf_vector":"1"}},{"base_weights":[4.472508E-2,1.1590647E0,-3.5725227E-1,-5.827528E-2,1.178742E0,-7.7229285E-1,1.161797E0,6.134519E-2,7.021684E-1,-1.2079232E0,1.1863046E0,-5.5789974E-2,1.1987977E0,-6.664402E-2,1.1702036E0,-6.1734498E-2,7.828798E-1,-5.9222437E-2,1.2369838E0,-5.2330803E-2,1.2181484E0,6.3492976E-2,-5.7842024E-2,-5.4279536E-2,6.3156374E-2,-4.4489212E-2,6.269065E-2,1.2307125E0,-5.11685E-2,6.2117696E-2,-4.835036E-2],"categories":[],"categories_nodes":[],"categories_segments":[],"categories_sizes":[],"default_left":[0,0,0,0,0,0,0,0,0,0,0,0,0,0,0,0,0,0,0,0,0,0,0,0,0,0,0,0,0,0,0],"id":20,"left_children":[1,3,5,-1,7,9,11,-1,13,15,17,-1,19,-1,21,-1,23,-1,25,-1,27,-1,-1,-1,-1,-1,-1,29,-1,-1,-1],"loss_changes":[1.517275E3,4.2447388E1,1.5703567E3,0E0,1.9587158E1,1.6701375E3,4.6389343E1,0E0,8.1670746E1,8.62478E1,4.428058E1,0E0,2.4152893E1,0E0,1.7450447E1,0E0,2.0972744E1,0E0,1.3620789E1,0E0,1.5974365E1,0E0,0E0,0E0,0E0,0E0,0E0,1.4506348E1,0E0,0E0,0E0],"parents":[2147483647,0,0,1,1,2,2,4,4,5,5,6,6,8,8,9,9,10,10,12,12,14,14,16,16,18,18,20,20,27,27],"right_children":[2,4,6,-1,8,10,12,-1,14,16,18,-1,20,-1,22,-1,24,-1,26,-1,28,-1,-1,-1,-1,-1,-1,30,-1,-1,-1],"split_conditions":[-2.0161355E0,-4.786765E-1,3.396179E0,-5.827528E-2,-1.677784E0,2.308911E0,-3.9425296E-1,6.134519E-2,7.5227356E-1,2.2593842E0,9.367863E-1,-5.5789974E-2,-6.745275E-1,-6.664402E-2,-6.311799E-1,-6.1734498E-2,7.1837354E-1,-5.9222437E-2,2.7835065E-1,-5.2330803E-2,1.1467516E0,6.3492976E-2,-5.7842024E-2,-5.4279536E-2,6.3156374E-2,-4.4489212E-2,6.269065E-2,8.969038E-1,-5.11685E-2,6.2117696E-2,-4.835036E-2],"split_indices":[1,66,2,0,17,0,35,0,15,13,5,0,24,0,57,0,1,0,10,0,11,0,0,0,0,0,0,24,0,0,0],"split_type":[0,0,0,0,0,0,0,0,0,0,0,0,0,0,0,0,0,0,0,0,0,0,0,0,0,0,0,0,0,0,0],"sum_hessian":[3.3853093E3,8.9695E2,2.4883594E3,7.040127E0,8.899099E2,1.954763E3,5.335964E2,8.068016E2,8.3108315E1,1.5994069E3,3.5535602E2,8.063857E0,5.2553253E2,1.5194362E1,6.791395E1,1.5785626E3,2.0844292E1,6.9691706E0,3.4838684E2,4.0366807E0,5.2149585E2,6.556061E1,2.35334E0,4.0043454E0,1.6839947E1,2.327928E0,3.4605893E2,5.190375E2,2.458364E0,5.1673505E2,2.3024735E0],"tree_param":{"num_deleted":"0","num_feature":"68","num_nodes":"31","size_leaf_vector":"1"}},{"base_weights":[-3.0109752E-3,9.8719054E-1,-4.934611E-1,1.2020388E0,4.4378766E-1,-7.9717004E-1,1.0262262E0,1.2069271E0,-4.5291904E-2,-8.840233E-1,9.348708E-1,-1.182892E0,1.1608325E0,-5.997932E-2,1.1206982E0,6.0739774E-2,8.06877E-1,-6.76577E-2,5.9043474E-2,2.3277076E-1,6.259376E-2,4.5550355E-1,-6.056266E-2,-5.4547258E-2,6.0724825E-2,-5.7711214E-2,1.1589586E0,-6.7361094E-2,5.8786716E-2,-6.89181E-2,6.062428E-2,-5.8132064E-2,6.3110046E-2,-5.5300273E-2,1.1853634E0,-4.9317043E-2,6.0237437E-2],"categories":[],"categories_nodes":[],"categories_segments":[],"categories_sizes":[],"default_left":[0,0,0,0,0,0,0,0,0,0,0,0,0,0,0,0,0,0,0,0,0,0,0,0,0,0,0,0,0,0,0,0,0,0,0,0,0],"id":21,"left_children":[1,3,5,7,9,11,13,15,-1,17,19,21,23,-1,25,-1,27,-1,-1,29,-1,31,-1,-1,-1,-1,33,-1,-1,-1,-1,-1,-1,-1,35,-1,-1],"loss_changes":[1.5470167E3,1.2265588E2,9.8405524E2,8.878906E0,1.9681271E2,1.3427314E3,7.604938E1,1.394043E0,0E0,8.070499E1,4.8651352E1,6.952051E1,3.670697E1,0E0,3.1046082E1,0E0,1.5510573E1,0E0,0E0,1.11579895E2,0E0,3.5383873E1,0E0,0E0,0E0,0E0,2.141632E1,0E0,0E0,0E0,0E0,0E0,0E0,0E0,1.5198242E1,0E0,0E0],"parents":[2147483647,0,0,1,1,2,2,3,3,4,4,5,5,6,6,7,7,9,9,10,10,11,11,12,12,14,14,16,16,19,19,21,21,26,26,34,34],"right_children":[2,4,6,8,10,12,14,16,-1,18,20,22,24,-1,26,-1,28,-1,-1,30,-1,32,-1,-1,-1,-1,34,-1,-1,-1,-1,-1,-1,-1,36,-1,-1],"split_conditions":[-1.5214972E0,-2.0161355E0,3.1287436E0,-9.9984753E-1,4.4147453E-1,2.308911E0,-1.6783395E-1,-1.677784E0,-4.5291904E-2,2.7187326E0,1.8183103E0,-3.0754318E0,2.7835065E-1,-5.997932E-2,-4.5980212E-1,6.0739774E-2,2.308911E0,-6.76577E-2,5.9043474E-2,2.308911E0,6.259376E-2,2.4477205E0,-6.056266E-2,-5.4547258E-2,6.0724825E-2,-5.7711214E-2,-1.0312088E0,-6.7361094E-2,5.8786716E-2,-6.89181E-2,6.062428E-2,-5.8132064E-2,6.3110046E-2,-5.5300273E-2,-3.7911105E-1,-4.9317043E-2,6.0237437E-2],"split_indices":[25,1,2,17,48,0,35,17,0,0,2,27,10,0,49,0,0,0,0,0,0,48,0,0,0,0,46,0,0,0,0,0,0,0,33,0,0],"split_type":[0,0,0,0,0,0,0,0,0,0,0,0,0,0,0,0,0,0,0,0,0,0,0,0,0,0,0,0,0,0,0,0,0,0,0,0,0],"sum_hessian":[3.1834895E3,1.0541616E3,2.129328E3,7.5459937E2,2.9956223E2,1.7750585E3,3.5426935E2,7.5327985E2,1.3194652E0,8.066276E1,2.1889948E2,1.4832563E3,2.918022E2,1.39480505E1,3.403213E2,7.367523E2,1.6527544E1,6.6010315E1,1.4652443E1,6.863072E1,1.5026875E2,2.4982534E1,1.4582738E3,6.3423786E0,2.854598E2,5.146521E0,3.3517477E2,2.0285492E0,1.4498996E1,2.5798464E1,4.2832256E1,8.164409E0,1.6818127E1,3.3912704E0,3.317835E2,2.4940991E0,3.292894E2],"tree_param":{"num_deleted":"0","num_feature":"68","num_nodes":"37","size_leaf_vector":"1"}},{"base_weights":[6.3440256E-2,1.1370479E0,-3.267397E-1,-5.62898E-2,1.1524265E0,-5.771835E-1,1.2014626E0,1.1618184E0,-5.156484E-2,-9.4288623E-1,1.0847683E0,-4.5696374E-2,6.1011303E-2,-4.9935672E-2,1.168715E0,-1.0965757E0,9.4212985E-1,-5.7621818E-2,1.2111025E0,-4.4323646E-2,1.1749934E0,-1.1423581E0,9.3380785E-1,-5.7039052E-2,1.2382061E0,-3.9998446E-2,6.1015762E-2,-3.9213907E-2,5.897076E-2,-5.8983076E-2,2.9347567E-2,6.1963905E-2,-5.4293998E-2,-3.8565755E-2,6.332163E-2],"categories":[],"categories_nodes":[],"categories_segments":[],"categories_sizes":[],"default_left":[0,0,0,0,0,0,0,0,0,0,0,0,0,0,0,0,0,0,0,0,0,0,0,0,0,0,0,0,0,0,0,0,0,0,0],"id":22,"left_children":[1,3,5,-1,7,9,11,13,-1,15,17,-1,-1,-1,19,21,23,-1,25,-1,27,29,31,-1,33,-1,-1,-1,-1,-1,-1,-1,-1,-1,-1],"loss_changes":[1.3516228E3,3.122644E1,9.064818E2,0E0,1.8728394E1,1.2373058E3,1.4354919E1,1.3855713E1,0E0,4.8419666E2,1.05216156E2,0E0,0E0,0E0,1.2000488E1,1.4445105E2,7.927945E1,0E0,7.4270935E0,0E0,8.264282E0,9.803259E1,2.2670427E1,0E0,7.2745514E0,0E0,0E0,0E0,0E0,0E0,0E0,0E0,0E0,0E0,0E0],"parents":[2147483647,0,0,1,1,2,2,4,4,5,5,6,6,7,7,9,9,10,10,14,14,15,15,16,16,18,18,20,20,21,21,22,22,24,24],"right_children":[2,4,6,-1,8,10,12,14,-1,16,18,-1,-1,-1,20,22,24,-1,26,-1,28,30,32,-1,34,-1,-1,-1,-1,-1,-1,-1,-1,-1,-1],"split_conditions":[-2.0161355E0,-4.786765E-1,2.7187326E0,-5.62898E-2,1.5502943E0,3.3953605E0,2.7835065E-1,-6.480076E-1,-5.156484E-2,3.5787964E0,-1.2768988E-1,-4.5696374E-2,6.1011303E-2,-4.9935672E-2,-1.3590853E-1,2.2593842E0,-3.664081E-1,-5.7621818E-2,9.503606E-1,-4.4323646E-2,-1.6448271E0,2.3914113E0,-1.147789E0,-5.7039052E-2,-5.3410757E-2,-3.9998446E-2,6.1015762E-2,-3.9213907E-2,5.897076E-2,-5.8983076E-2,2.9347567E-2,6.1963905E-2,-5.4293998E-2,-3.8565755E-2,6.332163E-2],"split_indices":[1,66,0,0,66,29,10,37,0,39,40,0,0,0,40,13,36,0,36,0,3,41,8,0,40,0,0,0,0,0,0,0,0,0,0],"split_type":[0,0,0,0,0,0,0,0,0,0,0,0,0,0,0,0,0,0,0,0,0,0,0,0,0,0,0,0,0,0,0,0,0,0,0],"sum_hessian":[3.2247117E3,8.590529E2,2.3656587E3,5.311392E0,8.537415E2,2.0330948E3,3.3256387E2,8.5055133E2,3.190155E0,1.6667655E3,3.6632938E2,2.5044303E0,3.3005945E2,2.2487915E0,8.4830255E2,1.5415017E3,1.25263756E2,1.9146654E1,3.471827E2,2.1566448E0,8.4614594E2,1.5079373E3,3.35645E1,1.5234606E1,1.1002915E2,1.1917679E0,3.4599094E2,1.5082029E0,8.446377E2,1.4764071E3,3.1530159E1,2.9490562E1,4.073936E0,1.1594325E0,1.0886972E2],"tree_param":{"num_deleted":"0","num_feature":"68","num_nodes":"35","size_leaf_vector":"1"}},{"base_weights":[5.8719486E-2,1.1213385E0,-3.3522773E-1,-5.5894505E-2,1.1387944E0,-5.685256E-1,1.1826584E0,1.1491013E0,-5.156229E-2,-9.013085E-1,1.0753217E0,-5.6341577E-2,6.056952E-2,-5.0189324E-2,1.156262E0,-1.0267303E0,7.753524E-1,-5.6645077E-2,1.2002121E0,-4.3871798E-2,1.1626111E0,-1.1386431E0,-5.682101E-3,-5.7731193E-2,1.1485797E0,-4.3338433E-2,6.0627397E-2,-3.9725E-2,5.8354568E-2,-5.8645584E-2,3.399207E-2,-5.93295E-2,5.072973E-2,-4.310488E-2,6.068489E-2],"categories":[],"categories_nodes":[],"categories_segments":[],"categories_sizes":[],"default_left":[0,0,0,0,0,0,0,0,0,0,0,0,0,0,0,0,0,0,0,0,0,0,0,0,0,0,0,0,0,0,0,0,0,0,0],"id":23,"left_children":[1,3,5,-1,7,9,11,13,-1,15,17,-1,-1,-1,19,21,23,-1,25,-1,27,29,31,-1,33,-1,-1,-1,-1,-1,-1,-1,-1,-1,-1],"loss_changes":[1.2890525E3,3.382666E1,7.962354E2,0E0,1.9679077E1,1.0665957E3,2.1246735E1,1.3855103E1,0E0,3.4158276E2,9.193167E1,0E0,0E0,0E0,1.1623413E1,1.7233313E2,8.297998E1,0E0,8.988922E0,0E0,8.109009E0,8.549927E1,1.8191206E2,0E0,1.354892E1,0E0,0E0,0E0,0E0,0E0,0E0,0E0,0E0,0E0,0E0],"parents":[2147483647,0,0,1,1,2,2,4,4,5,5,6,6,7,7,9,9,10,10,14,14,15,15,16,16,18,18,20,20,21,21,22,22,24,24],"right_children":[2,4,6,-1,8,10,12,14,-1,16,18,-1,-1,-1,20,22,24,-1,26,-1,28,30,32,-1,34,-1,-1,-1,-1,-1,-1,-1,-1,-1,-1],"split_conditions":[-2.0161355E0,-4.786765E-1,2.6434503E0,-5.5894505E-2,1.5502943E0,3.3953605E0,-3.3332732E-1,-6.5153694E-1,-5.156229E-2,2.23098E0,-1.2655005E-1,-5.6341577E-2,6.056952E-2,-5.0189324E-2,-1.3590853E-1,2.3380184E-1,1.6780931E0,-5.6645077E-2,4.8767284E-1,-4.3871798E-2,-1.6438354E0,2.5396333E0,-8.208737E-1,-5.7731193E-2,-3.263595E-1,-4.3338433E-2,6.0627397E-2,-3.9725E-2,5.8354568E-2,-5.8645584E-2,3.399207E-2,-5.93295E-2,5.072973E-2,-4.310488E-2,6.068489E-2],"split_indices":[1,66,14,0,66,29,15,37,0,15,40,0,0,0,40,40,16,0,35,0,43,4,29,0,8,0,0,0,0,0,0,0,0,0,0],"split_type":[0,0,0,0,0,0,0,0,0,0,0,0,0,0,0,0,0,0,0,0,0,0,0,0,0,0,0,0,0,0,0,0,0,0,0],"sum_hessian":[3.0774233E3,8.3182965E2,2.2455938E3,5.9467564E0,8.258829E2,1.9469712E3,2.9862247E2,8.224471E2,3.4358008E0,1.6195574E3,3.2741385E2,3.1998162E0,2.9542267E2,2.265107E0,8.20182E2,1.5071997E3,1.12357704E2,1.7094257E1,3.1031958E2,2.1256034E0,8.180564E2,1.3582161E3,1.489836E2,1.7867968E1,9.448974E1,1.4300733E0,3.0888953E2,1.4656821E0,8.165907E2,1.333443E3,2.4773104E1,6.898021E1,8.000339E1,2.5802197E0,9.190952E1],"tree_param":{"num_deleted":"0","num_feature":"68","num_nodes":"35","size_leaf_vector":"1"}},{"base_weights":[3.7890498E-2,1.0972502E0,-3.559556E-1,1.1722343E0,3.3602515E-1,-7.5046897E-1,1.0722361E0,5.892309E-2,8.184658E-1,-6.639113E-2,1.1539632E0,-5.9271354E-2,1.1240642E0,-5.497787E-2,1.1179401E0,5.625334E-2,-4.584014E-2,6.299226E-2,-4.2176258E-2,-5.7092726E-2,1.1818086E0,-5.2232075E-2,1.1438572E0,-3.7362736E-2,5.960026E-2,1.1644744E0,-5.287108E-2,-4.9656596E-2,5.878172E-2],"categories":[],"categories_nodes":[],"categories_segments":[],"categories_sizes":[],"default_left":[0,0,0,0,0,0,0,0,0,0,0,0,0,0,0,0,0,0,0,0,0,0,0,0,0,0,0,0,0],"id":24,"left_children":[1,3,5,7,9,11,13,-1,15,-1,17,-1,19,-1,21,-1,-1,-1,-1,-1,23,-1,25,-1,-1,27,-1,-1,-1],"loss_changes":[1.2262611E3,4.507251E1,1.2080409E3,6.320801E-1,1.0064677E2,1.3706587E3,4.7302307E1,0E0,9.443006E0,0E0,1.1502502E1,0E0,4.280246E1,0E0,2.670221E1,0E0,0E0,0E0,0E0,0E0,6.977173E0,0E0,2.1662537E1,0E0,0E0,1.1918518E1,0E0,0E0,0E0],"parents":[2147483647,0,0,1,1,2,2,3,3,4,4,5,5,6,6,8,8,10,10,12,12,14,14,20,20,22,22,25,25],"right_children":[2,4,6,8,10,12,14,-1,16,-1,18,-1,20,-1,22,-1,-1,-1,-1,-1,24,-1,26,-1,-1,28,-1,-1,-1],"split_conditions":[-2.0161355E0,-1.677784E0,3.1287436E0,-2.014443E0,1.10419326E-1,2.308911E0,-4.1622195E-1,5.892309E-2,-2.9023237E0,-6.639113E-2,-7.301051E-1,-5.9271354E-2,3.303142E-1,-5.497787E-2,-6.745275E-1,5.625334E-2,-4.584014E-2,6.299226E-2,-4.2176258E-2,-5.7092726E-2,-7.0788497E-1,-5.2232075E-2,8.014805E-1,-3.7362736E-2,5.960026E-2,-1.209646E0,-5.287108E-2,-4.9656596E-2,5.878172E-2],"split_indices":[1,17,2,17,18,0,35,0,1,0,22,0,12,0,24,0,0,0,0,0,24,0,24,0,0,46,0,0,0],"split_type":[0,0,0,0,0,0,0,0,0,0,0,0,0,0,0,0,0,0,0,0,0,0,0,0,0,0,0,0,0],"sum_hessian":[2.9371545E3,7.955401E2,2.1416145E3,7.237113E2,7.182881E1,1.678447E3,4.6316757E2,7.089012E2,1.4810128E1,2.3467632E1,4.8361183E1,1.362635E3,3.15812E2,9.070911E0,4.5409665E2,1.2885129E1,1.924999E0,4.6277416E1,2.0837667E0,7.3815694E0,3.0843045E2,4.912129E0,4.491845E2,1.2416382E0,3.071888E2,4.4548312E2,3.7013834E0,1.8395998E0,4.4364352E2],"tree_param":{"num_deleted":"0","num_feature":"68","num_nodes":"29","size_leaf_vector":"1"}},{"base_weights":[6.294942E-2,9.5790017E-1,-3.8077447E-1,1.1569741E0,5.0774753E-1,-6.8339056E-1,1.0431743E0,1.1630108E0,-4.579706E-2,-2.3277047E-1,1.0598184E0,-1.0799836E0,1.1098005E0,-5.383857E-2,1.0982248E0,5.850304E-2,8.1334734E-1,9.8566586E-1,-6.427237E-2,-5.5018485E-2,1.1463894E0,8.4532434E-1,-1.1357425E0,-5.220991E-2,1.1595701E0,-5.597285E-2,1.1309111E0,-6.334004E-2,5.72831E-2,-5.5101044E-2,5.862332E-2,1.1669916E0,-3.969426E-2,-5.2799683E-2,6.014627E-2,-5.8369275E-2,9.032727E-1,9.0146244E-1,5.9036758E-2,-5.4126896E-2,1.1514264E0,-3.617471E-2,5.9281904E-2,-4.9491335E-2,6.2021207E-2,-5.1864248E-2,5.617128E-2,5.835225E-2,-4.8738923E-2],"categories":[],"categories_nodes":[],"categories_segments":[],"categories_sizes":[],"default_left":[0,0,0,0,0,0,0,0,0,0,0,0,0,0,0,0,0,0,0,0,0,0,0,0,0,0,0,0,0,0,0,0,0,0,0,0,0,0,0,0,0,0,0,0,0,0,0,0,0],"id":25,"left_children":[1,3,5,7,9,11,13,15,-1,17,19,21,23,-1,25,-1,27,29,-1,-1,31,33,35,-1,37,-1,39,-1,-1,-1,-1,41,-1,-1,-1,-1,43,45,-1,-1,47,-1,-1,-1,-1,-1,-1,-1,-1],"loss_changes":[1.1404211E3,8.471399E1,8.2805817E2,9.314514E0,1.2029998E2,1.1277451E3,4.05018E1,6.6967773E-1,0E0,1.63189E2,3.2756912E1,1.4027197E2,3.2019806E1,0E0,2.5105988E1,0E0,1.2704795E1,2.4332378E1,0E0,0E0,7.418869E0,2.6493805E1,8.2453E1,0E0,4.727173E-1,0E0,1.5986603E1,0E0,0E0,0E0,0E0,6.5372467E0,0E0,0E0,0E0,0E0,1.3892775E1,1.2161081E1,0E0,0E0,1.18342285E1,0E0,0E0,0E0,0E0,0E0,0E0,0E0,0E0],"parents":[2147483647,0,0,1,1,2,2,3,3,4,4,5,5,6,6,7,7,9,9,10,10,11,11,12,12,14,14,16,16,17,17,20,20,21,21,22,22,24,24,26,26,31,31,36,36,37,37,40,40],"right_children":[2,4,6,8,10,12,14,16,-1,18,20,22,24,-1,26,-1,28,30,-1,-1,32,34,36,-1,38,-1,40,-1,-1,-1,-1,42,-1,-1,-1,-1,44,46,-1,-1,48,-1,-1,-1,-1,-1,-1,-1,-1],"split_conditions":[-1.5214972E0,-2.0161355E0,3.396179E0,-9.9984753E-1,4.9506235E-1,2.308911E0,-3.509315E-1,-1.677784E0,-4.579706E-2,-1.0411327E0,8.502896E-1,-3.0754318E0,2.7835065E-1,-5.383857E-2,-9.891368E-1,5.850304E-2,2.308911E0,9.815791E-1,-6.427237E-2,-5.5018485E-2,5.0141133E-2,4.4216782E-1,2.73287E0,-5.220991E-2,1.197774E0,-5.597285E-2,-1.1337926E0,-6.334004E-2,5.72831E-2,-5.5101044E-2,5.862332E-2,-1.3211894E0,-3.969426E-2,-5.2799683E-2,6.014627E-2,-5.8369275E-2,9.836656E-1,1.0734532E0,5.9036758E-2,-5.4126896E-2,1.22736E0,-3.617471E-2,5.9281904E-2,-4.9491335E-2,6.2021207E-2,-5.1864248E-2,5.617128E-2,5.835225E-2,-4.8738923E-2],"split_indices":[25,1,2,17,12,0,36,17,0,62,9,27,10,0,46,0,0,0,0,0,45,39,6,0,10,0,17,0,0,0,0,50,0,0,0,0,1,2,0,0,65,0,0,0,0,0,0,0,0],"split_type":[0,0,0,0,0,0,0,0,0,0,0,0,0,0,0,0,0,0,0,0,0,0,0,0,0,0,0,0,0,0,0,0,0,0,0,0,0,0,0,0,0,0,0,0,0,0,0,0,0],"sum_hessian":[2.869876E3,9.508796E2,1.9189965E3,6.5822034E2,2.926592E2,1.5830817E3,3.3591476E2,6.567467E2,1.473614E0,1.2524316E2,1.6741606E2,1.2966946E3,2.8638712E2,8.032444E0,3.2788232E2,6.4146716E2,1.5279567E1,5.8080585E1,6.7162575E1,5.9995694E0,1.6141649E2,3.609815E1,1.2605964E3,6.0164967E0,2.8037064E2,4.279527E0,3.2360278E2,1.7173887E0,1.3562178E1,4.3676934E0,5.3712894E1,1.601149E2,1.3015866E0,5.4053917E0,3.0692755E1,1.2417534E3,1.8842926E1,2.455192E1,2.558187E2,2.4963648E0,3.211064E2,1.1946437E0,1.5892026E2,2.5558767E0,1.628705E1,2.144803E0,2.2407116E1,3.1921268E2,1.8937486E0],"tree_param":{"num_deleted":"0","num_feature":"68","num_nodes":"49","size_leaf_vector":"1"}},{"base_weights":[5.580681E-2,1.11081E0,-2.5615367E-1,-5.2669395E-2,1.1239631E0,-6.661504E-1,1.0688211E0,-4.6456706E-2,1.1315572E0,-1.1166136E0,1.1078833E0,-5.360932E-2,1.1101327E0,-3.570873E-2,1.1364236E0,-1.1463091E0,7.75833E-1,-5.6723554E-2,5.8406126E-2,-5.7628393E-2,1.1323186E0,-3.5663825E-2,1.1412015E0,-5.8289833E-2,7.030637E-1,-5.000977E-2,6.1006367E-2,-5.0858546E-2,1.1509384E0,5.7987988E-2,4.4897553E-2,5.2949965E-2,-3.9810408E-2,5.820846E-2,-4.8641566E-2],"categories":[],"categories_nodes":[],"categories_segments":[],"categories_sizes":[],"default_left":[0,0,0,0,0,0,0,0,0,0,0,0,0,0,0,0,0,0,0,0,0,0,0,0,0,0,0,0,0,0,0,0,0,0,0],"id":26,"left_children":[1,3,5,-1,7,9,11,-1,13,15,17,-1,19,-1,21,23,25,-1,-1,-1,27,-1,29,-1,31,-1,-1,-1,33,-1,-1,-1,-1,-1,-1],"loss_changes":[8.9630945E2,1.8875366E1,1.1425894E3,0E0,1.0690491E1,1.2845557E3,4.515918E1,0E0,6.3481445E0,7.288855E1,4.5319244E1,0E0,2.5812378E1,0E0,6.2507324E0,4.629431E1,1.7309423E1,0E0,0E0,0E0,2.0540161E1,0E0,1.7301636E0,0E0,8.197414E0,0E0,0E0,0E0,1.4627747E1,0E0,0E0,0E0,0E0,0E0,0E0],"parents":[2147483647,0,0,1,1,2,2,4,4,5,5,6,6,8,8,9,9,10,10,12,12,14,14,15,15,16,16,20,20,22,22,24,24,28,28],"right_children":[2,4,6,-1,8,10,12,-1,14,16,18,-1,20,-1,22,24,26,-1,-1,-1,28,-1,30,-1,32,-1,-1,-1,34,-1,-1,-1,-1,-1,-1],"split_conditions":[-2.2208772E0,-4.786765E-1,3.1287436E0,-5.2669395E-2,-1.6485975E0,2.308911E0,-3.509315E-1,-4.6456706E-2,-6.5153694E-1,2.2593842E0,9.853801E-1,-5.360932E-2,-1.0486912E0,-3.570873E-2,-5.8355284E-1,4.4282475E0,7.1837354E-1,-5.6723554E-2,5.8406126E-2,-5.7628393E-2,-5.614307E-1,-3.5663825E-2,-5.873235E-1,-5.8289833E-2,-2.1085002E0,-5.000977E-2,6.1006367E-2,-5.0858546E-2,1.1467516E0,5.7987988E-2,4.4897553E-2,5.2949965E-2,-3.9810408E-2,5.820846E-2,-4.8641566E-2],"split_indices":[1,66,2,0,44,0,36,0,37,13,10,0,48,0,12,24,1,0,0,0,24,0,22,0,1,0,0,0,11,0,0,0,0,0,0],"split_type":[0,0,0,0,0,0,0,0,0,0,0,0,0,0,0,0,0,0,0,0,0,0,0,0,0,0,0,0,0,0,0,0,0,0,0],"sum_hessian":[2.7214924E3,6.204987E2,2.100994E3,3.270586E0,6.1722815E2,1.6048809E3,4.9611295E2,1.8274294E0,6.154007E2,1.2801862E3,3.246947E2,8.919124E0,4.8719382E2,1.2349911E0,6.141657E2,1.2607965E3,1.9389662E1,8.027951E0,3.1666675E2,4.2358565E0,4.8295798E2,1.2003049E0,6.129654E2,1.2480154E3,1.2781147E1,3.629569E0,1.5760094E1,3.687094E0,4.7927087E2,5.6601495E2,4.695047E1,1.0566304E1,2.214843E0,4.7675262E2,2.5182579E0],"tree_param":{"num_deleted":"0","num_feature":"68","num_nodes":"35","size_leaf_vector":"1"}},{"base_weights":[2.8440796E-2,1.0920365E0,-3.310488E-1,1.1429888E0,-7.235427E-2,-6.855031E-1,5.938613E-2,-3.7491407E-2,5.7437923E-2,-6.127401E-2,5.7032384E-2,-1.0749425E0,1.09826E0,-1.1274539E0,1.2310166E-1,-5.0998807E-2,1.1405925E0,-5.785317E-2,7.5835603E-1,-6.6137366E-2,5.86507E-2,-3.6938235E-2,1.1536349E0,-4.960377E-2,6.005569E-2,3.870689E-2,5.8369428E-2],"categories":[],"categories_nodes":[],"categories_segments":[],"categories_sizes":[],"default_left":[0,0,0,0,0,0,0,0,0,0,0,0,0,0,0,0,0,0,0,0,0,0,0,0,0,0,0],"id":27,"left_children":[1,3,5,7,9,11,-1,-1,-1,-1,-1,13,15,17,19,-1,21,-1,23,-1,-1,-1,25,-1,-1,-1,-1],"loss_changes":[9.944358E2,3.90614E1,1.0472816E3,7.736206E0,4.1240627E1,1.0964653E3,0E0,0E0,0E0,0E0,0E0,8.158728E1,2.6543701E1,7.0138794E1,8.544482E1,0E0,7.6655884E0,0E0,1.6520447E1,0E0,0E0,0E0,5.391846E-1,0E0,0E0,0E0,0E0],"parents":[2147483647,0,0,1,1,2,2,3,3,4,4,5,5,11,11,12,12,13,13,14,14,16,16,18,18,22,22],"right_children":[2,4,6,8,10,12,-1,-1,-1,-1,-1,14,16,18,20,-1,22,-1,24,-1,-1,-1,26,-1,-1,-1,-1],"split_conditions":[-2.1085002E0,-1.2862128E0,4.251972E0,-9.9477404E-1,1.9156923E0,2.308911E0,5.938613E-2,-3.7491407E-2,5.7437923E-2,-6.127401E-2,5.7032384E-2,3.396179E0,-8.4805393E-1,2.2593842E0,1.5766217E0,-5.0998807E-2,5.0850436E-2,-5.785317E-2,7.1837354E-1,-6.6137366E-2,5.86507E-2,-3.6938235E-2,2.7187326E0,-4.960377E-2,6.005569E-2,3.870689E-2,5.8369428E-2],"split_indices":[1,17,2,49,0,0,0,0,0,0,0,2,47,13,35,0,10,0,1,0,0,0,0,0,0,0,0],"split_type":[0,0,0,0,0,0,0,0,0,0,0,0,0,0,0,0,0,0,0,0,0,0,0,0,0,0,0],"sum_hessian":[2.5988958E3,6.5599963E2,1.9428961E3,6.2851495E2,2.7484688E1,1.5757035E3,3.6719263E2,1.5180972E0,6.269969E2,1.4084826E1,1.339986E1,1.2936625E3,2.8204095E2,1.2393975E3,5.4265087E1,5.073582E0,2.7696738E2,1.2206187E3,1.8778728E1,2.2718817E1,3.1546272E1,1.5253643E0,2.7544202E2,3.5405562E0,1.5238173E1,1.1636972E1,2.6380502E2],"tree_param":{"num_deleted":"0","num_feature":"68","num_nodes":"27","size_leaf_vector":"1"}},{"base_weights":[1.11140525E-2,9.154369E-1,-4.251409E-1,1.1280761E0,3.878572E-1,-7.669347E-1,9.7596437E-1,5.693549E-2,8.6657923E-1,-8.184881E-1,8.6025184E-1,-1.1083512E0,1.0639354E0,-5.6311022E-2,1.0461663E0,5.6714784E-2,-6.5470554E-2,-6.1721504E-2,5.381124E-2,-5.7720073E-2,1.0014238E0,5.481569E-2,-5.704796E-2,-5.584082E-2,5.7451583E-2,-4.775374E-2,1.0784369E0,-5.027424E-2,1.0615373E0,-5.0630074E-2,1.1026435E0,-5.0534558E-2,5.5644102E-2,5.606289E-2,-4.8666097E-2],"categories":[],"categories_nodes":[],"categories_segments":[],"categories_sizes":[],"default_left":[0,0,0,0,0,0,0,0,0,0,0,0,0,0,0,0,0,0,0,0,0,0,0,0,0,0,0,0,0,0,0,0,0,0,0],"id":28,"left_children":[1,3,5,7,9,11,13,-1,15,17,19,21,23,-1,25,-1,-1,-1,-1,-1,27,-1,-1,-1,-1,-1,29,-1,31,-1,33,-1,-1,-1,-1],"loss_changes":[9.5667285E2,8.808972E1,7.8412524E2,5.756836E-1,1.3075562E2,8.235379E2,4.8585266E1,0E0,1.6713978E1,5.2342392E1,4.793657E1,8.099805E1,3.9748947E1,0E0,2.1138794E1,0E0,0E0,0E0,0E0,0E0,1.9675919E1,0E0,0E0,0E0,0E0,0E0,1.665091E1,0E0,1.7110733E1,0E0,1.2833649E1,0E0,0E0,0E0,0E0],"parents":[2147483647,0,0,1,1,2,2,3,3,4,4,5,5,6,6,8,8,9,9,10,10,11,11,12,12,14,14,20,20,26,26,28,28,30,30],"right_children":[2,4,6,8,10,12,14,-1,16,18,20,22,24,-1,26,-1,-1,-1,-1,-1,28,-1,-1,-1,-1,-1,30,-1,32,-1,34,-1,-1,-1,-1],"split_conditions":[-1.5214972E0,-2.0161355E0,3.1287436E0,-1.325777E0,4.4147453E-1,2.308911E0,-3.4613577E-1,5.693549E-2,-1.4215298E-1,2.7187326E0,6.619824E-1,-2.9023237E0,1.197774E0,-5.6311022E-2,-3.509315E-1,5.6714784E-2,-6.5470554E-2,-6.1721504E-2,5.381124E-2,-5.7720073E-2,-2.172229E-1,5.481569E-2,-5.704796E-2,-5.584082E-2,5.7451583E-2,-4.775374E-2,-1.0312088E0,-5.027424E-2,-7.0278955E-1,-5.0630074E-2,1.22736E0,-5.0534558E-2,5.5644102E-2,5.606289E-2,-4.8666097E-2],"split_indices":[25,1,2,18,48,0,33,0,0,0,13,1,10,0,36,0,0,0,0,0,12,0,0,0,0,0,46,0,33,0,65,0,0,0,0],"split_type":[0,0,0,0,0,0,0,0,0,0,0,0,0,0,0,0,0,0,0,0,0,0,0,0,0,0,0,0,0,0,0,0,0,0,0],"sum_hessian":[2.4229456E3,7.8812494E2,1.6348207E3,5.609128E2,2.2721217E2,1.3145856E3,3.2023508E2,5.3577124E2,2.5141544E1,6.373097E1,1.634812E2,1.1083058E3,2.0627977E2,9.862475E0,3.1037262E2,2.2813478E1,2.3280663E0,5.2544483E1,1.1186482E1,1.0235403E1,1.532458E2,1.5677898E1,1.0926279E3,7.291714E0,1.9898807E2,4.471618E0,3.05901E2,3.9993567E0,1.4924644E2,3.0334258E0,3.0286758E2,3.1567924E0,1.4608965E2,3.006318E2,2.235755E0],"tree_param":{"num_deleted":"0","num_feature":"68","num_nodes":"35","size_leaf_vector":"1"}},{"base_weights":[6.562028E-2,9.210171E-1,-3.5759887E-1,1.1223518E0,5.0851315E-1,-6.210777E-1,1.0674874E0,5.6447525E-2,-4.0997062E-2,-5.8817018E-2,7.276779E-1,-8.8173896E-1,1.0702735E0,-5.0005704E-2,1.1150713E0,-5.8404054E-2,8.549546E-1,-9.944878E-1,7.765131E-1,-4.9997948E-2,5.7354797E-2,-4.017379E-2,1.1277636E0,9.589109E-1,-5.646044E-2,8.278742E-1,-1.0571921E0,-5.2563068E-2,1.08421E0,-4.077771E-2,5.6973048E-2,-5.3567376E-2,5.0344754E-2,6.06545E-2,-5.218875E-2,-5.5087723E-2,2.903876E-2,5.887548E-2,-4.4801183E-2],"categories":[],"categories_nodes":[],"categories_segments":[],"categories_sizes":[],"default_left":[0,0,0,0,0,0,0,0,0,0,0,0,0,0,0,0,0,0,0,0,0,0,0,0,0,0,0,0,0,0,0,0,0,0,0,0,0,0,0],"id":29,"left_children":[1,3,5,7,9,11,13,-1,-1,-1,15,17,19,-1,21,-1,23,25,27,-1,-1,-1,29,31,-1,33,35,-1,37,-1,-1,-1,-1,-1,-1,-1,-1,-1,-1],"loss_changes":[8.7676776E2,6.600452E1,6.0907263E2,7.819153E0,9.861847E1,6.0411884E2,2.6026428E1,0E0,0E0,0E0,5.76756E1,2.2251422E2,3.027475E1,0E0,6.9446106E0,0E0,4.660463E1,1.2782153E2,4.391995E1,0E0,0E0,0E0,6.5386963E0,2.1561172E1,0E0,2.8313812E1,7.90636E1,0E0,1.3174805E1,0E0,0E0,0E0,0E0,0E0,0E0,0E0,0E0,0E0,0E0],"parents":[2147483647,0,0,1,1,2,2,3,3,4,4,5,5,6,6,10,10,11,11,12,12,14,14,16,16,17,17,18,18,22,22,23,23,25,25,26,26,28,28],"right_children":[2,4,6,8,10,12,14,-1,-1,-1,16,18,20,-1,22,-1,24,26,28,-1,-1,-1,30,32,-1,34,36,-1,38,-1,-1,-1,-1,-1,-1,-1,-1,-1,-1],"split_conditions":[-1.5214972E0,-2.0161355E0,2.308911E0,-9.9984753E-1,-3.1988987E-1,2.9019299E0,2.7835065E-1,5.6447525E-2,-4.0997062E-2,-5.8817018E-2,-2.0657286E-1,3.5787964E0,3.146709E-1,-5.0005704E-2,-7.0788497E-1,-5.8404054E-2,6.991491E-1,-3.0754318E0,-3.9425296E-1,-4.9997948E-2,5.7354797E-2,-4.017379E-2,-1.1265332E0,-8.35018E-1,-5.646044E-2,-1.1205219E0,2.3914113E0,-5.2563068E-2,-3.05791E-1,-4.077771E-2,5.6973048E-2,-5.3567376E-2,5.0344754E-2,6.06545E-2,-5.218875E-2,-5.5087723E-2,2.903876E-2,5.887548E-2,-4.4801183E-2],"split_indices":[25,1,0,17,48,33,10,0,0,0,12,39,39,0,24,0,24,27,35,0,0,0,25,35,0,10,41,0,5,0,0,0,0,0,0,0,0,0,0],"split_type":[0,0,0,0,0,0,0,0,0,0,0,0,0,0,0,0,0,0,0,0,0,0,0,0,0,0,0,0,0,0,0,0,0,0,0,0,0,0,0],"sum_hessian":[2.419965E3,8.006139E2,1.6193511E3,5.368618E2,2.6375208E2,1.3671483E3,2.5220274E2,5.354614E2,1.4004034E0,2.9856846E1,2.3389525E2,1.1850015E3,1.8214687E2,5.223309E0,2.4697943E2,1.420075E1,2.1969449E2,1.1099344E3,7.506706E1,6.0873246E0,1.7605954E2,1.213706E0,2.4576573E2,2.0924808E2,1.044642E1,3.6514614E1,1.0734198E3,1.0468104E1,6.459895E1,1.0592972E0,2.4470642E2,4.338875E0,2.049092E2,3.0573874E1,5.9407396E0,1.0453086E3,2.811118E1,6.2079422E1,2.5195308E0],"tree_param":{"num_deleted":"0","num_feature":"68","num_nodes":"39","size_leaf_vector":"1"}},{"base_weights":[3.6640987E-2,1.0525125E0,-2.7743793E-1,5.6145232E-2,6.753126E-1,-5.676324E-1,5.804946E-2,-6.347307E-2,9.7716594E-1,-1.0186384E0,1.0817634E0,-4.73735E-2,1.0572628E0,-1.0713313E0,5.6602784E-2,-4.903733E-2,1.1125401E0,-3.7433993E-2,1.1046392E0,-1.1043662E0,7.987221E-1,-3.7321027E-2,1.123874E0,4.00888E-2,5.8115322E-2,1.2823607E-2,-5.6825526E-2,-4.8390623E-2,6.0864396E-2,3.3106145E-2,5.7226814E-2],"categories":[],"categories_nodes":[],"categories_segments":[],"categories_sizes":[],"default_left":[0,0,0,0,0,0,0,0,0,0,0,0,0,0,0,0,0,0,0,0,0,0,0,0,0,0,0,0,0,0,0],"id":30,"left_children":[1,3,5,-1,7,9,-1,-1,11,13,15,-1,17,19,-1,-1,21,-1,23,25,27,-1,29,-1,-1,-1,-1,-1,-1,-1,-1],"loss_changes":[7.3498615E2,1.3685974E1,7.351808E2,0E0,5.2936535E1,1.0908397E3,0E0,0E0,1.2840363E1,1.316383E2,2.1088959E1,0E0,7.175522E0,7.0311646E1,0E0,0E0,7.3887024E0,0E0,3.3794403E-1,4.861841E1,1.6032246E1,0E0,2.1940002E0,0E0,0E0,0E0,0E0,0E0,0E0,0E0,0E0],"parents":[2147483647,0,0,1,1,2,2,4,4,5,5,8,8,9,9,10,10,12,12,13,13,16,16,18,18,19,19,20,20,22,22],"right_children":[2,4,6,-1,8,10,-1,-1,12,14,16,-1,18,20,-1,-1,22,-1,24,26,28,-1,30,-1,-1,-1,-1,-1,-1,-1,-1],"split_conditions":[-2.1085002E0,-2.1082706E0,4.251972E0,5.6145232E-2,-5.9832734E-1,2.308911E0,5.804946E-2,-6.347307E-2,-5.6879824E-1,4.5799074E0,-7.1462196E-1,-4.73735E-2,-1.231522E0,2.2593842E0,5.6602784E-2,-4.903733E-2,-2.2280154E-1,-3.7433993E-2,5.14372E-1,-1.6447161E0,7.1837354E-1,-3.7321027E-2,9.079501E-1,4.00888E-2,5.8115322E-2,1.2823607E-2,-5.6825526E-2,-4.8390623E-2,6.0864396E-2,3.3106145E-2,5.7226814E-2],"split_indices":[1,18,2,0,47,0,0,0,2,29,50,0,65,13,0,0,12,0,12,23,1,0,5,0,0,0,0,0,0,0,0],"split_type":[0,0,0,0,0,0,0,0,0,0,0,0,0,0,0,0,0,0,0,0,0,0,0,0,0,0,0,0,0,0,0],"sum_hessian":[2.3016555E3,5.4299994E2,1.7586556E3,4.559372E2,8.706277E1,1.463923E3,2.947327E2,1.1266923E1,7.5795845E1,1.1498843E3,3.1403867E2,2.5956745E0,7.320017E1,1.1228752E3,2.7009035E1,4.163365E0,3.0987527E2,1.492813E0,7.170736E1,1.1037861E3,1.908915E1,1.4847752E0,3.083905E2,1.3853495E1,5.7853863E1,2.5309797E1,1.0784763E3,3.4052534E0,1.5683897E1,1.4624068E1,2.9376645E2],"tree_param":{"num_deleted":"0","num_feature":"68","num_nodes":"31","size_leaf_vector":"1"}},{"base_weights":[5.868498E-2,8.966867E-1,-3.391935E-1,1.1047786E0,4.1654125E-1,-6.8294E-1,9.3748325E-1,5.5722553E-2,8.5721445E-1,-7.865558E-1,7.9306895E-1,-1.0359956E0,1.0255903E0,5.8842897E-2,1.1254826E0,5.5154618E-2,-6.1891403E-2,-5.9906047E-2,5.1253896E-2,9.1882527E-1,-5.5161532E-2,-1.086998E0,3.6600396E-1,-4.9499396E-2,1.0913999E0,-6.0306963E-2,6.2084515E-2,-3.7599456E-2,5.684584E-2,-5.6350995E-2,1.0186721E0,5.215607E-2,-5.6002438E-2,-5.1731296E-2,5.5826284E-2,-3.6953837E-2,1.1094414E0,5.3000893E-2,-4.6701934E-2,-3.3164736E-2,5.624918E-2],"categories":[],"categories_nodes":[],"categories_segments":[],"categories_sizes":[],"default_left":[0,0,0,0,0,0,0,0,0,0,0,0,0,0,0,0,0,0,0,0,0,0,0,0,0,0,0,0,0,0,0,0,0,0,0,0,0,0,0,0,0],"id":31,"left_children":[1,3,5,7,9,11,13,-1,15,17,19,21,23,25,27,-1,-1,-1,-1,29,-1,31,33,-1,35,-1,-1,-1,-1,-1,37,-1,-1,-1,-1,-1,39,-1,-1,-1,-1],"loss_changes":[7.479364E2,7.169379E1,6.6819617E2,2.4957275E-1,1.0026241E2,7.243254E2,5.3305664E1,0E0,1.3343845E1,4.0693977E1,4.1082138E1,7.148767E1,2.8384262E1,8.8287674E1,6.5674744E0,0E0,0E0,0E0,0E0,3.344696E1,0E0,6.872241E1,3.862589E1,0E0,7.4185333E0,0E0,0E0,0E0,0E0,0E0,1.32043E1,0E0,0E0,0E0,0E0,0E0,6.2086487E0,0E0,0E0,0E0,0E0],"parents":[2147483647,0,0,1,1,2,2,3,3,4,4,5,5,6,6,8,8,9,9,10,10,11,11,12,12,13,13,14,14,19,19,21,21,22,22,24,24,30,30,36,36],"right_children":[2,4,6,8,10,12,14,-1,16,18,20,22,24,26,28,-1,-1,-1,-1,30,-1,32,34,-1,36,-1,-1,-1,-1,-1,38,-1,-1,-1,-1,-1,40,-1,-1,-1,-1],"split_conditions":[-1.5214972E0,-2.0161355E0,2.6879706E0,-1.325777E0,1.2531896E-1,2.1365461E0,8.583746E-1,5.5722553E-2,1.7582919E-1,4.251972E0,6.991491E-1,3.2185202E0,-8.022198E-1,4.251972E0,-9.999973E-1,5.5154618E-2,-6.1891403E-2,-5.9906047E-2,5.1253896E-2,-6.6667145E-1,-5.5161532E-2,-2.9023237E0,-1.3028238E0,-4.9499396E-2,-1.0085312E0,-6.0306963E-2,6.2084515E-2,-3.7599456E-2,5.684584E-2,-5.6350995E-2,-2.693884E-1,5.215607E-2,-5.6002438E-2,-5.1731296E-2,5.5826284E-2,-3.6953837E-2,1.1066194E0,5.3000893E-2,-4.6701934E-2,-3.3164736E-2,5.624918E-2],"split_indices":[25,1,2,18,12,5,35,0,6,2,24,16,47,2,45,0,0,0,0,38,0,1,5,0,16,0,0,0,0,0,49,0,0,0,0,0,10,0,0,0,0],"split_type":[0,0,0,0,0,0,0,0,0,0,0,0,0,0,0,0,0,0,0,0,0,0,0,0,0,0,0,0,0,0,0,0,0,0,0,0,0,0,0,0,0],"sum_hessian":[2.2412947E3,7.2115735E2,1.5201372E3,5.0220422E2,2.1895311E2,1.1980311E3,3.2210608E2,4.799508E2,2.225342E1,5.1931244E1,1.6702187E2,9.9318933E2,2.0484183E2,5.700384E1,2.6510223E2,2.0339783E1,1.9136374E0,4.259354E1,9.337705E0,1.571178E2,9.904071E0,9.585438E2,3.464554E1,6.032696E0,1.9880913E2,2.7536049E1,2.9467793E1,1.2127081E0,2.6388953E2,6.8325443E0,1.5028526E2,1.4178551E1,9.4436523E2,1.1955516E1,2.2690023E1,1.5503079E0,1.9725882E2,1.4761685E2,2.6684124E0,1.352182E0,1.9590665E2],"tree_param":{"num_deleted":"0","num_feature":"68","num_nodes":"41","size_leaf_vector":"1"}},{"base_weights":[6.934256E-2,1.016798E0,-2.1650586E-1,5.545885E-2,4.7328404E-1,-4.8894712E-1,1.0779593E0,9.5448583E-1,-6.175841E-2,-8.505789E-1,1.0090969E0,-4.8243802E-2,1.1148213E0,1.1132574E0,-5.173574E-2,-9.989019E-1,2.2704712E-1,-5.2009344E-2,1.1130431E0,-3.3066172E-2,5.617674E-2,5.8871534E-2,-3.692733E-2,-1.0329512E0,8.228093E-1,-5.5523254E-2,9.630412E-1,-4.0200137E-2,5.6366213E-2,-5.3394575E-2,3.288315E-2,-4.5720175E-2,5.9090372E-2,-5.099057E-2,5.392128E-2],"categories":[],"categories_nodes":[],"categories_segments":[],"categories_sizes":[],"default_left":[0,0,0,0,0,0,0,0,0,0,0,0,0,0,0,0,0,0,0,0,0,0,0,0,0,0,0,0,0,0,0,0,0,0,0],"id":32,"left_children":[1,3,5,-1,7,9,11,13,-1,15,17,-1,19,21,-1,23,25,-1,27,-1,-1,-1,-1,29,31,-1,33,-1,-1,-1,-1,-1,-1,-1,-1],"loss_changes":[5.851398E2,2.4617249E1,5.8594946E2,0E0,6.2418167E1,7.4415515E2,2.2833588E1,1.9686066E1,0E0,1.7697235E2,5.808957E1,0E0,5.1427E0,7.3851624E0,0E0,6.115277E1,1.3356975E2,0E0,7.883484E0,0E0,0E0,0E0,0E0,5.7102478E1,1.255233E1,0E0,2.108667E1,0E0,0E0,0E0,0E0,0E0,0E0,0E0,0E0],"parents":[2147483647,0,0,1,1,2,2,4,4,5,5,6,6,7,7,9,9,10,10,12,12,13,13,15,15,16,16,18,18,23,23,24,24,26,26],"right_children":[2,4,6,-1,8,10,12,14,-1,16,18,-1,20,22,-1,24,26,-1,28,-1,-1,-1,-1,30,32,-1,34,-1,-1,-1,-1,-1,-1,-1,-1],"split_conditions":[-2.0161355E0,-2.014443E0,2.308911E0,5.545885E-2,-7.301051E-1,3.3953605E0,3.9061084E-1,-1.9340813E-1,-6.175841E-2,2.3380184E-1,-1.2768988E-1,-4.8243802E-2,-7.1462196E-1,-4.521517E-1,-5.173574E-2,2.2593842E0,-8.208737E-1,-5.2009344E-2,7.1864396E-1,-3.3066172E-2,5.617674E-2,5.8871534E-2,-3.692733E-2,2.5396333E0,7.1837354E-1,-5.5523254E-2,-3.239406E-1,-4.0200137E-2,5.6366213E-2,-5.3394575E-2,3.288315E-2,-4.5720175E-2,5.9090372E-2,-5.099057E-2,5.392128E-2],"split_indices":[1,17,0,0,22,29,10,33,0,40,40,0,50,60,0,13,29,0,35,0,0,0,0,4,1,0,15,0,0,0,0,0,0,0,0],"split_type":[0,0,0,0,0,0,0,0,0,0,0,0,0,0,0,0,0,0,0,0,0,0,0,0,0,0,0,0,0,0,0,0,0,0,0],"sum_hessian":[2.1587407E3,4.9974844E2,1.6589923E3,4.2625818E2,7.3490265E1,1.371054E3,2.8793835E2,5.768426E1,1.5806004E1,1.1047876E3,2.6626642E2,4.657395E0,2.8328098E2,5.3828217E1,3.8560455E0,9.711876E2,1.3359993E2,1.2419085E1,2.5384735E2,1.0173119E0,2.8226364E2,5.237728E1,1.4509336E0,9.537934E2,1.7394241E1,4.724089E1,8.635903E1,1.4681606E0,2.5237918E2,9.348412E2,1.895219E1,2.71399E0,1.4680252E1,4.317936E0,8.20411E1],"tree_param":{"num_deleted":"0","num_feature":"68","num_nodes":"35","size_leaf_vector":"1"}},{"base_weights":[6.467281E-2,8.9033407E-1,-3.9311397E-1,1.0901988E0,4.8148715E-1,-5.940948E-1,1.0893914E0,5.5283673E-2,-5.916676E-2,-4.900748E-1,8.5750216E-1,-8.5588E-1,1.0023596E0,-4.1329883E-2,5.613598E-2,-5.960671E-2,5.453511E-2,-5.5585623E-2,9.794799E-1,-9.935753E-1,8.081781E-1,-4.687232E-2,1.0623422E0,-5.2155823E-2,1.0365433E0,-2.7924988E-1,-5.558136E-2,-5.0506927E-2,1.0686581E0,1.0894709E0,-3.826351E-2,-4.7805566E-2,5.3927075E-2,2.9495297E-2,-5.4835077E-2,-4.2362504E-2,5.7004888E-2,3.6903568E-2,5.5832166E-2],"categories":[],"categories_nodes":[],"categories_segments":[],"categories_sizes":[],"default_left":[0,0,0,0,0,0,0,0,0,0,0,0,0,0,0,0,0,0,0,0,0,0,0,0,0,0,0,0,0,0,0,0,0,0,0,0,0,0,0],"id":33,"left_children":[1,3,5,7,9,11,13,-1,-1,15,17,19,21,-1,-1,-1,-1,-1,23,25,27,-1,29,-1,31,33,-1,-1,35,37,-1,-1,-1,-1,-1,-1,-1,-1,-1],"loss_changes":[7.8934106E2,6.0340027E1,4.0096576E2,1.8881775E1,9.041961E1,4.95602E2,1.1193008E1,0E0,0E0,7.829509E1,4.3839554E1,2.3396167E2,2.0454163E1,0E0,0E0,0E0,0E0,0E0,2.0486053E1,7.89787E1,3.817321E1,0E0,8.899796E0,0E0,1.4757507E1,9.6340935E1,0E0,0E0,1.04086685E1,7.104187E-1,0E0,0E0,0E0,0E0,0E0,0E0,0E0,0E0,0E0],"parents":[2147483647,0,0,1,1,2,2,3,3,4,4,5,5,6,6,9,9,10,10,11,11,12,12,18,18,19,19,20,20,22,22,24,24,25,25,28,28,29,29],"right_children":[2,4,6,8,10,12,14,-1,-1,16,18,20,22,-1,-1,-1,-1,-1,24,26,28,-1,30,-1,32,34,-1,-1,36,38,-1,-1,-1,-1,-1,-1,-1,-1,-1],"split_conditions":[-1.5214972E0,-2.1085002E0,4.0466137E0,-1.677784E0,4.4147453E-1,2.1365461E0,3.146709E-1,5.5283673E-2,-5.916676E-2,2.7187326E0,6.619824E-1,3.5787964E0,1.222483E0,-4.1329883E-2,5.613598E-2,-5.960671E-2,5.453511E-2,-5.5585623E-2,-2.172229E-1,-1.2865429E0,-3.9425296E-1,-4.687232E-2,-1.4008676E-1,-5.2155823E-2,-8.3849716E-1,-7.128493E-1,-5.558136E-2,-5.0506927E-2,4.2280644E-1,1.4375825E0,-3.826351E-2,-4.7805566E-2,5.3927075E-2,2.9495297E-2,-5.4835077E-2,-4.2362504E-2,5.7004888E-2,3.6903568E-2,5.5832166E-2],"split_indices":[25,1,38,17,48,5,39,0,0,0,13,39,10,0,0,0,0,0,12,7,35,0,22,0,38,32,0,0,1,12,0,0,0,0,0,0,0,0,0],"split_type":[0,0,0,0,0,0,0,0,0,0,0,0,0,0,0,0,0,0,0,0,0,0,0,0,0,0,0,0,0,0,0,0,0,0,0,0,0,0,0],"sum_hessian":[2.0864058E3,7.4385284E2,1.342553E3,4.984965E2,2.4535637E2,1.1828018E3,1.5975125E2,4.9563663E2,2.8598568E0,6.837725E1,1.7697911E2,1.01656946E3,1.6623232E2,2.3243704E0,1.5742688E2,4.7518883E1,2.0858372E1,9.849779E0,1.6712933E2,9.392524E2,7.731708E1,4.5472746E0,1.6168504E2,4.1116867E0,1.6301765E2,1.3368678E2,8.055656E2,9.327457E0,6.798962E1,1.597181E2,1.9669406E0,2.9156501E0,1.60102E2,6.492918E1,6.8757614E1,2.0536628E0,6.593596E1,1.3485309E1,1.4623279E2],"tree_param":{"num_deleted":"0","num_feature":"68","num_nodes":"39","size_leaf_vector":"1"}},{"base_weights":[8.060561E-2,1.0180066E0,-2.2459653E-1,-4.7464017E-2,1.0350033E0,-5.916773E-1,9.8466533E-1,-4.5536514E-2,1.0457726E0,-1.0719056E0,1.0632716E0,-4.9704686E-2,1.0266397E0,1.0556762E0,-4.1912165E-2,-5.5341113E-2,7.715329E-1,-4.5820802E-2,1.0983112E0,-4.570563E-2,1.049223E0,-3.5240702E-2,1.0619206E0,-4.4650897E-2,5.7494234E-2,-4.276882E-2,1.1131581E0,1.068558E0,-4.6574425E-2,5.5032194E-2,4.2584118E-2,3.4068834E-2,5.6293454E-2,5.42636E-2,-4.3989357E-2],"categories":[],"categories_nodes":[],"categories_segments":[],"categories_sizes":[],"default_left":[0,0,0,0,0,0,0,0,0,0,0,0,0,0,0,0,0,0,0,0,0,0,0,0,0,0,0,0,0,0,0,0,0,0,0],"id":34,"left_children":[1,3,5,-1,7,9,11,-1,13,15,17,-1,19,21,-1,-1,23,-1,25,-1,27,-1,29,-1,-1,-1,31,33,-1,-1,-1,-1,-1,-1,-1],"loss_changes":[5.79594E2,1.7619934E1,6.790787E2,0E0,1.1299194E1,9.335323E2,3.0615112E1,0E0,1.0056213E1,5.9416016E1,1.934491E1,0E0,1.627301E1,6.128662E0,0E0,0E0,1.2049261E1,0E0,8.500275E0,0E0,1.4240509E1,0E0,3.0360718E0,0E0,0E0,0E0,6.526489E-1,1.2123596E1,0E0,0E0,0E0,0E0,0E0,0E0,0E0],"parents":[2147483647,0,0,1,1,2,2,4,4,5,5,6,6,8,8,9,9,10,10,12,12,13,13,16,16,18,18,20,20,22,22,26,26,27,27],"right_children":[2,4,6,-1,8,10,12,-1,14,16,18,-1,20,22,-1,-1,24,-1,26,-1,28,-1,30,-1,-1,-1,32,34,-1,-1,-1,-1,-1,-1,-1],"split_conditions":[-2.0161355E0,-4.786765E-1,3.1287436E0,-4.7464017E-2,-6.480076E-1,2.308911E0,-3.9425296E-1,-4.5536514E-2,1.5502943E0,2.2593842E0,2.7835065E-1,-4.9704686E-2,-6.745275E-1,-1.6489309E0,-4.1912165E-2,-5.5341113E-2,6.547445E-1,-4.5820802E-2,-7.0788497E-1,-4.570563E-2,8.969038E-1,-3.5240702E-2,-2.1088715E0,-4.4650897E-2,5.7494234E-2,-4.276882E-2,2.7187326E0,1.1467516E0,-4.6574425E-2,5.5032194E-2,4.2584118E-2,3.4068834E-2,5.6293454E-2,5.42636E-2,-4.3989357E-2],"split_indices":[1,66,2,0,37,0,35,0,66,13,10,0,24,41,0,0,1,0,24,0,24,0,17,0,0,0,0,11,0,0,0,0,0,0,0],"split_type":[0,0,0,0,0,0,0,0,0,0,0,0,0,0,0,0,0,0,0,0,0,0,0,0,0,0,0,0,0,0,0,0,0,0,0],"sum_hessian":[2.0240677E3,4.9656808E2,1.5274998E3,3.7836196E0,4.9278445E2,1.1721847E3,3.55315E2,2.2524536E0,4.90532E2,9.088186E2,2.633661E2,6.909371E0,3.484056E2,4.884043E2,2.1277153E0,8.923168E2,1.6501814E1,4.142917E0,2.5922318E2,3.553433E0,3.4485217E2,1.3308535E0,4.8707346E2,2.8042576E0,1.36975565E1,1.5281116E0,2.5769507E2,3.4197446E2,2.877731E0,4.077381E2,7.9335335E1,8.930694E0,2.4876437E2,3.3950497E2,2.4694736E0],"tree_param":{"num_deleted":"0","num_feature":"68","num_nodes":"35","size_leaf_vector":"1"}}]},"name":"gbtree"},"learner_model_param":{"base_score":"[5E-1]","boost_from_average":"1","num_class":"0","num_feature":"68","num_target":"1"},"objective":{"name":"binary:logistic","reg_loss_param":{"scale_pos_weight":"89.1764679"}}},"version":[3,3,0]}