{"learner":{"attributes":{"best_iteration":"113","best_score":"0.9994579826376073","scikit_learn":"{\"_estimator_type\": \"classifier\"}"},"feature_names":[],"feature_types":[],"gradient_booster":{"model":{"cats":{"enc":[],"feature_segments":[],"sorted_idx":[]},"gbtree_model_param":{"num_parallel_tree":"1","num_trees":"144"},"iteration_indptr":[0,1,2,3,4,5,6,7,8,9,10,11,12,13,14,15,16,17,18,19,20,21,22,23,24,25,26,27,28,29,30,31,32,33,34,35,36,37,38,39,40,41,42,43,44,45,46,47,48,49,50,51,52,53,54,55,56,57,58,59,60,61,62,63,64,65,66,67,68,69,70,71,72,73,74,75,76,77,78,79,80,81,82,83,84,85,86,87,88,89,90,91,92,93,94,95,96,97,98,99,100,101,102,103,104,105,106,107,108,109,110,111,112,113,114,115,116,117,118,119,120,121,122,123,124,125,126,127,128,129,130,131,132,133,134,135,136,137,138,139,140,141,142,143,144],"tree_info":[0,0,0,0,0,0,0,0,0,0,0,0,0,0,0,0,0,0,0,0,0,0,0,0,0,0,0,0,0,0,0,0,0,0,0,0,0,0,0,0,0,0,0,0,0,0,0,0,0,0,0,0,0,0,0,0,0,0,0,0,0,0,0,0,0,0,0,0,0,0,0,0,0,0,0,0,0,0,0,0,0,0,0,0,0,0,0,0,0,0,0,0,0,0,0,0,0,0,0,0,0,0,0,0,0,0,0,0,0,0,0,0,0,0,0,0,0,0,0,0,0,0,0,0,0,0,0,0,0,0,0,0,0,0,0,0,0,0,0,0,0,0,0,0],"trees":[{"base_weights":[-1.818089E-2,1.9949424E0,-8.542442E-1,9.9936716E-2,-6.0000002E-2,-1.5780789E0,1.9819319E0,-1.9716868E0,1.8996984E0,-5E-2,9.935387E-2,6.806062E-1,-9.996295E-2,-8.7878786E-2,9.9668674E-2,9.4949774E-2,-8.9999996E-2],"categories":[],"categories_nodes":[],"categories_segments":[],"categories_sizes":[],"default_left":[0,0,0,0,0,0,0,0,0,0,0,0,0,0,0,0,0],"id":0,"left_children":[1,3,5,-1,-1,7,9,11,13,-1,-1,15,-1,-1,-1,-1,-1],"loss_changes":[9.072775E3,2.15625E1,7.822123E3,0E0,0E0,4.1581196E3,1.3876221E1,2.0077051E2,1.09388916E2,0E0,0E0,9.046505E1,0E0,0E0,0E0,0E0,0E0],"parents":[2147483647,0,0,1,1,2,2,5,5,6,6,7,7,8,8,11,11],"right_children":[2,4,6,-1,-1,8,10,12,14,-1,-1,16,-1,-1,-1,-1,-1],"split_conditions":[-2.0552704E0,1.394543E0,2.3800347E0,9.9936716E-2,-6.0000002E-2,1.6891601E0,-2.7829304E-1,-1.3601695E0,-4.4511832E-2,-5E-2,9.935387E-2,-1.175744E0,-9.996295E-2,-8.7878786E-2,9.9668674E-2,9.4949774E-2,-8.9999996E-2],"split_indices":[17,28,2,0,0,0,37,28,20,0,0,8,0,0,0,0,0],"split_type":[0,0,0,0,0,0,0,0,0,0,0,0,0,0,0,0,0],"sum_hessian":[5.388507E3,1.5807928E3,3.807714E3,1.5792928E3,1.5E0,3.033869E3,7.7384534E2,2.725801E3,3.080677E2,1E0,7.7284534E2,2.7801105E1,2.698E3,7.25E0,3.008177E2,1.8801105E1,9E0],"tree_param":{"num_deleted":"0","num_feature":"68","num_nodes":"17","size_leaf_vector":"1"}},{"base_weights":[-1.5787114E-4,1.8999156E0,-7.493576E-1,9.518284E-2,-5.823196E-2,-1.4191384E0,9.427643E-2,-1.7731103E0,1.8122959E0,1.6697426E0,-9.520981E-2,-8.379915E-2,9.494048E-2,1.9481553E0,-8.4013715E-2,-5.3116918E-2,9.994864E-2],"categories":[],"categories_nodes":[],"categories_segments":[],"categories_sizes":[],"default_left":[0,0,0,0,0,0,0,0,0,0,0,0,0,0,0,0,0],"id":1,"left_children":[1,3,5,-1,-1,7,-1,9,11,13,-1,-1,-1,15,-1,-1,-1],"loss_changes":[7.7538164E3,1.987793E1,6.8969043E3,0E0,0E0,3.5666494E3,0E0,1.270582E3,9.6149475E1,9.983978E1,0E0,0E0,0E0,1.6818542E1,0E0,0E0,0E0],"parents":[2147483647,0,0,1,1,2,2,5,5,7,7,8,8,9,9,13,13],"right_children":[2,4,6,-1,-1,8,-1,10,12,14,-1,-1,-1,16,-1,-1,-1],"split_conditions":[-2.0552704E0,1.394543E0,2.3800347E0,9.518284E-2,-5.823196E-2,1.6891601E0,9.427643E-2,-1.8143393E0,-2.5078064E-1,-1.3601695E0,-9.520981E-2,-8.379915E-2,9.494048E-2,-1.8642941E-1,-8.4013715E-2,-5.3116918E-2,9.994864E-2],"split_indices":[17,28,2,0,0,0,0,27,20,28,0,0,0,46,0,0,0],"split_type":[0,0,0,0,0,0,0,0,0,0,0,0,0,0,0,0,0],"sum_hessian":[5.444876E3,1.5393463E3,3.9055298E3,1.5378477E3,1.4986508E0,3.1143357E3,7.9119415E2,2.8072773E3,3.0705835E2,1.0253561E2,2.7047417E3,6.986503E0,3.0007184E2,9.505431E1,7.481295E0,1.2474722E0,9.380684E1],"tree_param":{"num_deleted":"0","num_feature":"68","num_nodes":"17","size_leaf_vector":"1"}},{"base_weights":[-2.8551357E-2,9.146831E-2,-7.422254E-1,-1.2669305E0,1.7910157E0,-1.5426319E0,1.7353984E0,-7.7000745E-2,9.105845E-2,-1.748079E0,1.6341122E0,-7.8008935E-2,9.080955E-2,-9.112782E-2,1.2538675E0,-7.844947E-2,1.7544123E0,-8.249301E-2,8.722515E-2,-6.314186E-2,8.985996E-2],"categories":[],"categories_nodes":[],"categories_segments":[],"categories_sizes":[],"default_left":[0,0,0,0,0,0,0,0,0,0,0,0,0,0,0,0,0,0,0,0,0],"id":2,"left_children":[1,-1,3,5,7,9,11,-1,-1,13,15,-1,-1,-1,17,-1,19,-1,-1,-1,-1],"loss_changes":[7.0373276E3,0E0,5.099033E3,2.6325E3,6.8930664E1,1.9023423E3,7.4105896E1,0E0,0E0,6.135674E2,7.1074615E1,0E0,0E0,0E0,9.80213E1,0E0,2.4391968E1,0E0,0E0,0E0,0E0],"parents":[2147483647,0,0,2,2,3,3,4,4,5,5,6,6,9,9,10,10,14,14,16,16],"right_children":[2,-1,4,6,8,10,12,-1,-1,14,16,-1,-1,-1,18,-1,20,-1,-1,-1,-1],"split_conditions":[-2.055592E0,9.146831E-2,2.379906E0,1.465042E0,-1.6218875E-1,3.7485547E0,5.129793E-1,-7.7000745E-2,9.105845E-2,2.2537475E0,-3.3474642E-1,-7.8008935E-2,9.080955E-2,-9.112782E-2,2.9322543E0,-7.844947E-2,8.672269E-2,-8.249301E-2,8.722515E-2,-6.314186E-2,8.985996E-2],"split_indices":[1,0,29,9,40,39,15,0,0,15,35,0,0,0,16,0,40,0,0,0,0],"split_type":[0,0,0,0,0,0,0,0,0,0,0,0,0,0,0,0,0,0,0,0,0],"sum_hessian":[5.305371E3,1.4719249E3,3.833446E3,3.176089E3,6.5735706E2,2.909407E3,2.6668216E2,5.4479537E0,6.519091E2,2.7331008E3,1.7630603E2,5.943222E0,2.6073895E2,2.6673184E3,6.578249E1,5.945998E0,1.7036003E2,9.166961E0,5.6615536E1,1.9833543E0,1.6837668E2],"tree_param":{"num_deleted":"0","num_feature":"68","num_nodes":"21","size_leaf_vector":"1"}},{"base_weights":[-3.846532E-2,8.7816775E-2,-8.155153E-1,-1.3641007E0,8.635946E-2,-1.6797348E0,1.6846794E0,-8.752998E-2,1.1822548E0,-7.250013E-2,8.711675E-2,-7.919027E-2,1.6192793E0,-5.318409E-2,8.540694E-2],"categories":[],"categories_nodes":[],"categories_segments":[],"categories_sizes":[],"default_left":[0,0,0,0,0,0,0,0,0,0,0,0,0,0,0],"id":3,"left_children":[1,-1,3,5,-1,7,9,-1,11,-1,-1,-1,13,-1,-1],"loss_changes":[7.322858E3,0E0,5.113547E3,2.9037031E3,0E0,5.562007E2,5.3729187E1,0E0,8.308961E1,0E0,0E0,0E0,1.5649139E1,0E0,0E0],"parents":[2147483647,0,0,2,2,3,3,5,5,6,6,8,8,12,12],"right_children":[2,-1,4,6,-1,8,10,-1,12,-1,-1,-1,14,-1,-1],"split_conditions":[-2.055592E0,8.7816775E-2,2.3800347E0,1.465042E0,8.635946E-2,2.2537475E0,1.6887419E0,-8.752998E-2,-6.4723164E-1,-7.250013E-2,8.711675E-2,-7.919027E-2,-5.379084E-3,-5.318409E-2,8.540694E-2],"split_indices":[1,0,2,9,0,15,5,0,61,0,0,0,24,0,0],"split_type":[0,0,0,0,0,0,0,0,0,0,0,0,0,0,0],"sum_hessian":[5.2486514E3,1.5854283E3,3.6632231E3,3.0135227E3,6.497004E2,2.7312146E3,2.823082E2,2.6656008E3,6.561365E1,4.6625037E0,2.776457E2,8.594213E0,5.7019436E1,1.476249E0,5.5543186E1],"tree_param":{"num_deleted":"0","num_feature":"68","num_nodes":"15","size_leaf_vector":"1"}},{"base_weights":[-1.596337E-4,8.42178E-2,-6.7463887E-1,-1.2395144E0,1.6688253E0,-1.6162051E0,1.6258535E0,-5.6897517E-2,8.375885E-2,1.2654366E0,-8.438849E-2,-7.486502E-2,8.4574506E-2,-7.6007925E-2,8.4594995E-2],"categories":[],"categories_nodes":[],"categories_segments":[],"categories_sizes":[],"default_left":[0,0,0,0,0,0,0,0,0,0,0,0,0,0,0],"id":4,"left_children":[1,-1,3,5,7,9,11,-1,-1,13,-1,-1,-1,-1,-1],"loss_changes":[5.996552E3,0E0,4.9911094E3,3.281062E3,1.4964111E1,5.5584326E2,7.497919E1,0E0,0E0,8.054498E1,0E0,0E0,0E0,0E0,0E0],"parents":[2147483647,0,0,2,2,3,3,4,4,5,5,6,6,9,9],"right_children":[2,-1,4,6,8,10,12,-1,-1,14,-1,-1,-1,-1,-1],"split_conditions":[-2.0552704E0,8.42178E-2,2.3800347E0,1.6891601E0,-2.7829304E-1,-1.8143393E0,-4.4511832E-2,-5.6897517E-2,8.375885E-2,1.8751878E-1,-8.438849E-2,-7.486502E-2,8.4574506E-2,-7.6007925E-2,8.4594995E-2],"split_indices":[17,0,2,0,37,27,20,0,0,37,0,0,0,0,0],"split_type":[0,0,0,0,0,0,0,0,0,0,0,0,0,0,0],"sum_hessian":[5.2758613E3,1.5080359E3,3.7678252E3,3.0363948E3,7.3143054E2,2.683985E3,3.5240958E2,1.2492528E0,7.301813E2,6.46364E1,2.6193489E3,6.8048697E0,3.456047E2,8.241244E0,5.6395157E1],"tree_param":{"num_deleted":"0","num_feature":"68","num_nodes":"15","size_leaf_vector":"1"}},{"base_weights":[-5.915243E-3,8.183267E-2,-6.843332E-1,-1.3053185E0,8.095872E-2,-8.160983E-2,1.56521E0,-7.176402E-2,8.176542E-2],"categories":[],"categories_nodes":[],"categories_segments":[],"categories_sizes":[],"default_left":[0,0,0,0,0,0,0,0,0],"id":5,"left_children":[1,-1,3,5,-1,-1,7,-1,-1],"loss_changes":[5.7275947E3,0E0,5.2053374E3,2.6914395E3,0E0,0E0,6.407312E1,0E0,0E0],"parents":[2147483647,0,0,2,2,3,3,6,6],"right_children":[2,-1,4,6,-1,-1,8,-1,-1],"split_conditions":[-2.055592E0,8.183267E-2,2.3800347E0,1.6891601E0,8.095872E-2,-8.160983E-2,-4.4511832E-2,-7.176402E-2,8.176542E-2],"split_indices":[1,0,2,0,0,0,20,0,0],"split_type":[0,0,0,0,0,0,0,0,0],"sum_hessian":[5.1378564E3,1.5013684E3,3.636488E3,2.8646594E3,7.718287E2,2.5721863E3,2.9247333E2,6.232257E0,2.862411E2],"tree_param":{"num_deleted":"0","num_feature":"68","num_nodes":"9","size_leaf_vector":"1"}},{"base_weights":[3.085584E-2,7.947196E-2,-6.834029E-1,-1.128064E0,1.554564E0,-1.4347717E0,1.5255558E0,-6.661216E-2,7.9124145E-2,-7.9167336E-2,1.3658675E0,-6.67259E-2,7.8747116E-2,-7.5232595E-2,1.521659E0,-6.1689865E-2,7.9443805E-2],"categories":[],"categories_nodes":[],"categories_segments":[],"categories_sizes":[],"default_left":[0,0,0,0,0,0,0,0,0,0,0,0,0,0,0,0,0],"id":6,"left_children":[1,-1,3,5,7,9,11,-1,-1,-1,13,-1,-1,-1,15,-1,-1],"loss_changes":[5.716431E3,0E0,3.5059358E3,2.3935542E3,4.9184326E1,1.098312E3,4.5168762E1,0E0,0E0,0E0,6.1878265E1,0E0,0E0,0E0,2.5461243E1,0E0,0E0],"parents":[2147483647,0,0,2,2,3,3,4,4,5,5,6,6,10,10,14,14],"right_children":[2,-1,4,6,8,10,12,-1,-1,-1,14,-1,-1,-1,16,-1,-1],"split_conditions":[-2.055592E0,7.947196E-2,2.379906E0,1.6891601E0,-1.6218875E-1,3.7485547E0,-9.902049E-1,-6.661216E-2,7.9124145E-2,-7.9167336E-2,2.3349516E-1,-6.67259E-2,7.8747116E-2,-7.5232595E-2,-3.285595E-1,-6.1689865E-2,7.9443805E-2],"split_indices":[1,0,29,0,40,39,45,0,0,0,40,0,0,0,29,0,0],"split_type":[0,0,0,0,0,0,0,0,0,0,0,0,0,0,0,0,0],"sum_hessian":[5.1330117E3,1.6127048E3,3.520307E3,2.9372092E3,5.830975E2,2.6333086E3,3.039007E2,5.1377344E0,5.779597E2,2.501061E3,1.3224765E2,4.716841E0,2.9918384E2,6.362271E0,1.2588538E2,2.5844476E0,1.23300934E2],"tree_param":{"num_deleted":"0","num_feature":"68","num_nodes":"17","size_leaf_vector":"1"}},{"base_weights":[3.9227456E-2,7.7307835E-2,-7.043511E-1,-1.1176559E0,1.5100727E0,-1.3970212E0,1.4659151E0,-6.431774E-2,7.689022E-2,-7.694853E-2,1.306275E0,-6.8461366E-2,7.655861E-2,-7.160356E-2,1.4562978E0,-6.1475206E-2,7.642164E-2],"categories":[],"categories_nodes":[],"categories_segments":[],"categories_sizes":[],"default_left":[0,0,0,0,0,0,0,0,0,0,0,0,0,0,0,0,0],"id":7,"left_children":[1,-1,3,5,7,9,11,-1,-1,-1,13,-1,-1,-1,15,-1,-1],"loss_changes":[5.7072227E3,0E0,3.1231143E3,2.0768757E3,4.361133E1,9.976699E2,5.4085144E1,0E0,0E0,0E0,5.5487106E1,0E0,0E0,0E0,2.585144E1,0E0,0E0],"parents":[2147483647,0,0,2,2,3,3,4,4,5,5,6,6,10,10,14,14],"right_children":[2,-1,4,6,8,10,12,-1,-1,-1,14,-1,-1,-1,16,-1,-1],"split_conditions":[-2.055592E0,7.7307835E-2,2.379906E0,1.6891601E0,8.145983E-2,3.7485547E0,-5.9832346E-1,-6.431774E-2,7.689022E-2,-7.694853E-2,2.3349516E-1,-6.8461366E-2,7.655861E-2,-7.160356E-2,-3.285595E-1,-6.1475206E-2,7.642164E-2],"split_indices":[1,0,29,0,39,39,49,0,0,0,40,0,0,0,29,0,0],"split_type":[0,0,0,0,0,0,0,0,0,0,0,0,0,0,0,0,0],"sum_hessian":[5.0913965E3,1.6818652E3,3.4095315E3,2.8736775E3,5.3585394E2,2.5936785E3,2.79999E2,4.816155E0,5.310378E2,2.464689E3,1.2898955E2,5.8502235E0,2.7414877E2,6.25589E0,1.2273365E2,2.7905052E0,1.19943146E2],"tree_param":{"num_deleted":"0","num_feature":"68","num_nodes":"17","size_leaf_vector":"1"}},{"base_weights":[-3.3370268E-3,7.52665E-2,-6.493248E-1,-1.1991061E0,1.4811068E0,-7.492258E-2,1.4324331E0,7.443941E-2,1.1349497E0,-6.658646E-2,7.4719615E-2,-6.662611E-2,7.083332E-2],"categories":[],"categories_nodes":[],"categories_segments":[],"categories_sizes":[],"default_left":[0,0,0,0,0,0,0,0,0,0,0,0,0],"id":8,"left_children":[1,-1,3,5,7,-1,9,-1,11,-1,-1,-1,-1],"loss_changes":[4.6866133E3,0E0,3.9455696E3,2.1109062E3,1.4794922E-1,0E0,4.8903748E1,0E0,1.5241919E1,0E0,0E0,0E0,0E0],"parents":[2147483647,0,0,2,2,3,3,4,4,6,6,8,8],"right_children":[2,-1,4,6,8,-1,10,-1,12,-1,-1,-1,-1],"split_conditions":[-2.055592E0,7.52665E-2,2.3800347E0,1.6891601E0,1.0107032E0,-7.492258E-2,-5.1310503E-1,7.443941E-2,5.792351E-1,-6.658646E-2,7.4719615E-2,-6.662611E-2,7.083332E-2],"split_indices":[1,0,2,0,46,0,19,0,4,0,0,0,0],"split_type":[0,0,0,0,0,0,0,0,0,0,0,0,0],"sum_hessian":[4.806849E3,1.4407441E3,3.366105E3,2.6759768E3,6.901281E2,2.403053E3,2.729239E2,6.71917E2,1.8211111E1,5.5342164E0,2.6738965E2,1.4839176E0,1.6727194E1],"tree_param":{"num_deleted":"0","num_feature":"68","num_nodes":"13","size_leaf_vector":"1"}},{"base_weights":[-1.18889315E-2,7.336229E-2,-6.7385525E-1,-1.2001557E0,1.4400318E0,-7.312068E-2,1.3943547E0,-6.130867E-2,7.2409585E-2,-6.5631196E-2,7.345446E-2],"categories":[],"categories_nodes":[],"categories_segments":[],"categories_sizes":[],"default_left":[0,0,0,0,0,0,0,0,0,0,0],"id":9,"left_children":[1,-1,3,5,7,-1,9,-1,-1,-1,-1],"loss_changes":[4.5498354E3,0E0,3.5731116E3,1.7512585E3,1.5707397E1,0E0,4.977603E1,0E0,0E0,0E0,0E0],"parents":[2147483647,0,0,2,2,3,3,4,4,6,6],"right_children":[2,-1,4,6,8,-1,10,-1,-1,-1,-1],"split_conditions":[-2.055592E0,7.336229E-2,2.3800347E0,1.6891601E0,-2.6078135E-1,-7.312068E-2,-4.4511832E-2,-6.130867E-2,7.2409585E-2,-6.5631196E-2,7.345446E-2],"split_indices":[1,0,2,0,37,0,20,0,0,0,0],"split_type":[0,0,0,0,0,0,0,0,0,0,0],"sum_hessian":[4.6447695E3,1.4356519E3,3.2091177E3,2.5697517E3,6.393661E2,2.3342388E3,2.355129E2,1.4953504E0,6.378707E2,5.8823695E0,2.2963052E2],"tree_param":{"num_deleted":"0","num_feature":"68","num_nodes":"11","size_leaf_vector":"1"}},{"base_weights":[1.0821961E-2,7.175534E-2,-6.38972E-1,-1.126314E0,7.068204E-2,-7.148749E-2,1.3695674E0,-6.441834E-2,7.1736984E-2],"categories":[],"categories_nodes":[],"categories_segments":[],"categories_sizes":[],"default_left":[0,0,0,0,0,0,0,0,0],"id":10,"left_children":[1,-1,3,5,-1,-1,7,-1,-1],"loss_changes":[4.2703516E3,0E0,3.1711973E3,1.9416392E3,0E0,0E0,5.002765E1,0E0,0E0],"parents":[2147483647,0,0,2,2,3,3,6,6],"right_children":[2,-1,4,6,-1,-1,8,-1,-1],"split_conditions":[-2.055592E0,7.175534E-2,2.3800347E0,1.6891601E0,7.068204E-2,-7.148749E-2,-4.4511832E-2,-6.441834E-2,7.1736984E-2],"split_indices":[1,0,2,0,0,0,20,0,0],"split_type":[0,0,0,0,0,0,0,0,0],"sum_hessian":[4.6121523E3,1.4445756E3,3.167577E3,2.5601775E3,6.073995E2,2.2830447E3,2.77133E2,6.18344E0,2.7094955E2],"tree_param":{"num_deleted":"0","num_feature":"68","num_nodes":"9","size_leaf_vector":"1"}},{"base_weights":[1.6161477E-2,7.0300326E-2,-5.969818E-1,-1.0880662E0,6.9012545E-2,-1.3428429E0,1.3474243E0,-7.000254E-2,9.719654E-1,-5.602103E-2,6.95032E-2,-6.2214047E-2,6.6689804E-2],"categories":[],"categories_nodes":[],"categories_segments":[],"categories_sizes":[],"default_left":[0,0,0,0,0,0,0,0,0,0,0,0,0],"id":11,"left_children":[1,-1,3,5,-1,7,9,-1,11,-1,-1,-1,-1],"loss_changes":[3.826083E3,0E0,3.0265376E3,1.5506865E3,0E0,3.0067456E2,2.6485168E1,0E0,4.5846745E1,0E0,0E0,0E0,0E0],"parents":[2147483647,0,0,2,2,3,3,5,5,6,6,8,8],"right_children":[2,-1,4,6,-1,8,10,-1,12,-1,-1,-1,-1],"split_conditions":[-2.055592E0,7.0300326E-2,2.3800347E0,1.465042E0,6.9012545E-2,2.2537475E0,1.7058972E-1,-7.000254E-2,2.9322543E0,-5.602103E-2,6.95032E-2,-6.2214047E-2,6.6689804E-2],"split_indices":[1,0,2,9,0,15,15,0,16,0,0,0,0],"split_type":[0,0,0,0,0,0,0,0,0,0,0,0,0],"sum_hessian":[4.487805E3,1.3733853E3,3.1144197E3,2.49515E3,6.192697E2,2.2592576E3,2.3589232E2,2.205155E3,5.4102634E1,3.5772355E0,2.323151E2,7.2509637E0,4.685167E1],"tree_param":{"num_deleted":"0","num_feature":"68","num_nodes":"13","size_leaf_vector":"1"}},{"base_weights":[5.337203E-3,6.889489E-2,-5.3779984E-1,-1.0527487E0,1.3552238E0,-6.8650655E-2,1.3241768E0,9.841416E-1,6.815561E-2,-5.966826E-2,6.863873E-2,-7.1090184E-2,6.457586E-2],"categories":[],"categories_nodes":[],"categories_segments":[],"categories_sizes":[],"default_left":[0,0,0,0,0,0,0,0,0,0,0,0,0],"id":12,"left_children":[1,-1,3,5,7,-1,9,11,-1,-1,-1,-1,-1],"loss_changes":[3.2280413E3,0E0,3.025719E3,1.858907E3,6.019287E-1,0E0,3.714081E1,1.4715929E1,0E0,0E0,0E0,0E0,0E0],"parents":[2147483647,0,0,2,2,3,3,4,4,6,6,7,7],"right_children":[2,-1,4,6,8,-1,10,12,-1,-1,-1,-1,-1],"split_conditions":[-2.055592E0,6.889489E-2,2.3800347E0,1.6891601E0,-3.1830198E-1,-6.8650655E-2,-7.922491E-1,1.9256966E0,6.815561E-2,-5.966826E-2,6.863873E-2,-7.1090184E-2,6.457586E-2],"split_indices":[1,0,2,0,30,0,19,4,0,0,0,0,0],"split_type":[0,0,0,0,0,0,0,0,0,0,0,0,0],"sum_hessian":[4.328108E3,1.2266659E3,3.1014421E3,2.4385427E3,6.628995E2,2.1493623E3,2.8918042E2,1.641602E1,6.4648346E2,5.030413E0,2.8415002E2,1.4489455E0,1.4967074E1],"tree_param":{"num_deleted":"0","num_feature":"68","num_nodes":"13","size_leaf_vector":"1"}},{"base_weights":[1.6861388E-2,6.769839E-2,-5.534574E-1,-9.324233E-1,1.3247632E0,-1.137421E0,1.2814658E0,-5.5685658E-2,6.7423396E-2,-1.294275E0,1.2224522E0,-5.4074716E-2,1.3314523E0,3.6730877E-1,-1.3123704E0,-6.359945E-2,1.3123876E0,-3.7802253E-2,6.7372136E-2,-6.0168535E-2,6.323364E-2,-6.6540584E-2,-2.1823E-3,-5.1274177E-2,6.7567974E-2],"categories":[],"categories_nodes":[],"categories_segments":[],"categories_sizes":[],"default_left":[0,0,0,0,0,0,0,0,0,0,0,0,0,0,0,0,0,0,0,0,0,0,0,0,0],"id":13,"left_children":[1,-1,3,5,7,9,11,-1,-1,13,15,-1,17,19,21,-1,23,-1,-1,-1,-1,-1,-1,-1,-1],"loss_changes":[3.2188162E3,0E0,2.107344E3,1.1191487E3,3.0241272E1,8.361145E2,2.6147858E1,0E0,0E0,6.405908E1,3.3307358E1,0E0,7.871521E0,3.473077E1,4.8886963E1,0E0,1.3832718E1,0E0,0E0,0E0,0E0,0E0,0E0,0E0,0E0],"parents":[2147483647,0,0,2,2,3,3,4,4,5,5,6,6,9,9,10,10,12,12,13,13,14,14,16,16],"right_children":[2,-1,4,6,8,10,12,-1,-1,14,16,-1,18,20,22,-1,24,-1,-1,-1,-1,-1,-1,-1,-1],"split_conditions":[-2.055592E0,6.769839E-2,2.379906E0,1.4616259E0,-1.6218875E-1,3.7485547E0,-8.755924E-2,-5.5685658E-2,6.7423396E-2,-4.2767748E-1,1.0197443E-1,-5.4074716E-2,-4.1696313E-1,-1.464101E-2,1.9351215E0,-6.359945E-2,-3.2283032E-1,-3.7802253E-2,6.7372136E-2,-6.0168535E-2,6.323364E-2,-6.6540584E-2,-2.1823E-3,-5.1274177E-2,6.7567974E-2],"split_indices":[1,0,29,14,40,39,20,0,0,12,40,0,24,24,49,0,29,0,0,0,0,0,0,0,0],"split_type":[0,0,0,0,0,0,0,0,0,0,0,0,0,0,0,0,0,0,0,0,0,0,0,0,0],"sum_hessian":[4.2189897E3,1.2610641E3,2.9579258E3,2.4617295E3,4.9619608E2,2.253546E3,2.0818364E2,4.334426E0,4.9186166E2,2.113518E3,1.4002792E2,3.8852274E0,2.0429842E2,2.2561253E1,2.0909568E3,4.4155397E0,1.3561238E2,1.2012217E0,2.030972E2,8.079131E0,1.4482121E1,2.0609514E3,3.00054E1,1.808517E0,1.3380386E2],"tree_param":{"num_deleted":"0","num_feature":"68","num_nodes":"25","size_leaf_vector":"1"}},{"base_weights":[3.2638453E-2,6.636794E-2,-5.549797E-1,-1.058241E0,1.3038011E0,-1.2875644E0,1.2560903E0,-5.6094524E-2,1.3106018E0,-6.630422E-2,7.936284E-1,-5.5904318E-2,6.611716E-2,6.596454E-2,9.17378E-1,-5.8528986E-2,6.3617006E-2,-7.183689E-2,6.2046934E-2],"categories":[],"categories_nodes":[],"categories_segments":[],"categories_sizes":[],"default_left":[0,0,0,0,0,0,0,0,0,0,0,0,0,0,0,0,0,0,0],"id":14,"left_children":[1,-1,3,5,7,9,11,-1,13,-1,15,-1,-1,-1,17,-1,-1,-1,-1],"loss_changes":[3.171362E3,0E0,2.6835144E3,1.1994038E3,1.1555298E1,1.6570776E2,3.3562775E1,0E0,8.741455E-1,0E0,3.7172844E1,0E0,0E0,0E0,1.4329777E1,0E0,0E0,0E0,0E0],"parents":[2147483647,0,0,2,2,3,3,4,4,5,5,6,6,8,8,10,10,14,14],"right_children":[2,-1,4,6,8,10,12,-1,14,-1,16,-1,-1,-1,18,-1,-1,-1,-1],"split_conditions":[-2.055592E0,6.636794E-2,2.3800347E0,1.6887419E0,-2.7829304E-1,2.9322543E0,-3.518225E-1,-5.6094524E-2,1.0107032E0,-6.630422E-2,7.406983E-1,-5.5904318E-2,6.611716E-2,6.596454E-2,5.792351E-1,-5.8528986E-2,6.3617006E-2,-7.183689E-2,6.2046934E-2],"split_indices":[1,0,2,5,37,16,20,0,46,0,64,0,0,0,4,0,0,0,0],"split_type":[0,0,0,0,0,0,0,0,0,0,0,0,0,0,0,0,0,0,0],"sum_hessian":[4.1664824E3,1.3002767E3,2.8662056E3,2.2558652E3,6.103405E2,2.052891E3,2.0297398E2,1.2479763E0,6.090925E2,2.0159417E3,3.694946E1,5.079341E0,1.9789464E2,5.9362036E2,1.5472214E1,6.957358E0,2.99921E1,1.4538809E0,1.40183325E1],"tree_param":{"num_deleted":"0","num_feature":"68","num_nodes":"19","size_leaf_vector":"1"}},{"base_weights":[2.443145E-2,6.5385915E-2,-5.6135434E-1,-1.0398599E0,1.2841561E0,-6.5254755E-2,1.2557046E0,-6.432014E-2,6.459697E-2,-5.6061435E-2,6.555153E-2],"categories":[],"categories_nodes":[],"categories_segments":[],"categories_sizes":[],"default_left":[0,0,0,0,0,0,0,0,0,0,0],"id":15,"left_children":[1,-1,3,5,7,-1,9,-1,-1,-1,-1],"loss_changes":[2.988933E3,0E0,2.412125E3,1.3219148E3,1.2916687E1,0E0,3.107257E1,0E0,0E0,0E0,0E0],"parents":[2147483647,0,0,2,2,3,3,4,4,6,6],"right_children":[2,-1,4,6,8,-1,10,-1,-1,-1,-1],"split_conditions":[-2.055592E0,6.5385915E-2,2.3800347E0,1.6891601E0,-2.684032E-1,-6.5254755E-2,-4.4511832E-2,-6.432014E-2,6.459697E-2,-5.6061435E-2,6.555153E-2],"split_indices":[1,0,2,0,29,0,20,0,0,0,0],"split_type":[0,0,0,0,0,0,0,0,0,0,0],"sum_hessian":[3.97409E3,1.2451327E3,2.7289573E3,2.1674226E3,5.615346E2,1.9433182E3,2.2410439E2,1.1991954E0,5.6033545E2,4.659403E0,2.1944498E2],"tree_param":{"num_deleted":"0","num_feature":"68","num_nodes":"11","size_leaf_vector":"1"}},{"base_weights":[-1.8323675E-2,6.442006E-2,-5.7370144E-1,-9.007873E-1,1.2568932E0,-1.1624051E0,1.2384486E0,-5.2915543E-2,6.424443E-2,-6.4372055E-2,1.1165437E0,-5.5033017E-2,6.4385496E-2,-6.306144E-2,1.251298E0,-4.977281E-2,6.52635E-2],"categories":[],"categories_nodes":[],"categories_segments":[],"categories_sizes":[],"default_left":[0,0,0,0,0,0,0,0,0,0,0,0,0,0,0,0,0],"id":16,"left_children":[1,-1,3,5,7,9,11,-1,-1,-1,13,-1,-1,-1,15,-1,-1],"loss_changes":[2.70618E3,0E0,1.5679365E3,1.2442527E3,2.7097412E1,5.654072E2,2.9355988E1,0E0,0E0,0E0,3.473369E1,0E0,0E0,0E0,1.3235001E1,0E0,0E0],"parents":[2147483647,0,0,2,2,3,3,4,4,5,5,6,6,10,10,14,14],"right_children":[2,-1,4,6,8,10,12,-1,-1,-1,14,-1,-1,-1,16,-1,-1],"split_conditions":[-2.055592E0,6.442006E-2,2.379906E0,1.6891601E0,-1.6218875E-1,3.7485547E0,-7.4383223E-1,-5.2915543E-2,6.424443E-2,-6.4372055E-2,2.3349516E-1,-5.5033017E-2,6.4385496E-2,-6.306144E-2,-3.285595E-1,-4.977281E-2,6.52635E-2],"split_indices":[1,0,29,0,40,39,19,0,0,0,40,0,0,0,29,0,0],"split_type":[0,0,0,0,0,0,0,0,0,0,0,0,0,0,0,0,0],"sum_hessian":[3.7269102E3,1.1111687E3,2.6157415E3,2.2196484E3,3.9609308E2,1.9781832E3,2.4146524E2,4.2926254E0,3.9180045E2,1.8757064E3,1.0247676E2,4.5401187E0,2.3692513E2,5.0477924E0,9.742897E1,1.8763398E0,9.555263E1],"tree_param":{"num_deleted":"0","num_feature":"68","num_nodes":"17","size_leaf_vector":"1"}},{"base_weights":[8.342956E-3,6.3177675E-2,-5.3471935E-1,-9.415836E-1,1.2466447E0,-1.1855631E0,1.2122093E0,-5.382983E-2,6.2751174E-2,1.0904025E0,-6.340125E-2,-5.5177808E-2,6.374313E-2,-5.0209846E-2,1.2280035E0,-4.0175416E-2,6.491845E-2],"categories":[],"categories_nodes":[],"categories_segments":[],"categories_sizes":[],"default_left":[0,0,0,0,0,0,0,0,0,0,0,0,0,0,0,0,0],"id":17,"left_children":[1,-1,3,5,7,9,11,-1,-1,13,-1,-1,-1,-1,15,-1,-1],"loss_changes":[2.4887468E3,0E0,1.8482278E3,1.0919076E3,1.0583191E1,3.5131982E2,3.2115173E1,0E0,0E0,2.0178017E1,0E0,0E0,0E0,0E0,9.924454E0,0E0,0E0],"parents":[2147483647,0,0,2,2,3,3,4,4,5,5,6,6,9,9,14,14],"right_children":[2,-1,4,6,8,10,12,-1,-1,14,-1,-1,-1,-1,16,-1,-1],"split_conditions":[-2.0552704E0,6.3177675E-2,2.3800347E0,1.6891601E0,-2.6078135E-1,-1.8143393E0,-7.4383223E-1,-5.382983E-2,6.2751174E-2,-5.2579913E-2,-6.340125E-2,-5.5177808E-2,6.374313E-2,-5.0209846E-2,-1.16342895E-1,-4.0175416E-2,6.491845E-2],"split_indices":[17,0,2,0,37,27,19,0,0,63,0,0,0,0,48,0,0],"split_type":[0,0,0,0,0,0,0,0,0,0,0,0,0,0,0,0,0],"sum_hessian":[3.6490312E3,1.1015741E3,2.5474573E3,2.074184E3,4.73273E2,1.8635344E3,2.1064978E2,1.2425613E0,4.7203046E2,6.4730774E1,1.7988036E3,5.1113667E0,2.0553842E2,3.6020157E0,6.1128754E1,1.6976316E0,5.943112E1],"tree_param":{"num_deleted":"0","num_feature":"68","num_nodes":"17","size_leaf_vector":"1"}},{"base_weights":[-6.3580708E-3,6.263681E-2,-5.405273E-1,-9.9855775E-1,1.1842648E0,-6.2569015E-2,1.1951879E0,1.4843899E-1,1.2333624E0,-5.3833105E-2,6.2622935E-2,-5.754569E-2,5.9854217E-2,1.2433307E0,8.2051957E-1,6.253335E-2,4.5621734E-2,-6.674674E-2,5.791607E-2],"categories":[],"categories_nodes":[],"categories_segments":[],"categories_sizes":[],"default_left":[0,0,0,0,0,0,0,0,0,0,0,0,0,0,0,0,0,0,0],"id":18,"left_children":[1,-1,3,5,7,-1,9,11,13,-1,-1,-1,-1,15,17,-1,-1,-1,-1],"loss_changes":[2.3590881E3,0E0,1.9467704E3,1.0810914E3,2.6121155E1,0E0,2.758664E1,3.4819893E1,1.0115356E0,0E0,0E0,0E0,0E0,2.4291992E-2,1.2162076E1,0E0,0E0,0E0,0E0],"parents":[2147483647,0,0,2,2,3,3,4,4,6,6,7,7,8,8,13,13,14,14],"right_children":[2,-1,4,6,8,-1,10,12,14,-1,-1,-1,-1,16,18,-1,-1,-1,-1],"split_conditions":[-2.055592E0,6.263681E-2,1.6467432E0,1.6891601E0,2.3800347E0,-6.2569015E-2,-5.6989026E-1,1.6891601E0,8.356724E-1,-5.3833105E-2,6.2622935E-2,-5.754569E-2,5.9854217E-2,8.2678306E-1,3.755891E-1,6.253335E-2,4.5621734E-2,-6.674674E-2,5.791607E-2],"split_indices":[1,0,2,0,2,0,19,0,53,0,0,0,0,46,10,0,0,0,0],"split_type":[0,0,0,0,0,0,0,0,0,0,0,0,0,0,0,0,0,0,0],"sum_hessian":[3.5055693E3,1.0438225E3,2.4617468E3,1.9455214E3,5.162255E2,1.744861E3,2.006604E2,2.3543613E1,4.9268195E2,4.4963713E0,1.9616403E2,1.0471316E1,1.3072297E1,4.7910214E2,1.3579799E1,4.6599112E2,1.3111007E1,1.4399433E0,1.2139855E1],"tree_param":{"num_deleted":"0","num_feature":"68","num_nodes":"19","size_leaf_vector":"1"}},{"base_weights":[-1.52622005E-2,6.187124E-2,-5.6536716E-1,-9.5764756E-1,1.2084125E0,-6.180666E-2,1.185583E0,-5.1512357E-2,1.2174785E0,-5.346585E-2,6.1935212E-2,6.1497267E-2,7.7622205E-1,-7.323147E-2,5.720566E-2],"categories":[],"categories_nodes":[],"categories_segments":[],"categories_sizes":[],"default_left":[0,0,0,0,0,0,0,0,0,0,0,0,0,0,0],"id":19,"left_children":[1,-1,3,5,7,-1,9,-1,11,-1,-1,-1,13,-1,-1],"loss_changes":[2.2981821E3,0E0,1.6136062E3,1.1344354E3,9.780884E0,0E0,2.7532745E1,0E0,1.3496704E0,0E0,0E0,0E0,1.3398766E1,0E0,0E0],"parents":[2147483647,0,0,2,2,3,3,4,4,6,6,8,8,12,12],"right_children":[2,-1,4,6,8,-1,10,-1,12,-1,-1,-1,14,-1,-1],"split_conditions":[-2.055592E0,6.187124E-2,2.3800347E0,1.6891601E0,-2.7829304E-1,-6.180666E-2,-5.6989026E-1,-5.1512357E-2,8.2678306E-1,-5.346585E-2,6.1935212E-2,6.1497267E-2,5.792351E-1,-7.323147E-2,5.720566E-2],"split_indices":[1,0,2,0,37,0,19,0,46,0,0,0,4,0,0],"split_type":[0,0,0,0,0,0,0,0,0,0,0,0,0,0,0],"sum_hessian":[3.3329883E3,1.0166487E3,2.3163398E3,1.89722E3,4.1911975E2,1.6794233E3,2.1779662E2,1.2361591E0,4.1788358E2,4.572506E0,2.132241E2,4.0466327E2,1.3220298E1,1.4439495E0,1.1776348E1],"tree_param":{"num_deleted":"0","num_feature":"68","num_nodes":"15","size_leaf_vector":"1"}},{"base_weights":[-1.5729437E-2,6.121072E-2,-5.2663517E-1,-9.576147E-1,1.1992967E0,-6.1096903E-2,1.1655141E0,-6.0586303E-2,6.042239E-2,-5.3180296E-2,6.1194606E-2],"categories":[],"categories_nodes":[],"categories_segments":[],"categories_sizes":[],"default_left":[0,0,0,0,0,0,0,0,0,0,0],"id":20,"left_children":[1,-1,3,5,7,-1,9,-1,-1,-1,-1],"loss_changes":[2.0099897E3,0E0,1.6725486E3,1.01076416E3,1.1380066E1,0E0,2.7280853E1,0E0,0E0,0E0,0E0],"parents":[2147483647,0,0,2,2,3,3,4,4,6,6],"right_children":[2,-1,4,6,8,-1,10,-1,-1,-1,-1],"split_conditions":[-2.055592E0,6.121072E-2,2.3800347E0,1.6891601E0,-2.684032E-1,-6.1096903E-2,-4.4511832E-2,-6.0586303E-2,6.042239E-2,-5.3180296E-2,6.1194606E-2],"split_indices":[1,0,2,0,29,0,20,0,0,0,0],"split_type":[0,0,0,0,0,0,0,0,0,0,0],"sum_hessian":[3.1708433E3,9.2485876E2,2.2459844E3,1.7975631E3,4.4842133E2,1.598926E3,1.9863715E2,1.198656E0,4.472227E2,4.62987E0,1.9400728E2],"tree_param":{"num_deleted":"0","num_feature":"68","num_nodes":"11","size_leaf_vector":"1"}},{"base_weights":[-1.6209299E-2,6.047545E-2,-5.992578E-1,-1.020748E0,1.1326859E0,-6.043138E-2,1.1288829E0,1.2919095E-1,1.187522E0,-5.1219564E-2,6.0214113E-2,-5.5057306E-2,5.7155248E-2,8.409956E-1,5.9866697E-2,-6.96797E-2,5.7453282E-2],"categories":[],"categories_nodes":[],"categories_segments":[],"categories_sizes":[],"default_left":[0,0,0,0,0,0,0,0,0,0,0,0,0,0,0,0,0],"id":21,"left_children":[1,-1,3,5,7,-1,9,11,13,-1,-1,-1,-1,15,-1,-1,-1],"loss_changes":[2.2062224E3,0E0,1.5282981E3,6.8109924E2,2.240448E1,0E0,2.3280487E1,2.9154884E1,3.1427002E-1,0E0,0E0,0E0,0E0,1.128018E1,0E0,0E0,0E0],"parents":[2147483647,0,0,2,2,3,3,4,4,6,6,7,7,8,8,13,13],"right_children":[2,-1,4,6,8,-1,10,12,14,-1,-1,-1,-1,16,-1,-1,-1],"split_conditions":[-2.055592E0,6.047545E-2,1.6467432E0,1.6891601E0,2.3800347E0,-6.043138E-2,-5.6989026E-1,1.6891601E0,-2.5045204E-1,-5.1219564E-2,6.0214113E-2,-5.5057306E-2,5.7155248E-2,2.0343572E-1,5.9866697E-2,-6.96797E-2,5.7453282E-2],"split_indices":[1,0,2,0,2,0,19,0,35,0,0,0,0,10,0,0,0],"split_type":[0,0,0,0,0,0,0,0,0,0,0,0,0,0,0,0,0],"sum_hessian":[3.085109E3,9.941258E2,2.0909832E3,1.6820466E3,4.089365E2,1.5472532E3,1.3479352E2,2.1362438E1,3.8757404E2,4.1344604E0,1.3065906E2,9.612312E0,1.1750126E1,1.3059717E1,3.7451434E2,1.1553975E0,1.190432E1],"tree_param":{"num_deleted":"0","num_feature":"68","num_nodes":"17","size_leaf_vector":"1"}},{"base_weights":[7.7569834E-3,5.9844106E-2,-5.080057E-1,-8.272153E-1,1.1725965E0,-1.0583868E0,1.1370324E0,-4.610926E-2,5.9763946E-2,-5.993557E-2,1.0561786E0,-5.170985E-2,5.9889775E-2,-6.198364E-2,1.1814985E0,-4.4281524E-2,6.1290022E-2],"categories":[],"categories_nodes":[],"categories_segments":[],"categories_sizes":[],"default_left":[0,0,0,0,0,0,0,0,0,0,0,0,0,0,0,0,0],"id":22,"left_children":[1,-1,3,5,7,9,11,-1,-1,-1,13,-1,-1,-1,15,-1,-1],"loss_changes":[1.855026E3,0E0,1.132712E3,8.0650134E2,1.7121918E1,4.722445E2,2.5939392E1,0E0,0E0,0E0,3.003727E1,0E0,0E0,0E0,9.75618E0,0E0,0E0],"parents":[2147483647,0,0,2,2,3,3,4,4,5,5,6,6,10,10,14,14],"right_children":[2,-1,4,6,8,10,12,-1,-1,-1,14,-1,-1,-1,16,-1,-1],"split_conditions":[-2.055592E0,5.9844106E-2,2.379906E0,1.6891601E0,-1.6218875E-1,3.7485547E0,-5.9832346E-1,-4.610926E-2,5.9763946E-2,-5.993557E-2,2.3349516E-1,-5.170985E-2,5.9889775E-2,-6.198364E-2,-3.285595E-1,-4.4281524E-2,6.1290022E-2],"split_indices":[1,0,29,0,40,39,49,0,0,0,40,0,0,0,29,0,0],"split_type":[0,0,0,0,0,0,0,0,0,0,0,0,0,0,0,0,0],"sum_hessian":[3.0226406E3,9.1400977E2,2.108631E3,1.7724784E3,3.361526E2,1.5862539E3,1.8622443E2,3.176079E0,3.3297653E2,1.4879457E3,9.830834E1,4.633592E0,1.8159084E2,4.628193E0,9.368015E1,1.5671245E0,9.211303E1],"tree_param":{"num_deleted":"0","num_feature":"68","num_nodes":"17","size_leaf_vector":"1"}},{"base_weights":[-7.3464595E-2,5.916479E-2,-5.864023E-1,-8.997648E-1,1.1557772E0,-1.0506781E0,1.0931503E0,-4.6433866E-2,5.9157617E-2,-1.1687045E0,-8.719555E-2,-4.7240205E-2,5.854375E-2,-5.9371855E-2,-2.7460727E-1,-9.341411E-1,6.0017187E-2,-5.7854623E-2,5.5443566E-2,-5.903436E-2,5.350722E-2],"categories":[],"categories_nodes":[],"categories_segments":[],"categories_sizes":[],"default_left":[0,0,0,0,0,0,0,0,0,0,0,0,0,0,0,0,0,0,0,0,0],"id":23,"left_children":[1,-1,3,5,7,9,11,-1,-1,13,15,-1,-1,-1,17,19,-1,-1,-1,-1,-1],"loss_changes":[1.748559E3,0E0,1.0526018E3,4.9231335E2,1.7879486E1,1.7259265E2,1.939357E1,0E0,0E0,2.2332275E1,1.8302576E2,0E0,0E0,0E0,3.6765747E1,5.1263855E1,0E0,0E0,0E0,0E0,0E0],"parents":[2147483647,0,0,2,2,3,3,4,4,5,5,6,6,9,9,10,10,14,14,15,15],"right_children":[2,-1,4,6,8,10,12,-1,-1,14,16,-1,-1,-1,18,20,-1,-1,-1,-1,-1],"split_conditions":[-2.055592E0,5.916479E-2,2.379906E0,1.6887419E0,-1.6218875E-1,2.5494048E-1,-5.6867385E-1,-4.6433866E-2,5.9157617E-2,1.8582605E0,-3.070751E-1,-4.7240205E-2,5.854375E-2,-5.9371855E-2,1.1137657E0,2.9322543E0,6.0017187E-2,-5.7854623E-2,5.5443566E-2,-5.903436E-2,5.350722E-2],"split_indices":[1,0,29,5,40,40,1,0,0,15,29,0,0,0,11,16,0,0,0,0,0],"split_type":[0,0,0,0,0,0,0,0,0,0,0,0,0,0,0,0,0,0,0,0,0],"sum_hessian":[2.7103826E3,7.852114E2,1.9251713E3,1.6320933E3,2.9307797E2,1.5176427E3,1.1445057E2,3.3723028E0,2.8970566E2,1.3518307E3,1.6581203E2,3.7947912E0,1.1065578E2,1.323768E3,2.806274E1,1.00184784E2,6.562724E1,1.7233543E1,1.0829197E1,8.957689E1,1.060789E1],"tree_param":{"num_deleted":"0","num_feature":"68","num_nodes":"21","size_leaf_vector":"1"}},{"base_weights":[4.530734E-2,5.8768626E-2,-4.322427E-1,-9.1813594E-1,1.1083331E0,-5.8709588E-2,1.134389E0,-5.6199998E-2,1.1291112E0,-4.702457E-2,5.8881756E-2,3.54109E-1,5.788065E-2,-5.0836015E-2,5.635301E-2],"categories":[],"categories_nodes":[],"categories_segments":[],"categories_sizes":[],"default_left":[0,0,0,0,0,0,0,0,0,0,0,0,0,0,0],"id":24,"left_children":[1,-1,3,5,7,-1,9,-1,11,-1,-1,13,-1,-1,-1],"loss_changes":[1.5541511E3,0E0,1.5164312E3,8.104795E2,2.3805176E1,0E0,1.6475769E1,0E0,1.0234375E1,0E0,0E0,2.0784197E1,0E0,0E0,0E0],"parents":[2147483647,0,0,2,2,3,3,4,4,6,6,8,8,11,11],"right_children":[2,-1,4,6,8,-1,10,-1,12,-1,-1,14,-1,-1,-1],"split_conditions":[-2.055592E0,5.8768626E-2,1.6467432E0,1.6891601E0,-3.2139805E-1,-5.8709588E-2,-4.4511832E-2,-5.6199998E-2,2.3800347E0,-4.702457E-2,5.8881756E-2,1.4745654E0,5.788065E-2,-5.0836015E-2,5.635301E-2],"split_indices":[1,0,2,0,29,0,20,0,2,0,0,0,0,0,0],"split_type":[0,0,0,0,0,0,0,0,0,0,0,0,0,0,0],"sum_hessian":[2.8779155E3,8.5446497E2,2.0234506E3,1.5385883E3,4.8486237E2,1.3683164E3,1.7027173E2,3.981737E0,4.8088065E2,3.0528498E0,1.6721889E2,1.7533962E1,4.6334668E2,6.2082515E0,1.1325711E1],"tree_param":{"num_deleted":"0","num_feature":"68","num_nodes":"15","size_leaf_vector":"1"}},{"base_weights":[2.391301E-2,5.8209937E-2,-4.7748062E-1,-8.842953E-1,1.0768083E0,-5.820915E-2,1.1200647E0,-5.5302538E-2,1.1015184E0,-4.8201315E-2,5.8333363E-2,1.1176577E0,-6.3526E-2,1.1272026E0,-4.5354404E-2,-4.1147944E-2,5.6778844E-2],"categories":[],"categories_nodes":[],"categories_segments":[],"categories_sizes":[],"default_left":[0,0,0,0,0,0,0,0,0,0,0,0,0,0,0,0,0],"id":25,"left_children":[1,-1,3,5,7,-1,9,-1,11,-1,-1,13,-1,15,-1,-1,-1],"loss_changes":[1.5490347E3,0E0,1.190906E3,8.383561E2,2.2299774E1,0E0,1.893074E1,0E0,1.6234192E1,0E0,0E0,8.460815E0,0E0,7.1978455E0,0E0,0E0,0E0],"parents":[2147483647,0,0,2,2,3,3,4,4,6,6,8,8,11,11,13,13],"right_children":[2,-1,4,6,8,-1,10,-1,12,-1,-1,14,-1,16,-1,-1,-1],"split_conditions":[-2.055592E0,5.8209937E-2,1.6467432E0,1.6891601E0,-3.2139805E-1,-5.820915E-2,-4.4511832E-2,-5.5302538E-2,1.0107032E0,-4.8201315E-2,5.8333363E-2,1.5039246E0,-6.3526E-2,-9.7520554E-1,-4.5354404E-2,-4.1147944E-2,5.6778844E-2],"split_indices":[1,0,2,0,29,0,20,0,46,0,0,61,0,25,0,0,0],"split_type":[0,0,0,0,0,0,0,0,0,0,0,0,0,0,0,0,0],"sum_hessian":[2.7073994E3,8.2647687E2,1.8809226E3,1.4910824E3,3.8984015E2,1.3087487E3,1.8233379E2,3.8737853E0,3.8596634E2,3.5574243E0,1.7877637E2,3.8388324E2,2.0831037E0,3.8252325E2,1.3600026E0,1.2196482E0,3.813036E2],"tree_param":{"num_deleted":"0","num_feature":"68","num_nodes":"17","size_leaf_vector":"1"}},{"base_weights":[2.0965593E-2,5.777904E-2,-4.7204635E-1,-9.1344297E-1,1.0790008E0,-5.7738524E-2,1.1053777E0,-5.327318E-2,1.1008801E0,-4.638603E-2,5.784304E-2,2.9457745E-1,5.6804802E-2,-5.068764E-2,5.490116E-2],"categories":[],"categories_nodes":[],"categories_segments":[],"categories_sizes":[],"default_left":[0,0,0,0,0,0,0,0,0,0,0,0,0,0,0],"id":26,"left_children":[1,-1,3,5,7,-1,9,-1,11,-1,-1,13,-1,-1,-1],"loss_changes":[1.4374489E3,0E0,1.2274116E3,6.809487E2,1.9814575E1,0E0,1.67182E1,0E0,1.0846893E1,0E0,0E0,1.9854918E1,0E0,0E0,0E0],"parents":[2147483647,0,0,2,2,3,3,4,4,6,6,8,8,11,11],"right_children":[2,-1,4,6,8,-1,10,-1,12,-1,-1,14,-1,-1,-1],"split_conditions":[-2.055592E0,5.777904E-2,1.6467432E0,1.6891601E0,-3.2139805E-1,-5.7738524E-2,-5.4220265E-1,-5.327318E-2,2.3800347E0,-4.638603E-2,5.784304E-2,1.4745654E0,5.6804802E-2,-5.068764E-2,5.490116E-2],"split_indices":[1,0,2,0,29,0,23,0,2,0,0,0,0,0,0],"split_type":[0,0,0,0,0,0,0,0,0,0,0,0,0,0,0],"sum_hessian":[2.567748E3,7.773696E2,1.7903785E3,1.3940665E3,3.96312E2,1.2455972E3,1.4846927E2,3.520883E0,3.9279114E2,3.2464137E0,1.4522285E2,1.6829422E1,3.759617E2,6.303329E0,1.0526093E1],"tree_param":{"num_deleted":"0","num_feature":"68","num_nodes":"15","size_leaf_vector":"1"}},{"base_weights":[-3.1755216E-2,5.731682E-2,-4.77162E-1,-9.3582046E-1,1.0625123E0,-5.730172E-2,1.0790707E0,-5.3434737E-2,1.0842539E0,-4.733401E-2,5.737118E-2,2.6248136E-1,1.1194214E0,-5.0401825E-2,5.423103E-2,9.7760487E-1,5.7208475E-2,-9.560398E-2,5.842041E-2],"categories":[],"categories_nodes":[],"categories_segments":[],"categories_sizes":[],"default_left":[0,0,0,0,0,0,0,0,0,0,0,0,0,0,0,0,0,0,0],"id":27,"left_children":[1,-1,3,5,7,-1,9,-1,11,-1,-1,13,15,-1,-1,17,-1,-1,-1],"loss_changes":[1.2578359E3,0E0,1.229341E3,5.6910693E2,1.967923E1,0E0,1.8695984E1,0E0,1.1154999E1,0E0,0E0,1.9439705E1,2.137146E-1,0E0,0E0,3.711837E1,0E0,0E0,0E0],"parents":[2147483647,0,0,2,2,3,3,4,4,6,6,8,8,11,11,12,12,15,15],"right_children":[2,-1,4,6,8,-1,10,-1,12,-1,-1,14,16,-1,-1,18,-1,-1,-1],"split_conditions":[-2.055592E0,5.731682E-2,1.6467432E0,1.6891601E0,-3.2139805E-1,-5.730172E-2,-4.4511832E-2,-5.3434737E-2,2.3800347E0,-4.733401E-2,5.737118E-2,1.6891601E0,3.3342534E-1,-5.0401825E-2,5.423103E-2,2.3349516E-1,5.7208475E-2,-9.560398E-2,5.842041E-2],"split_indices":[1,0,2,0,29,0,20,0,2,0,0,0,38,0,0,40,0,0,0],"split_type":[0,0,0,0,0,0,0,0,0,0,0,0,0,0,0,0,0,0,0],"sum_hessian":[2.3950679E3,6.566551E2,1.7384128E3,1.3397135E3,3.986993E2,1.2135363E3,1.2617722E2,3.539994E0,3.951593E2,3.6990833E0,1.2247814E2,1.6564022E1,3.785953E2,6.418651E0,1.0145371E1,6.226934E1,3.1632596E2,3.2981534E0,5.8971184E1],"tree_param":{"num_deleted":"0","num_feature":"68","num_nodes":"19","size_leaf_vector":"1"}},{"base_weights":[-3.6199328E-2,5.69099E-2,-5.195279E-1,-9.5939785E-1,1.0587786E0,-5.6893896E-2,1.0655514E0,1.06791705E-1,5.5509992E-2,-4.3364625E-2,5.6543555E-2,-5.153215E-2,5.35887E-2],"categories":[],"categories_nodes":[],"categories_segments":[],"categories_sizes":[],"default_left":[0,0,0,0,0,0,0,0,0,0,0,0,0],"id":28,"left_children":[1,-1,3,5,7,-1,9,11,-1,-1,-1,-1,-1],"loss_changes":[1.2826093E3,0E0,1.1123403E3,4.538424E2,1.6983734E1,0E0,1.3853683E1,2.1970346E1,0E0,0E0,0E0,0E0,0E0],"parents":[2147483647,0,0,2,2,3,3,4,4,6,6,7,7],"right_children":[2,-1,4,6,8,-1,10,12,-1,-1,-1,-1,-1],"split_conditions":[-2.055592E0,5.69099E-2,1.6467432E0,1.465042E0,2.3800347E0,-5.6893896E-2,1.4745654E0,1.6891601E0,5.5509992E-2,-4.3364625E-2,5.6543555E-2,-5.153215E-2,5.35887E-2],"split_indices":[1,0,2,9,2,0,0,0,0,0,0,0,0],"split_type":[0,0,0,0,0,0,0,0,0,0,0,0,0],"sum_hessian":[2.2575854E3,6.5782935E2,1.5997561E3,1.2513893E3,3.4836682E2,1.1504281E3,1.0096128E2,1.8010246E1,3.3035657E2,2.8990529E0,9.8062225E1,8.23524E0,9.775006E0],"tree_param":{"num_deleted":"0","num_feature":"68","num_nodes":"13","size_leaf_vector":"1"}},{"base_weights":[1.3141645E-2,5.6499E-2,-4.838813E-1,-8.3215696E-1,8.768671E-1,-1.0298169E0,1.0618603E0,-1.0006706E-1,1.0633594E0,-5.662631E-2,9.133878E-1,-4.2576347E-2,5.56417E-2,-5.4645933E-2,5.4202285E-2,-4.081586E-2,1.0848417E0,-5.25715E-2,1.0458546E0,-3.4290396E-2,1.0978498E0,-3.6948025E-2,5.4926485E-2,5.538493E-2,-3.0385008E-2],"categories":[],"categories_nodes":[],"categories_segments":[],"categories_sizes":[],"default_left":[0,0,0,0,0,0,0,0,0,0,0,0,0,0,0,0,0,0,0,0,0,0,0,0,0],"id":29,"left_children":[1,-1,3,5,7,9,11,13,15,-1,17,-1,-1,-1,-1,-1,19,-1,21,-1,23,-1,-1,-1,-1],"loss_changes":[1.2462355E3,0E0,7.370447E2,4.6440717E2,5.788022E1,2.2479639E2,1.24019165E1,6.2018425E1,1.1641205E1,0E0,1.58927765E1,0E0,0E0,0E0,0E0,0E0,6.8285217E0,0E0,5.8649483E0,0E0,5.0781555E0,0E0,0E0,0E0,0E0],"parents":[2147483647,0,0,2,2,3,3,4,4,5,5,6,6,7,7,8,8,10,10,16,16,18,18,20,20],"right_children":[2,-1,4,6,8,10,12,14,16,-1,18,-1,-1,-1,-1,-1,20,-1,22,-1,24,-1,-1,-1,-1],"split_conditions":[-2.055592E0,5.6499E-2,9.2343223E-1,1.6891601E0,2.3192178E-2,3.7485547E0,-1.085777E0,1.474169E0,1.3152656E-2,-5.662631E-2,-1.7521392E-1,-4.2576347E-2,5.56417E-2,-5.4645933E-2,5.4202285E-2,-4.081586E-2,-2.684032E-1,-5.25715E-2,-2.3962362E-1,-3.4290396E-2,7.8169596E-1,-3.6948025E-2,5.4926485E-2,5.538493E-2,-3.0385008E-2],"split_indices":[1,0,34,0,39,39,45,5,35,0,52,0,0,0,0,0,29,0,16,0,46,0,0,0,0],"split_type":[0,0,0,0,0,0,0,0,0,0,0,0,0,0,0,0,0,0,0,0,0,0,0,0,0],"sum_hessian":[2.243103E3,6.904191E2,1.5526838E3,1.2365775E3,3.1610638E2,1.1201361E3,1.1644131E2,5.0744778E1,2.653616E2,1.0642992E3,5.5836994E1,2.6140232E0,1.13827286E2,2.7643417E1,2.310136E1,2.5803967E0,2.6278122E2,3.0885553E0,5.274844E1,1.539245E0,2.6124197E2,1.1386442E0,5.1609795E1,2.600906E2,1.1513644E0],"tree_param":{"num_deleted":"0","num_feature":"68","num_nodes":"25","size_leaf_vector":"1"}},{"base_weights":[-1.4781522E-2,5.6106742E-2,-4.8790362E-1,-9.1774184E-1,9.9204993E-1,-5.6142367E-2,1.04105E0,8.6519144E-2,1.0885966E0,-4.6866354E-2,5.5924084E-2,-5.309099E-2,5.384444E-2,3.245158E-2,5.494512E-2],"categories":[],"categories_nodes":[],"categories_segments":[],"categories_sizes":[],"default_left":[0,0,0,0,0,0,0,0,0,0,0,0,0,0,0],"id":30,"left_children":[1,-1,3,5,7,-1,9,11,13,-1,-1,-1,-1,-1,-1],"loss_changes":[1.1422712E3,0E0,9.5481866E2,4.6823175E2,2.945401E1,0E0,1.800808E1,3.9412357E1,6.699524E-1,0E0,0E0,0E0,0E0,0E0,0E0],"parents":[2147483647,0,0,2,2,3,3,4,4,6,6,7,7,8,8],"right_children":[2,-1,4,6,8,-1,10,12,14,-1,-1,-1,-1,-1,-1],"split_conditions":[-2.055592E0,5.6106742E-2,1.2987163E0,1.6891601E0,2.3800347E0,-5.6142367E-2,-6.472965E-1,1.6891601E0,-1.5507277E0,-4.6866354E-2,5.5924084E-2,-5.309099E-2,5.384444E-2,3.245158E-2,5.494512E-2],"split_indices":[1,0,2,0,2,0,21,0,51,0,0,0,0,0,0],"split_type":[0,0,0,0,0,0,0,0,0,0,0,0,0,0,0],"sum_hessian":[2.1215566E3,6.2303253E2,1.4985242E3,1.1615447E3,3.3697952E2,1.0518336E3,1.0971097E2,3.264949E1,3.0433005E2,3.7139683E0,1.05997E2,1.508556E1,1.7563932E1,8.437268E0,2.9589276E2],"tree_param":{"num_deleted":"0","num_feature":"68","num_nodes":"15","size_leaf_vector":"1"}},{"base_weights":[-1.878087E-2,5.5702884E-2,-4.512826E-1,-8.558515E-1,1.0738963E0,-1.0594207E0,1.0571562E0,-5.20706E-2,1.0856395E0,-5.581669E-2,8.290295E-1,-3.78993E-2,5.4905888E-2,3.1928297E-2,5.479283E-2,-4.3687202E-2,5.3899862E-2],"categories":[],"categories_nodes":[],"categories_segments":[],"categories_sizes":[],"default_left":[0,0,0,0,0,0,0,0,0,0,0,0,0,0,0,0,0],"id":31,"left_children":[1,-1,3,5,7,9,11,-1,13,-1,15,-1,-1,-1,-1,-1,-1],"loss_changes":[9.932299E2,0E0,9.0614575E2,4.5287354E2,8.781677E0,1.13666016E2,9.164993E0,0E0,7.0162964E-1,0E0,1.4195057E1,0E0,0E0,0E0,0E0,0E0,0E0],"parents":[2147483647,0,0,2,2,3,3,4,4,5,5,6,6,8,8,10,10],"right_children":[2,-1,4,6,8,10,12,-1,14,-1,16,-1,-1,-1,-1,-1,-1],"split_conditions":[-2.055592E0,5.5702884E-2,2.3800347E0,1.4616259E0,-2.684032E-1,2.9322543E0,-3.518225E-1,-5.20706E-2,-1.5507277E0,-5.581669E-2,1.1427887E-1,-3.78993E-2,5.4905888E-2,3.1928297E-2,5.479283E-2,-4.3687202E-2,5.3899862E-2],"split_indices":[1,0,2,14,29,16,20,0,51,0,2,0,0,0,0,0,0],"split_type":[0,0,0,0,0,0,0,0,0,0,0,0,0,0,0,0,0],"sum_hessian":[2.0251616E3,5.5911444E2,1.4660471E3,1.1590393E3,3.0700787E2,1.0479679E3,1.110714E2,1.2108684E0,3.05797E2,1.0177057E3,3.026221E1,2.0648773E0,1.0900652E2,8.251087E0,2.975459E2,3.5401914E0,2.672202E1],"tree_param":{"num_deleted":"0","num_feature":"68","num_nodes":"17","size_leaf_vector":"1"}},{"base_weights":[-1.009593E-2,5.544308E-2,-4.628433E-1,-7.621716E-1,1.0837151E0,-1.0134962E0,1.0580144E0,-4.0402077E-2,5.5455983E-2,-5.5735152E-2,-6.600355E-2,-4.4292863E-2,5.5514265E-2,-5.478487E-2,5.543026E-2],"categories":[],"categories_nodes":[],"categories_segments":[],"categories_sizes":[],"default_left":[0,0,0,0,0,0,0,0,0,0,0,0,0,0,0],"id":32,"left_children":[1,-1,3,5,7,9,11,-1,-1,-1,13,-1,-1,-1,-1],"loss_changes":[9.8328125E2,0E0,6.405019E2,5.3095276E2,1.1684845E1,9.757373E1,1.5312393E1,0E0,0E0,0E0,1.21359985E2,0E0,0E0,0E0,0E0],"parents":[2147483647,0,0,2,2,3,3,4,4,5,5,6,6,10,10],"right_children":[2,-1,4,6,8,10,12,-1,-1,-1,14,-1,-1,-1,-1],"split_conditions":[-2.055592E0,5.544308E-2,2.379906E0,1.6891601E0,-1.6218875E-1,3.159973E-1,-5.9832346E-1,-4.0402077E-2,5.5455983E-2,-5.5735152E-2,-3.285595E-1,-4.4292863E-2,5.5514265E-2,-5.478487E-2,5.543026E-2],"split_indices":[1,0,29,0,40,40,49,0,0,0,29,0,0,0,0],"split_type":[0,0,0,0,0,0,0,0,0,0,0,0,0,0,0],"sum_hessian":[1.9389095E3,5.5810736E2,1.3808022E3,1.1573168E3,2.2348544E2,1.0172956E3,1.4002118E2,2.5532146E0,2.2093224E2,9.1895984E2,9.833572E1,3.2489855E0,1.367722E2,5.243604E1,4.5899673E1],"tree_param":{"num_deleted":"0","num_feature":"68","num_nodes":"15","size_leaf_vector":"1"}},{"base_weights":[-2.2734521E-2,5.5131692E-2,-4.7977945E-1,-7.7026093E-1,1.0503422E0,-9.6715534E-1,1.038336E0,-4.5361694E-2,5.4873604E-2,-5.533578E-2,9.407707E-1,-4.0974848E-2,5.439309E-2,-5.92093E-2,5.3790726E-2],"categories":[],"categories_nodes":[],"categories_segments":[],"categories_sizes":[],"default_left":[0,0,0,0,0,0,0,0,0,0,0,0,0,0,0],"id":33,"left_children":[1,-1,3,5,7,9,11,-1,-1,-1,13,-1,-1,-1,-1],"loss_changes":[9.523691E2,0E0,5.860833E2,3.9530463E2,2.041829E1,2.670656E2,1.0938217E1,0E0,0E0,0E0,2.097084E1,0E0,0E0,0E0,0E0],"parents":[2147483647,0,0,2,2,3,3,4,4,5,5,6,6,10,10],"right_children":[2,-1,4,6,8,10,12,-1,-1,-1,14,-1,-1,-1,-1],"split_conditions":[-2.055592E0,5.5131692E-2,1.028311E0,1.6891601E0,1.4962645E-1,3.7485547E0,-9.9153596E-1,-4.5361694E-2,5.4873604E-2,-5.533578E-2,2.3349516E-1,-4.0974848E-2,5.439309E-2,-5.92093E-2,5.3790726E-2],"split_indices":[1,0,33,0,39,39,41,0,0,0,40,0,0,0,0],"split_type":[0,0,0,0,0,0,0,0,0,0,0,0,0,0,0],"sum_hessian":[1.8495907E3,5.3380524E2,1.3157855E3,1.1062662E3,2.095193E2,9.980752E2,1.08191025E2,4.4966846E0,2.0502261E2,9.30436E2,6.763922E1,2.4055603E0,1.0578546E2,3.577485E0,6.406174E1],"tree_param":{"num_deleted":"0","num_feature":"68","num_nodes":"15","size_leaf_vector":"1"}},{"base_weights":[1.95689E-2,5.485787E-2,-4.4779778E-1,-8.2961744E-1,1.0556747E0,-5.4906297E-2,1.0499667E0,2.8206704E-2,1.067434E0,-4.316812E-2,5.4975864E-2,3.1414438E-2,1.0789055E0,5.443548E-2,3.2624938E-2],"categories":[],"categories_nodes":[],"categories_segments":[],"categories_sizes":[],"default_left":[0,0,0,0,0,0,0,0,0,0,0,0,0,0,0],"id":34,"left_children":[1,-1,3,5,7,-1,9,-1,11,-1,-1,-1,13,-1,-1],"loss_changes":[9.246715E2,0E0,7.3602875E2,5.168546E2,8.995056E-1,0E0,1.3107147E1,0E0,5.9472656E-1,0E0,0E0,0E0,3.1292725E-1,0E0,0E0],"parents":[2147483647,0,0,2,2,3,3,4,4,6,6,8,8,12,12],"right_children":[2,-1,4,6,8,-1,10,-1,12,-1,-1,-1,14,-1,-1],"split_conditions":[-2.055592E0,5.485787E-2,2.3800347E0,1.6891601E0,-4.2693478E-1,-5.4906297E-2,-4.4511832E-2,2.8206704E-2,-1.390164E0,-4.316812E-2,5.4975864E-2,3.1414438E-2,1.3571821E0,5.443548E-2,3.2624938E-2],"split_indices":[1,0,2,0,32,0,20,0,44,0,0,0,63,0,0],"split_type":[0,0,0,0,0,0,0,0,0,0,0,0,0,0,0],"sum_hessian":[1.8340417E3,5.54411E2,1.2796306E3,1.02083026E3,2.5880038E2,8.935918E2,1.272385E2,7.190969E0,2.5160942E2,2.7973871E0,1.2444112E2,7.825059E0,2.4378436E2,2.3678685E2,6.9975076E0],"tree_param":{"num_deleted":"0","num_feature":"68","num_nodes":"15","size_leaf_vector":"1"}},{"base_weights":[3.2958094E-2,5.456836E-2,-4.1904652E-1,-8.130729E-1,1.053198E0,-5.463777E-2,1.0431964E0,5.9477276E-1,1.067826E0,-4.3221172E-2,5.46709E-2,-5.8257677E-2,5.045001E-2,5.416816E-2,5.487224E-1,-6.450844E-2,4.9106117E-2],"categories":[],"categories_nodes":[],"categories_segments":[],"categories_sizes":[],"default_left":[0,0,0,0,0,0,0,0,0,0,0,0,0,0,0,0,0],"id":35,"left_children":[1,-1,3,5,7,-1,9,11,13,-1,-1,-1,-1,-1,15,-1,-1],"loss_changes":[8.47346E2,0E0,7.208781E2,5.0977014E2,1.1251221E0,0E0,1.3284195E1,8.73849E0,1.446991E0,0E0,0E0,0E0,0E0,0E0,8.744429E0,0E0,0E0],"parents":[2147483647,0,0,2,2,3,3,4,4,6,6,7,7,8,8,14,14],"right_children":[2,-1,4,6,8,-1,10,12,14,-1,-1,-1,-1,-1,16,-1,-1],"split_conditions":[-2.055592E0,5.456836E-2,2.3800347E0,1.6891601E0,-3.6126772E-1,-5.463777E-2,-4.4511832E-2,5.502553E-1,1.0107032E0,-4.3221172E-2,5.46709E-2,-5.8257677E-2,5.045001E-2,5.416816E-2,4.114896E-1,-6.450844E-2,4.9106117E-2],"split_indices":[1,0,2,0,30,0,20,5,46,0,0,0,0,0,10,0,0],"split_type":[0,0,0,0,0,0,0,0,0,0,0,0,0,0,0,0,0],"sum_hessian":[1.7692306E3,5.2903455E2,1.240196E3,9.787063E2,2.614898E2,8.509115E2,1.2779478E2,9.374143E0,2.5211565E2,2.8622572E0,1.2493252E2,1.4406068E0,7.9335356E0,2.4373352E2,8.382128E0,1.2216945E0,7.160434E0],"tree_param":{"num_deleted":"0","num_feature":"68","num_nodes":"17","size_leaf_vector":"1"}},{"base_weights":[1.4082335E-3,5.4288905E-2,-4.6477103E-1,-7.39074E-1,1.0630637E0,-9.6951807E-1,1.0318979E0,-3.5085358E-2,5.4246213E-2,-5.4608185E-2,9.0484095E-1,-4.2341147E-2,5.442176E-2,-5.884425E-2,5.384038E-2],"categories":[],"categories_nodes":[],"categories_segments":[],"categories_sizes":[],"default_left":[0,0,0,0,0,0,0,0,0,0,0,0,0,0,0],"id":36,"left_children":[1,-1,3,5,7,9,11,-1,-1,-1,13,-1,-1,-1,-1],"loss_changes":[8.3144055E2,0E0,4.8284485E2,3.9921924E2,7.531479E0,1.9958997E2,1.2906708E1,0E0,0E0,0E0,2.0457172E1,0E0,0E0,0E0,0E0],"parents":[2147483647,0,0,2,2,3,3,4,4,5,5,6,6,10,10],"right_children":[2,-1,4,6,8,10,12,-1,-1,-1,14,-1,-1,-1,-1],"split_conditions":[-2.055592E0,5.4288905E-2,2.379906E0,1.6891601E0,-1.6218875E-1,3.7485547E0,-5.9832346E-1,-3.5085358E-2,5.4246213E-2,-5.4608185E-2,4.5247725E-1,-4.2341147E-2,5.442176E-2,-5.884425E-2,5.384038E-2],"split_indices":[1,0,29,0,40,39,49,0,0,0,40,0,0,0,0],"split_type":[0,0,0,0,0,0,0,0,0,0,0,0,0,0,0],"sum_hessian":[1.6427551E3,4.9350177E2,1.1492533E3,9.747634E2,1.7448988E2,8.629291E2,1.1183433E2,1.7544713E0,1.7273541E2,8.1032416E2,5.2604935E1,2.8587985E0,1.08975525E2,3.568089E0,4.9036846E1],"tree_param":{"num_deleted":"0","num_feature":"68","num_nodes":"15","size_leaf_vector":"1"}},{"base_weights":[1.0072539E-2,5.396662E-2,-4.1823763E-1,-8.223695E-1,9.9604577E-1,-5.4140955E-2,1.0189195E0,-4.4460908E-2,1.0153393E0,-4.2797793E-2,5.388244E-2,1.0293247E0,-5.4085203E-2,3.4402683E-1,5.285203E-2,-4.2270113E-2,4.839744E-2],"categories":[],"categories_nodes":[],"categories_segments":[],"categories_sizes":[],"default_left":[0,0,0,0,0,0,0,0,0,0,0,0,0,0,0,0,0],"id":37,"left_children":[1,-1,3,5,7,-1,9,-1,11,-1,-1,13,-1,15,-1,-1,-1],"loss_changes":[7.240574E2,0E0,6.460179E2,4.2240558E2,1.0044586E1,0E0,1.2966446E1,0E0,8.423462E0,0E0,0E0,4.348938E0,0E0,9.075788E0,0E0,0E0,0E0],"parents":[2147483647,0,0,2,2,3,3,4,4,6,6,8,8,11,11,13,13],"right_children":[2,-1,4,6,8,-1,10,-1,12,-1,-1,14,-1,16,-1,-1,-1],"split_conditions":[-2.055592E0,5.396662E-2,1.6467432E0,1.6891601E0,-3.2283032E-1,-5.4140955E-2,-4.4511832E-2,-4.4460908E-2,1.5156777E0,-4.2797793E-2,5.388244E-2,2.3800347E0,-5.4085203E-2,1.4745654E0,5.285203E-2,-4.2270113E-2,4.839744E-2],"split_indices":[1,0,2,0,29,0,20,0,46,0,0,2,0,0,0,0,0],"split_type":[0,0,0,0,0,0,0,0,0,0,0,0,0,0,0,0,0],"sum_hessian":[1.5790125E3,4.5116827E2,1.1278441E3,8.7751306E2,2.5033107E2,7.6913165E2,1.08381454E2,2.079135E0,2.4825194E2,2.8795679E0,1.05501884E2,2.4711308E2,1.1388645E0,1.0127019E1,2.3698605E2,3.3622773E0,6.7647414E0],"tree_param":{"num_deleted":"0","num_feature":"68","num_nodes":"17","size_leaf_vector":"1"}},{"base_weights":[3.6498015E-3,5.378461E-2,-4.7110406E-1,-8.658223E-1,9.7383803E-1,-1.0579592E0,1.0139587E0,7.4043006E-2,1.0248598E0,-5.392403E-2,4.6705294E-1,-3.31735E-2,5.282712E-2,-4.6478525E-2,4.7923904E-2,-4.8361547E-2,1.0404829E0,-3.9402075E-2,4.8852857E-2,5.2892964E-2,5.030399E-1,-5.9254903E-2,4.7572188E-2],"categories":[],"categories_nodes":[],"categories_segments":[],"categories_sizes":[],"default_left":[0,0,0,0,0,0,0,0,0,0,0,0,0,0,0,0,0,0,0,0,0,0,0],"id":38,"left_children":[1,-1,3,5,7,9,11,13,15,-1,17,-1,-1,-1,-1,-1,19,-1,-1,-1,21,-1,-1],"loss_changes":[7.712498E2,0E0,5.998521E2,2.992022E2,1.0291061E1,2.3956055E1,6.205261E0,1.2603511E1,7.654785E0,0E0,7.5858088E0,0E0,0E0,0E0,0E0,0E0,1.4517822E0,0E0,0E0,0E0,7.6072073E0,0E0,0E0],"parents":[2147483647,0,0,2,2,3,3,4,4,5,5,6,6,7,7,8,8,10,10,16,16,20,20],"right_children":[2,-1,4,6,8,10,12,14,16,-1,18,-1,-1,-1,-1,-1,20,-1,-1,-1,22,-1,-1],"split_conditions":[-2.055592E0,5.378461E-2,1.6467432E0,1.465042E0,2.3800347E0,2.2537475E0,2.6691148E-1,2.0305326E0,-2.7829304E-1,-5.392403E-2,2.9322543E0,-3.31735E-2,5.282712E-2,-4.6478525E-2,4.7923904E-2,-4.8361547E-2,1.0107032E0,-3.9402075E-2,4.8852857E-2,5.2892964E-2,5.792351E-1,-5.9254903E-2,4.7572188E-2],"split_indices":[1,0,2,9,2,15,15,15,37,0,16,0,0,0,0,0,46,0,0,0,4,0,0],"split_type":[0,0,0,0,0,0,0,0,0,0,0,0,0,0,0,0,0,0,0,0,0,0,0],"sum_hessian":[1.5133601E3,4.6410287E2,1.0492572E3,8.2444293E2,2.2481424E2,7.4838586E2,7.6057106E1,1.2195277E1,2.1261896E2,7.387378E2,9.648041E0,1.5220276E0,7.453508E1,5.688834E0,6.506443E0,1.1805352E0,2.1143842E2,2.630167E0,7.0178742E0,2.038784E2,7.5600147E0,1.2418411E0,6.318174E0],"tree_param":{"num_deleted":"0","num_feature":"68","num_nodes":"23","size_leaf_vector":"1"}},{"base_weights":[-7.520516E-6,5.360208E-2,-4.6025115E-1,-8.219563E-1,1.0137602E0,-5.3711053E-2,1.0176771E0,3.999475E-1,1.0322186E0,-4.0072586E-2,5.3594183E-2,4.530934E-2,-5.885584E-2,2.8811468E-2,1.0431062E0,7.80896E-1,5.3011622E-2,2.58797E-2,4.839175E-2],"categories":[],"categories_nodes":[],"categories_segments":[],"categories_sizes":[],"default_left":[0,0,0,0,0,0,0,0,0,0,0,0,0,0,0,0,0,0,0],"id":39,"left_children":[1,-1,3,5,7,-1,9,11,13,-1,-1,-1,-1,-1,15,17,-1,-1,-1],"loss_changes":[7.0988684E2,0E0,5.375128E2,3.764458E2,1.8394165E0,0E0,1.0527664E1,7.003277E0,3.5388184E-1,0E0,0E0,0E0,0E0,0E0,1.01623535E-2,2.4908829E-1,0E0,0E0,0E0],"parents":[2147483647,0,0,2,2,3,3,4,4,6,6,7,7,8,8,14,14,15,15],"right_children":[2,-1,4,6,8,-1,10,12,14,-1,-1,-1,-1,-1,16,18,-1,-1,-1],"split_conditions":[-2.055592E0,5.360208E-2,2.3800347E0,1.6891601E0,-1.5507277E0,-5.3711053E-2,-5.6989026E-1,-1.2995399E0,-1.5489737E0,-4.0072586E-2,5.3594183E-2,4.530934E-2,-5.885584E-2,2.8811468E-2,-3.1830198E-1,5.502553E-1,5.3011622E-2,2.58797E-2,4.839175E-2],"split_indices":[1,0,2,0,51,0,19,0,44,0,0,0,0,0,30,5,0,0,0],"split_type":[0,0,0,0,0,0,0,0,0,0,0,0,0,0,0,0,0,0,0],"sum_hessian":[1.4367544E3,4.311482E2,1.0056062E3,8.078192E2,1.9778699E2,7.107691E2,9.70501E1,6.4358687E0,1.9135112E2,2.409345E0,9.464076E1,5.1939893E0,1.2418796E0,5.7198896E0,1.8563123E2,1.4237967E1,1.7139326E2,7.47636E0,6.7616067E0],"tree_param":{"num_deleted":"0","num_feature":"68","num_nodes":"19","size_leaf_vector":"1"}},{"base_weights":[-1.4912649E-2,5.3395428E-2,-4.7351247E-1,-7.370185E-1,1.0161468E0,-9.377077E-1,1.000541E0,-4.071639E-2,5.3123344E-2,-5.3758066E-2,8.862913E-1,-3.9756324E-2,5.3048708E-2,-5.3474497E-2,9.5704925E-1,-3.3349425E-2,5.019464E-2],"categories":[],"categories_nodes":[],"categories_segments":[],"categories_sizes":[],"default_left":[0,0,0,0,0,0,0,0,0,0,0,0,0,0,0,0,0],"id":40,"left_children":[1,-1,3,5,7,9,11,-1,-1,-1,13,-1,-1,-1,15,-1,-1],"loss_changes":[6.7438715E2,0E0,3.7522272E2,2.83805E2,1.3058334E1,1.8340033E2,1.001062E1,0E0,0E0,0E0,8.156578E0,0E0,0E0,0E0,4.494068E0,0E0,0E0],"parents":[2147483647,0,0,2,2,3,3,4,4,5,5,6,6,10,10,14,14],"right_children":[2,-1,4,6,8,10,12,-1,-1,-1,14,-1,-1,-1,16,-1,-1],"split_conditions":[-2.055592E0,5.3395428E-2,1.028311E0,1.6891601E0,-1.5571919E-1,3.7485547E0,-4.7189614E-1,-4.071639E-2,5.3123344E-2,-5.3758066E-2,-6.746806E-1,-3.9756324E-2,5.3048708E-2,-5.3474497E-2,-1.0303714E0,-3.3349425E-2,5.019464E-2],"split_indices":[1,0,33,0,39,39,43,0,0,0,51,0,0,0,42,0,0],"split_type":[0,0,0,0,0,0,0,0,0,0,0,0,0,0,0,0,0],"sum_hessian":[1.3560409E3,4.030507E2,9.529902E2,8.101822E2,1.4280801E2,7.267074E2,8.34748E1,3.1153436E0,1.3969267E2,6.761633E2,5.0544044E1,2.3220434E0,8.1152756E1,1.2719512E0,4.9272095E1,1.0102062E0,4.826189E1],"tree_param":{"num_deleted":"0","num_feature":"68","num_nodes":"17","size_leaf_vector":"1"}},{"base_weights":[1.0275743E-2,5.299405E-2,-3.6679906E-1,-7.1022165E-1,8.5925424E-1,-8.3934647E-1,9.9352723E-1,2.334869E-2,1.0325269E0,9.5548767E-1,-9.7048646E-1,-2.9268116E-2,5.1968094E-2,-5.037417E-2,8.5667056E-1,-3.0274808E-2,1.0481297E0,-2.7467096E-2,5.0000127E-2,-1.0517673E0,7.6400894E-1,-3.231823E-2,5.0244894E-2,6.276694E-1,5.320861E-2,-5.3654134E-2,2.0357518E-2,-5.7654466E-2,5.2209456E-2,4.7808725E-2,-3.1722832E-2],"categories":[],"categories_nodes":[],"categories_segments":[],"categories_sizes":[],"default_left":[0,0,0,0,0,0,0,0,0,0,0,0,0,0,0,0,0,0,0,0,0,0,0,0,0,0,0,0,0,0,0],"id":41,"left_children":[1,-1,3,5,7,9,11,13,15,17,19,-1,-1,-1,21,-1,23,-1,-1,25,27,-1,-1,29,-1,-1,-1,-1,-1,-1,-1],"loss_changes":[5.230247E2,0E0,4.0997968E2,1.6804306E2,3.0854752E1,1.6734921E2,4.516506E0,3.318591E1,5.147278E0,3.8080826E0,9.376721E1,0E0,0E0,0E0,5.4056053E0,0E0,5.142517E-1,0E0,0E0,2.0037842E1,1.7369913E1,0E0,0E0,4.2881746E0,0E0,0E0,0E0,0E0,0E0,0E0,0E0],"parents":[2147483647,0,0,2,2,3,3,4,4,5,5,6,6,7,7,8,8,9,9,10,10,14,14,16,16,19,19,20,20,23,23],"right_children":[2,-1,4,6,8,10,12,14,16,18,20,-1,-1,-1,22,-1,24,-1,-1,26,28,-1,-1,30,-1,-1,-1,-1,-1,-1,-1],"split_conditions":[-2.0551984E0,5.299405E-2,9.2343223E-1,1.465042E0,2.1050988E-1,-1.8143393E0,2.6691148E-1,1.0179021E0,9.0792194E-2,-5.990456E-1,3.7485547E0,-2.9268116E-2,5.1968094E-2,-5.037417E-2,3.517129E-2,-3.0274808E-2,4.8009902E-1,-2.7467096E-2,5.0000127E-2,2.9322543E0,1.1588308E0,-3.231823E-2,5.0244894E-2,-3.719779E-1,5.320861E-2,-5.3654134E-2,2.0357518E-2,-5.7654466E-2,5.2209456E-2,4.7808725E-2,-3.1722832E-2],"split_indices":[18,0,34,9,39,27,15,15,35,46,39,0,0,0,12,0,35,0,0,16,40,0,0,12,0,0,0,0,0,0,0],"split_type":[0,0,0,0,0,0,0,0,0,0,0,0,0,0,0,0,0,0,0,0,0,0,0,0,0,0,0,0,0,0,0],"sum_hessian":[1.3195225E3,3.482742E2,9.712483E2,7.590546E2,2.1219362E2,7.0605133E2,5.300331E1,3.6627785E1,1.7556584E2,4.764718E1,6.584042E2,1.1631874E0,5.1840122E1,1.6280079E1,2.0347708E1,1.2998286E0,1.74266E2,1.0431371E0,4.6604042E1,6.2930756E2,2.90966E1,1.5248628E0,1.8822844E1,7.879381E0,1.6638663E2,6.2050616E2,8.801394E0,3.3129075E0,2.5783691E1,6.444438E0,1.4349432E0],"tree_param":{"num_deleted":"0","num_feature":"68","num_nodes":"31","size_leaf_vector":"1"}},{"base_weights":[-2.983255E-3,5.2954983E-2,-4.3751287E-1,-7.392651E-1,1.0370735E0,-9.35972E-1,9.845669E-1,-3.166547E-2,5.2857496E-2,-5.336062E-2,9.005676E-1,-3.885946E-2,5.251379E-2,-4.3399457E-2,9.788307E-1,5.247861E-2,2.1397175E-2],"categories":[],"categories_nodes":[],"categories_segments":[],"categories_sizes":[],"default_left":[0,0,0,0,0,0,0,0,0,0,0,0,0,0,0,0,0],"id":42,"left_children":[1,-1,3,5,7,9,11,-1,-1,-1,13,-1,-1,-1,15,-1,-1],"loss_changes":[5.806812E2,0E0,3.9807465E2,2.5246182E2,5.770111E0,1.6156891E2,9.668167E0,0E0,0E0,0E0,7.0759697E0,0E0,0E0,0E0,1.2479172E0,0E0,0E0],"parents":[2147483647,0,0,2,2,3,3,4,4,5,5,6,6,10,10,14,14],"right_children":[2,-1,4,6,8,10,12,-1,-1,-1,14,-1,-1,-1,16,-1,-1],"split_conditions":[-2.055592E0,5.2954983E-2,2.379906E0,1.6891601E0,8.145983E-2,3.7485547E0,-5.9832346E-1,-3.166547E-2,5.2857496E-2,-5.336062E-2,-7.711717E-1,-3.885946E-2,5.251379E-2,-4.3399457E-2,-1.0468493E-1,5.247861E-2,2.1397175E-2],"split_indices":[1,0,29,0,39,39,49,0,0,0,62,0,0,0,0,0,0],"split_type":[0,0,0,0,0,0,0,0,0,0,0,0,0,0,0,0,0],"sum_hessian":[1.2562257E3,3.6431787E2,8.9190784E2,7.408106E2,1.5109723E2,6.65345E2,7.5465645E1,1.4317147E0,1.4966551E2,6.21361E2,4.3983963E1,2.3241386E0,7.31415E1,1.4363042E0,4.2547657E1,3.6903503E1,5.6441565E0],"tree_param":{"num_deleted":"0","num_feature":"68","num_nodes":"17","size_leaf_vector":"1"}},{"base_weights":[4.3939583E-2,5.2843463E-2,-3.9996928E-1,-7.8680503E-1,9.447512E-1,-5.2966177E-2,9.962581E-1,-4.6472654E-2,9.7105E-1,-3.9659746E-2,5.2710254E-2,9.8797286E-1,-4.8156854E-2,1.0016506E0,-4.0285233E-2,1.9749824E-2,5.1246464E-2],"categories":[],"categories_nodes":[],"categories_segments":[],"categories_sizes":[],"default_left":[0,0,0,0,0,0,0,0,0,0,0,0,0,0,0,0,0],"id":43,"left_children":[1,-1,3,5,7,-1,9,-1,11,-1,-1,13,-1,15,-1,-1,-1],"loss_changes":[5.616755E2,0E0,4.52573E2,3.2909436E2,1.0489365E1,0E0,1.0170197E1,0E0,7.2458344E0,0E0,0E0,5.495987E0,0E0,2.2801056E0,0E0,0E0,0E0],"parents":[2147483647,0,0,2,2,3,3,4,4,6,6,8,8,11,11,13,13],"right_children":[2,-1,4,6,8,-1,10,-1,12,-1,-1,14,-1,16,-1,-1,-1],"split_conditions":[-2.055592E0,5.2843463E-2,1.6467432E0,1.6891601E0,-3.2139805E-1,-5.2966177E-2,-4.4511832E-2,-4.6472654E-2,1.5156777E0,-3.9659746E-2,5.2710254E-2,1.5039246E0,-4.8156854E-2,2.3800347E0,-4.0285233E-2,1.9749824E-2,5.1246464E-2],"split_indices":[1,0,2,0,29,0,20,0,46,0,0,61,0,2,0,0,0],"split_type":[0,0,0,0,0,0,0,0,0,0,0,0,0,0,0,0,0],"sum_hessian":[1.2472036E3,3.7961087E2,8.675927E2,6.740917E2,1.9350105E2,5.850761E2,8.901554E1,2.2024128E0,1.9129865E2,2.394138E0,8.662141E1,1.9012439E2,1.1742526E0,1.8912378E2,1.0006046E0,7.6529074E0,1.8147087E2],"tree_param":{"num_deleted":"0","num_feature":"68","num_nodes":"17","size_leaf_vector":"1"}},{"base_weights":[3.3174877E-3,5.2629303E-2,-4.0251303E-1,-8.32414E-1,9.6035093E-1,-1.0174417E0,9.8249346E-1,-4.605494E-2,9.8708224E-1,-5.2813023E-2,6.1845815E-1,-2.9855018E-2,5.137039E-2,-4.82629E-2,1.0042945E0,-3.7487622E-2,4.814856E-2,3.265444E-1,5.156309E-2,4.5540627E-2,-3.8932994E-2],"categories":[],"categories_nodes":[],"categories_segments":[],"categories_sizes":[],"default_left":[0,0,0,0,0,0,0,0,0,0,0,0,0,0,0,0,0,0,0,0,0],"id":44,"left_children":[1,-1,3,5,7,9,11,-1,13,-1,15,-1,-1,-1,17,-1,-1,19,-1,-1,-1],"loss_changes":[4.87905E2,0E0,4.8488483E2,2.1210153E2,1.0897125E1,3.6911743E1,4.775772E0,0E0,7.565689E0,0E0,7.257638E0,0E0,0E0,0E0,3.2285004E0,0E0,0E0,6.474318E0,0E0,0E0,0E0],"parents":[2147483647,0,0,2,2,3,3,4,4,5,5,6,6,8,8,10,10,14,14,17,17],"right_children":[2,-1,4,6,8,10,12,-1,14,-1,16,-1,-1,-1,18,-1,-1,20,-1,-1,-1],"split_conditions":[-2.055592E0,5.2629303E-2,1.6467432E0,1.465042E0,-3.2139805E-1,2.9322543E0,1.6887419E0,-4.605494E-2,-9.7520554E-1,-5.2813023E-2,7.406983E-1,-2.9855018E-2,5.137039E-2,-4.82629E-2,2.3800347E0,-3.7487622E-2,4.814856E-2,-4.2767748E-1,5.156309E-2,4.5540627E-2,-3.8932994E-2],"split_indices":[1,0,2,9,29,16,5,0,25,0,64,0,0,0,2,0,0,12,0,0,0],"split_type":[0,0,0,0,0,0,0,0,0,0,0,0,0,0,0,0,0,0,0,0,0],"sum_hessian":[1.1437921E3,3.185618E2,8.252303E2,6.276378E2,1.9759245E2,5.699695E2,5.766837E1,2.2993348E0,1.9529312E2,5.571041E2,1.2865324E1,1.2545022E0,5.6413868E1,1.225353E0,1.9406776E2,2.351245E0,1.0514079E1,7.927965E0,1.861398E2,5.3013077E0,2.6266575E0],"tree_param":{"num_deleted":"0","num_feature":"68","num_nodes":"21","size_leaf_vector":"1"}},{"base_weights":[3.214628E-4,5.2488424E-2,-4.5473474E-1,-8.3108515E-1,9.3358165E-1,-5.265382E-2,9.788921E-1,-4.8969574E-2,9.5868266E-1,-3.6342636E-2,5.2170016E-2,-3.7991438E-2,9.797131E-1,9.961439E-1,-4.0400326E-2,2.0076847E-2,5.1077094E-2],"categories":[],"categories_nodes":[],"categories_segments":[],"categories_sizes":[],"default_left":[0,0,0,0,0,0,0,0,0,0,0,0,0,0,0,0,0],"id":45,"left_children":[1,-1,3,5,7,-1,9,-1,11,-1,-1,-1,13,15,-1,-1,-1],"loss_changes":[5.2294104E2,0E0,3.9987036E2,2.4269473E2,8.783646E0,0E0,8.045635E0,0E0,6.590637E0,0E0,0E0,0E0,5.5118256E0,1.9944916E0,0E0,0E0,0E0],"parents":[2147483647,0,0,2,2,3,3,4,4,6,6,8,8,12,12,13,13],"right_children":[2,-1,4,6,8,-1,10,-1,12,-1,-1,-1,14,16,-1,-1,-1],"split_conditions":[-2.055592E0,5.2488424E-2,1.6467432E0,1.6891601E0,-9.7520554E-1,-5.265382E-2,-7.4383223E-1,-4.8969574E-2,-3.2139805E-1,-3.6342636E-2,5.2170016E-2,-3.7991438E-2,1.5039246E0,2.3800347E0,-4.0400326E-2,2.0076847E-2,5.1077094E-2],"split_indices":[1,0,2,0,25,0,19,0,29,0,0,0,61,2,0,0,0],"split_type":[0,0,0,0,0,0,0,0,0,0,0,0,0,0,0,0,0],"sum_hessian":[1.0930333E3,3.302066E2,7.628268E2,6.004545E2,1.6237225E2,5.352277E2,6.522676E1,1.6105757E0,1.6076169E2,2.0027187E0,6.3224045E1,1.5188384E0,1.5924284E2,1.5823134E2,1.0115101E0,7.1704087E0,1.5106093E2],"tree_param":{"num_deleted":"0","num_feature":"68","num_nodes":"17","size_leaf_vector":"1"}},{"base_weights":[-4.1072182E-2,5.2225526E-2,-4.3362457E-1,-7.925625E-1,9.233044E-1,-9.576227E-1,9.648011E-1,-4.4938546E-2,9.5623E-1,8.103401E-1,-1.0304592E0,-2.8082917E-2,5.0511595E-2,9.738561E-1,-4.014065E-2,-3.4560885E-2,4.9382277E-2,-4.6387872E-1,-5.258999E-2,3.5856327E-1,1.0025408E0,3.820784E-2,-4.904006E-2,4.491014E-2,-3.724433E-2,5.108433E-2,2.4227219E-2],"categories":[],"categories_nodes":[],"categories_segments":[],"categories_sizes":[],"default_left":[0,0,0,0,0,0,0,0,0,0,0,0,0,0,0,0,0,0,0,0,0,0,0,0,0,0,0],"id":46,"left_children":[1,-1,3,5,7,9,11,-1,13,15,17,-1,-1,19,-1,-1,-1,21,-1,23,25,-1,-1,-1,-1,-1,-1],"loss_changes":[4.2653003E2,0E0,3.587215E2,1.6968549E2,1.0111359E1,6.938605E1,4.066101E0,0E0,5.4934998E0,6.4395876E0,5.699402E0,0E0,0E0,2.3039703E0,0E0,0E0,0E0,1.3676298E1,0E0,5.598754E0,9.293976E-1,0E0,0E0,0E0,0E0,0E0,0E0],"parents":[2147483647,0,0,2,2,3,3,4,4,5,5,6,6,8,8,9,9,10,10,13,13,17,17,19,19,20,20],"right_children":[2,-1,4,6,8,10,12,-1,14,16,18,-1,-1,20,-1,-1,-1,22,-1,24,26,-1,-1,-1,-1,-1,-1],"split_conditions":[-2.0552704E0,5.2225526E-2,1.6467432E0,1.465042E0,-3.2139805E-1,-1.8143393E0,8.539695E-2,-4.4938546E-2,1.5039246E0,-2.5639454E-1,-1.5637141E0,-2.8082917E-2,5.0511595E-2,2.3800347E0,-4.014065E-2,-3.4560885E-2,4.9382277E-2,-1.5212209E0,-5.258999E-2,-7.320763E-1,1.0107032E0,3.820784E-2,-4.904006E-2,4.491014E-2,-3.724433E-2,5.108433E-2,2.4227219E-2],"split_indices":[17,0,2,9,29,27,23,0,61,24,58,0,0,2,0,0,0,65,0,10,46,0,0,0,0,0,0],"split_type":[0,0,0,0,0,0,0,0,0,0,0,0,0,0,0,0,0,0,0,0,0,0,0,0,0,0,0],"sum_hessian":[9.9883344E2,2.6482187E2,7.3401154E2,5.8079443E2,1.5321713E2,5.3134314E2,4.945128E1,2.2527874E0,1.5096434E2,2.0623466E1,5.1071967E2,1.1008276E0,4.8350452E1,1.4990858E2,1.0557528E0,1.8719451E0,1.875152E1,1.9363623E1,4.9135605E2,7.27873E0,1.4262987E2,5.5945516E0,1.3769071E1,5.0130935E0,2.2656362E0,1.3660829E2,6.0215654E0],"tree_param":{"num_deleted":"0","num_feature":"68","num_nodes":"27","size_leaf_vector":"1"}},{"base_weights":[-2.6023079E-2,5.2177783E-2,-4.702516E-1,-8.267804E-1,9.682674E-1,-5.237773E-2,9.630283E-1,-4.971477E-2,9.934883E-1,-3.7154447E-2,5.177566E-2,6.8595517E-1,5.2142423E-2,-7.9929434E-2,5.092996E-2],"categories":[],"categories_nodes":[],"categories_segments":[],"categories_sizes":[],"default_left":[0,0,0,0,0,0,0,0,0,0,0,0,0,0,0],"id":47,"left_children":[1,-1,3,5,7,-1,9,-1,11,-1,-1,13,-1,-1,-1],"loss_changes":[4.575955E2,0E0,3.497714E2,2.1668542E2,7.6999283E0,0E0,8.245823E0,0E0,1.3246002E0,0E0,0E0,1.7973156E1,0E0,0E0,0E0],"parents":[2147483647,0,0,2,2,3,3,4,4,6,6,8,8,11,11],"right_children":[2,-1,4,6,8,-1,10,-1,12,-1,-1,14,-1,-1,-1],"split_conditions":[-2.055592E0,5.2177783E-2,2.3800347E0,1.6891601E0,-2.6078135E-1,-5.237773E-2,-4.4511832E-2,-4.971477E-2,3.93316E-1,-3.7154447E-2,5.177566E-2,3.9385098E-1,5.2142423E-2,-7.9929434E-2,5.092996E-2],"split_indices":[1,0,2,0,37,0,20,0,29,0,0,40,0,0,0],"split_type":[0,0,0,0,0,0,0,0,0,0,0,0,0,0,0],"sum_hessian":[9.6104755E2,2.8162463E2,6.794229E2,5.448181E2,1.3460483E2,4.853629E2,5.9455173E1,1.2203447E0,1.3338449E2,2.045986E0,5.7409187E1,2.0508064E1,1.1287642E2,2.1228664E0,1.8385197E1],"tree_param":{"num_deleted":"0","num_feature":"68","num_nodes":"15","size_leaf_vector":"1"}},{"base_weights":[5.067004E-2,5.206142E-2,-3.8060927E-1,-8.3724123E-1,9.4096446E-1,-5.2238088E-2,9.4831324E-1,-4.6000734E-2,9.599539E-1,-3.7303966E-2,5.152751E-2,-3.770568E-2,9.787998E-1,3.6293387E-1,1.0008665E0,-3.5732336E-2,4.397677E-2,2.1252409E-2,5.0649922E-2],"categories":[],"categories_nodes":[],"categories_segments":[],"categories_sizes":[],"default_left":[0,0,0,0,0,0,0,0,0,0,0,0,0,0,0,0,0,0,0],"id":48,"left_children":[1,-1,3,5,7,-1,9,-1,11,-1,-1,-1,13,15,17,-1,-1,-1,-1],"loss_changes":[4.2456238E2,0E0,4.18661E2,1.9187799E2,7.1836395E0,0E0,8.316059E0,0E0,6.455002E0,0E0,0E0,0E0,2.021637E0,4.881126E0,7.4894714E-1,0E0,0E0,0E0,0E0],"parents":[2147483647,0,0,2,2,3,3,4,4,6,6,8,8,12,12,13,13,14,14],"right_children":[2,-1,4,6,8,-1,10,-1,12,-1,-1,-1,14,16,18,-1,-1,-1,-1],"split_conditions":[-2.055592E0,5.206142E-2,1.6467432E0,1.6891601E0,-9.7520554E-1,-5.2238088E-2,-5.1310503E-1,-4.6000734E-2,-3.2283032E-1,-3.7303966E-2,5.152751E-2,-3.770568E-2,2.3800347E0,1.4745654E0,-1.5507277E0,-3.5732336E-2,4.397677E-2,2.1252409E-2,5.0649922E-2],"split_indices":[1,0,2,0,25,0,19,0,29,0,0,0,2,0,51,0,0,0,0],"split_type":[0,0,0,0,0,0,0,0,0,0,0,0,0,0,0,0,0,0,0],"sum_hessian":[9.918811E2,3.0043362E2,6.9144745E2,5.141605E2,1.7728696E2,4.6099738E2,5.3163113E1,1.3114855E0,1.7597546E2,2.087174E0,5.107594E1,1.4894879E0,1.7448598E2,6.6391664E0,1.6784682E2,2.02722E0,4.611946E0,4.206945E0,1.6363988E2],"tree_param":{"num_deleted":"0","num_feature":"68","num_nodes":"19","size_leaf_vector":"1"}},{"base_weights":[2.4734057E-2,5.209906E-2,-4.3699747E-1,-8.507897E-1,9.509169E-1,-5.211406E-2,9.703238E-1,1.0829567E-1,9.9884385E-1,-3.05302E-2,5.1441897E-2,-4.1428056E-2,4.3549433E-2,2.203588E-2,1.0131698E0,3.116698E-2,5.128808E-2],"categories":[],"categories_nodes":[],"categories_segments":[],"categories_sizes":[],"default_left":[0,0,0,0,0,0,0,0,0,0,0,0,0,0,0,0,0],"id":49,"left_children":[1,-1,3,5,7,-1,9,11,13,-1,-1,-1,-1,-1,15,-1,-1],"loss_changes":[4.3283646E2,0E0,3.6484418E2,1.7147525E2,5.789963E0,0E0,4.978512E0,7.1393676E0,6.574249E-1,0E0,0E0,0E0,0E0,0E0,1.7608643E-2,0E0,0E0],"parents":[2147483647,0,0,2,2,3,3,4,4,6,6,7,7,8,8,14,14],"right_children":[2,-1,4,6,8,-1,10,12,14,-1,-1,-1,-1,-1,16,-1,-1],"split_conditions":[-2.055592E0,5.209906E-2,1.6467432E0,1.6891601E0,2.3800347E0,-5.211406E-2,-7.9500276E-1,1.4745654E0,-4.6274477E-1,-3.05302E-2,5.1441897E-2,-4.1428056E-2,4.3549433E-2,2.203588E-2,-2.6078135E-1,3.116698E-2,5.128808E-2],"split_indices":[1,0,2,0,2,0,21,0,32,0,0,0,0,0,37,0,0],"split_type":[0,0,0,0,0,0,0,0,0,0,0,0,0,0,0,0,0],"sum_hessian":[9.195571E2,2.8668994E2,6.3286725E2,4.8781674E2,1.4505049E2,4.417899E2,4.602686E1,7.9816585E0,1.3706883E2,1.3060129E0,4.4720844E1,3.5431068E0,4.4385514E0,4.225129E0,1.328437E2,5.736956E0,1.2710675E2],"tree_param":{"num_deleted":"0","num_feature":"68","num_nodes":"17","size_leaf_vector":"1"}},{"base_weights":[-1.7643249E-2,5.1722027E-2,-4.358587E-1,-7.358502E-1,1.0115819E0,-8.831636E-1,9.2956173E-1,-2.7979776E-2,5.1701494E-2,-1.0297643E0,3.734262E-1,-3.386916E-2,5.0666112E-2,4.2395037E-1,-5.253857E-2,-4.944548E-2,5.1615812E-2,4.279612E-2,-3.140727E-2],"categories":[],"categories_nodes":[],"categories_segments":[],"categories_sizes":[],"default_left":[0,0,0,0,0,0,0,0,0,0,0,0,0,0,0,0,0,0,0],"id":50,"left_children":[1,-1,3,5,7,9,11,-1,-1,13,15,-1,-1,17,-1,-1,-1,-1,-1],"loss_changes":[3.7599008E2,0E0,2.6624112E2,1.25217926E2,4.2956924E0,8.629443E1,6.298195E0,0E0,0E0,1.3207245E1,4.5414715E1,0E0,0E0,3.5668762E0,0E0,0E0,0E0,0E0,0E0],"parents":[2147483647,0,0,2,2,3,3,4,4,5,5,6,6,9,9,10,10,13,13],"right_children":[2,-1,4,6,8,10,12,-1,-1,14,16,-1,-1,18,-1,-1,-1,-1,-1],"split_conditions":[-2.055592E0,5.1722027E-2,2.379906E0,1.6891601E0,-1.6218875E-1,5.756757E-1,-5.847921E-1,-2.7979776E-2,5.1701494E-2,-2.365463E0,-3.7152827E-1,-3.386916E-2,5.0666112E-2,-6.805122E-1,-5.253857E-2,-4.944548E-2,5.1615812E-2,4.279612E-2,-3.140727E-2],"split_indices":[1,0,29,0,40,40,41,0,0,48,29,0,0,24,0,0,0,0,0],"split_type":[0,0,0,0,0,0,0,0,0,0,0,0,0,0,0,0,0,0,0],"sum_hessian":[8.525027E2,2.420688E2,6.104339E2,5.060445E2,1.0438941E2,4.6535168E2,4.0692787E1,1.1333781E0,1.03256035E2,4.1689493E2,4.8456757E1,1.6648809E0,3.9027905E1,5.665332E0,4.112296E2,1.5632917E1,3.282384E1,4.1484933E0,1.5168387E0],"tree_param":{"num_deleted":"0","num_feature":"68","num_nodes":"19","size_leaf_vector":"1"}},{"base_weights":[3.1064726E-2,5.181501E-2,-3.8792452E-1,-7.9674816E-1,9.5456016E-1,-5.1888812E-2,9.603592E-1,-4.6855964E-2,9.769372E-1,-3.4779217E-2,5.1353406E-2,7.52459E-1,5.1677473E-2,-8.619865E-2,9.6203876E-1,2.7037224E-2,5.098031E-2],"categories":[],"categories_nodes":[],"categories_segments":[],"categories_sizes":[],"default_left":[0,0,0,0,0,0,0,0,0,0,0,0,0,0,0,0,0],"id":51,"left_children":[1,-1,3,5,7,-1,9,-1,11,-1,-1,13,-1,-1,15,-1,-1],"loss_changes":[3.5496277E2,0E0,3.2726282E2,1.9435919E2,6.813217E0,0E0,6.8556366E0,0E0,9.784088E-1,0E0,0E0,1.80116E1,0E0,0E0,1.687622E-1,0E0,0E0],"parents":[2147483647,0,0,2,2,3,3,4,4,6,6,8,8,11,11,14,14],"right_children":[2,-1,4,6,8,-1,10,-1,12,-1,-1,14,-1,-1,16,-1,-1],"split_conditions":[-2.055592E0,5.181501E-2,2.3800347E0,1.6891601E0,-2.7829304E-1,-5.1888812E-2,-5.6989026E-1,-4.6855964E-2,7.984434E-1,-3.4779217E-2,5.1353406E-2,1.0197443E-1,5.1677473E-2,-8.619865E-2,5.5302163E-3,2.7037224E-2,5.098031E-2],"split_indices":[1,0,2,0,37,0,19,0,38,0,0,40,0,0,51,0,0],"split_type":[0,0,0,0,0,0,0,0,0,0,0,0,0,0,0,0,0],"sum_hessian":[8.4082153E2,2.4692584E2,5.9389575E2,4.5556894E2,1.383268E2,4.0097522E2,5.4593697E1,1.1392543E0,1.3718755E2,1.7490525E0,5.2844643E1,3.0508207E1,1.0667934E2,1.8166372E0,2.869157E1,4.6986685E0,2.39929E1],"tree_param":{"num_deleted":"0","num_feature":"68","num_nodes":"17","size_leaf_vector":"1"}},{"base_weights":[-1.4294212E-2,1.0297565E0,-4.2082393E-1,2.4610186E-2,5.1717013E-2,-8.4793997E-1,9.590641E-1,-5.177904E-2,9.3928355E-1,9.838149E-1,2.9830527E-1,-3.2764252E-2,5.083623E-2,1.0114307E0,8.510606E-2,-5.2301913E-2,4.221611E-2,5.105355E-2,2.4893222E-2,3.8095545E-2,-5.815632E-2],"categories":[],"categories_nodes":[],"categories_segments":[],"categories_sizes":[],"default_left":[0,0,0,0,0,0,0,0,0,0,0,0,0,0,0,0,0,0,0,0,0],"id":52,"left_children":[1,3,5,-1,-1,7,9,-1,11,13,15,-1,-1,17,19,-1,-1,-1,-1,-1,-1],"loss_changes":[3.257547E2,2.0904541E-2,3.2636993E2,0E0,0E0,1.426088E2,1.8494873E0,0E0,5.6863213E0,3.0377655E0,5.409397E0,0E0,0E0,9.577179E-2,4.978676E0,0E0,0E0,0E0,0E0,0E0,0E0],"parents":[2147483647,0,0,1,1,2,2,5,5,6,6,8,8,9,9,10,10,13,13,14,14],"right_children":[2,4,6,-1,-1,8,10,-1,12,14,16,-1,-1,18,20,-1,-1,-1,-1,-1,-1],"split_conditions":[-2.055592E0,-4.5717278E-1,2.3800347E0,2.4610186E-2,5.1717013E-2,1.6891601E0,1.0107032E0,-5.177904E-2,-5.917666E-1,8.9982116E-1,5.792351E-1,-3.2764252E-2,5.083623E-2,1.276013E0,2.7809584E-1,-5.2301913E-2,4.221611E-2,5.105355E-2,2.4893222E-2,3.8095545E-2,-5.815632E-2],"split_indices":[1,2,2,0,0,0,46,0,18,4,4,0,0,23,13,0,0,0,0,0,0],"split_type":[0,0,0,0,0,0,0,0,0,0,0,0,0,0,0,0,0,0,0,0,0],"sum_hessian":[7.654762E2,2.1409747E2,5.513787E2,2.72656E0,2.1137091E2,4.213454E2,1.3003333E2,3.8169208E2,3.965333E1,1.2486712E2,5.1662016E0,1.4909904E0,3.816234E1,1.2102286E2,3.8442593E0,1.2277089E0,3.9384928E0,1.1782299E2,3.1998665E0,2.745324E0,1.0989354E0],"tree_param":{"num_deleted":"0","num_feature":"68","num_nodes":"21","size_leaf_vector":"1"}},{"base_weights":[-2.316561E-3,1.0284659E0,-4.713175E-1,2.358621E-2,5.1632907E-2,-8.798573E-1,8.409288E-1,-5.1671475E-2,9.03253E-1,-4.994212E-2,8.780407E-1,5.0465394E-2,-3.3808876E-2,-4.431654E-2,9.086276E-1,-3.8023155E-2,9.348519E-1,1.6105587E-2,4.944552E-2],"categories":[],"categories_nodes":[],"categories_segments":[],"categories_sizes":[],"default_left":[0,0,0,0,0,0,0,0,0,0,0,0,0,0,0,0,0,0,0],"id":53,"left_children":[1,3,5,-1,-1,7,9,-1,11,-1,13,-1,-1,-1,15,-1,17,-1,-1],"loss_changes":[3.6401303E2,6.2438965E-2,2.781751E2,0E0,0E0,1.0913376E2,9.300674E0,0E0,6.0202065E0,0E0,7.360489E0,0E0,0E0,0E0,5.9586105E0,0E0,3.6061096E0,0E0,0E0],"parents":[2147483647,0,0,1,1,2,2,5,5,6,6,8,8,10,10,14,14,16,16],"right_children":[2,4,6,-1,-1,8,10,-1,12,-1,14,-1,-1,-1,16,-1,18,-1,-1],"split_conditions":[-2.055592E0,-2.1572864E0,1.2987163E0,2.358621E-2,5.1632907E-2,1.6891601E0,-3.3178872E-1,-5.1671475E-2,-9.975807E-2,-4.994212E-2,-9.544816E-1,5.0465394E-2,-3.3808876E-2,-4.431654E-2,-2.3976727E-1,-3.8023155E-2,2.3800347E0,1.6105587E-2,4.944552E-2],"split_indices":[1,3,2,0,0,0,35,0,8,0,25,0,0,0,37,0,2,0,0],"split_type":[0,0,0,0,0,0,0,0,0,0,0,0,0,0,0,0,0,0,0],"sum_hessian":[7.509648E2,2.3446301E2,5.165018E2,2.6007562E0,2.3186226E2,3.9412796E2,1.2237381E2,3.632621E2,3.0865875E1,1.9073063E0,1.2046651E2,2.9261972E1,1.6039027E0,1.576059E0,1.1889045E2,1.4059787E0,1.1748447E2,1.0088811E1,1.0739566E2],"tree_param":{"num_deleted":"0","num_feature":"68","num_nodes":"19","size_leaf_vector":"1"}},{"base_weights":[-1.881828E-2,1.0243351E0,-3.9749786E-1,2.2546304E-2,5.1482316E-2,-6.854379E-1,9.816909E-1,-9.209853E-1,9.5612746E-1,-3.221138E-2,5.0987512E-2,-5.177453E-2,7.605853E-1,-3.25319E-2,5.0763186E-2,-5.1831752E-2,4.754665E-2],"categories":[],"categories_nodes":[],"categories_segments":[],"categories_sizes":[],"default_left":[0,0,0,0,0,0,0,0,0,0,0,0,0,0,0,0,0],"id":54,"left_children":[1,3,5,-1,-1,7,9,11,13,-1,-1,-1,15,-1,-1,-1,-1],"loss_changes":[2.7496945E2,1.0032654E-1,2.0346883E2,0E0,0E0,1.6446028E2,6.1403046E0,7.212195E1,5.7513275E0,0E0,0E0,0E0,9.26294E0,0E0,0E0,0E0,0E0],"parents":[2147483647,0,0,1,1,2,2,5,5,6,6,7,7,8,8,12,12],"right_children":[2,4,6,-1,-1,8,10,12,14,-1,-1,-1,16,-1,-1,-1,-1],"split_conditions":[-2.055592E0,-8.2170206E-1,1.5384773E0,2.2546304E-2,5.1482316E-2,1.6891601E0,2.0241159E-1,3.7485547E0,-5.9832346E-1,-3.221138E-2,5.0987512E-2,-5.177453E-2,2.3349516E-1,-3.25319E-2,5.0763186E-2,-5.1831752E-2,4.754665E-2],"split_indices":[1,39,34,0,0,0,39,39,49,0,0,0,40,0,0,0,0],"split_type":[0,0,0,0,0,0,0,0,0,0,0,0,0,0,0,0,0],"sum_hessian":[6.940575E2,1.8439558E2,5.096619E2,2.4806273E0,1.8191496E2,4.220512E2,8.76107E1,3.6947446E2,5.257674E1,1.6395855E0,8.5971115E1,3.4627905E2,2.3195402E1,1.5113076E0,5.1065434E1,1.7956132E0,2.1399788E1],"tree_param":{"num_deleted":"0","num_feature":"68","num_nodes":"17","size_leaf_vector":"1"}},{"base_weights":[1.0069717E-2,1.0230262E0,-4.09371E-1,2.2060426E-2,5.1395714E-2,-6.927044E-1,9.9683106E-1,-8.811392E-1,9.2742914E-1,1.6333941E-2,5.106913E-2,-5.1806986E-2,8.2818365E-1,-3.3028293E-2,5.0254762E-2,-4.8452646E-2,9.560501E-1,2.1772122E-2,4.9971174E-2],"categories":[],"categories_nodes":[],"categories_segments":[],"categories_sizes":[],"default_left":[0,0,0,0,0,0,0,0,0,0,0,0,0,0,0,0,0,0,0],"id":55,"left_children":[1,3,5,-1,-1,7,9,11,13,-1,-1,-1,15,-1,-1,-1,17,-1,-1],"loss_changes":[2.9172818E2,1.18270874E-1,1.9415671E2,0E0,0E0,1.24379425E2,1.012886E0,9.70549E1,5.924942E0,0E0,0E0,0E0,7.991268E0,0E0,0E0,0E0,2.2424889E-1,0E0,0E0],"parents":[2147483647,0,0,1,1,2,2,5,5,6,6,7,7,8,8,12,12,16,16],"right_children":[2,4,6,-1,-1,8,10,12,14,-1,-1,-1,16,-1,-1,-1,18,-1,-1],"split_conditions":[-2.055592E0,-2.1572864E0,2.379906E0,2.2060426E-2,5.1395714E-2,1.6891601E0,-1.6052271E-1,3.7485547E0,-5.9832346E-1,1.6333941E-2,5.106913E-2,-5.1806986E-2,1.8676332E-1,-3.3028293E-2,5.0254762E-2,-4.8452646E-2,-5.0345457E-1,2.1772122E-2,4.9971174E-2],"split_indices":[1,3,29,0,0,0,40,39,49,0,0,0,40,0,0,0,3,0,0],"split_type":[0,0,0,0,0,0,0,0,0,0,0,0,0,0,0,0,0,0,0],"sum_hessian":[6.8463513E2,2.0005644E2,4.845787E2,2.4271047E0,1.9762933E2,4.0373767E2,8.084105E1,3.620808E2,4.165685E1,3.3625796E0,7.747847E1,3.3233838E2,2.9742443E1,1.5924151E0,4.0064434E1,1.5385532E0,2.820389E1,3.0180366E0,2.5185852E1],"tree_param":{"num_deleted":"0","num_feature":"68","num_nodes":"19","size_leaf_vector":"1"}},{"base_weights":[1.250931E-2,1.0207092E0,-3.8616073E-1,2.04228E-2,5.130098E-2,-7.839333E-1,8.8189536E-1,-5.139035E-2,9.5508724E-1,-4.1166916E-2,9.142484E-1,-2.991953E-2,5.0623823E-2,5.747253E-1,5.105734E-2,-7.009718E-2,5.0017443E-2],"categories":[],"categories_nodes":[],"categories_segments":[],"categories_sizes":[],"default_left":[0,0,0,0,0,0,0,0,0,0,0,0,0,0,0,0,0],"id":56,"left_children":[1,3,5,-1,-1,7,9,-1,11,-1,13,-1,-1,15,-1,-1,-1],"loss_changes":[2.6316074E2,1.8414307E-1,2.373639E2,0E0,0E0,1.5268523E2,6.9599686E0,0E0,4.5742416E0,0E0,3.437851E0,0E0,0E0,2.5666801E1,0E0,0E0,0E0],"parents":[2147483647,0,0,1,1,2,2,5,5,6,6,8,8,10,10,13,13],"right_children":[2,4,6,-1,-1,8,10,-1,12,-1,14,-1,-1,16,-1,-1,-1],"split_conditions":[-2.055592E0,-2.1570985E0,1.6467432E0,2.04228E-2,5.130098E-2,1.6891601E0,-3.2139805E-1,-5.139035E-2,-5.6989026E-1,-4.1166916E-2,9.2343223E-1,-2.991953E-2,5.0623823E-2,2.3349516E-1,5.105734E-2,-7.009718E-2,5.0017443E-2],"split_indices":[1,44,2,0,0,0,29,0,19,0,34,0,0,40,0,0,0],"split_type":[0,0,0,0,0,0,0,0,0,0,0,0,0,0,0,0,0],"sum_hessian":[6.5274725E2,1.8452931E2,4.6821796E2,2.2567587E0,1.8227255E2,3.567058E2,1.1151214E2,3.1319366E2,4.351214E1,1.62108E0,1.0989106E2,1.2143309E0,4.2297806E1,2.7840946E1,8.205012E1,4.5262775E0,2.3314669E1],"tree_param":{"num_deleted":"0","num_feature":"68","num_nodes":"17","size_leaf_vector":"1"}},{"base_weights":[1.0021165E-2,1.0197607E0,-4.4369695E-1,5.1241834E-2,1.93395E-2,-7.990641E-1,7.957459E-1,-5.1302936E-2,9.2060214E-1,2.7996507E-1,5.067107E-2,-3.3819936E-2,5.033287E-2,-6.610971E-2,6.1067677E-1,7.724712E-1,-4.624283E-2,1.8521118E-3,4.6269327E-2],"categories":[],"categories_nodes":[],"categories_segments":[],"categories_sizes":[],"default_left":[0,0,0,0,0,0,0,0,0,0,0,0,0,0,0,0,0,0,0],"id":57,"left_children":[1,3,5,-1,-1,7,9,-1,11,13,-1,-1,-1,-1,15,17,-1,-1,-1],"loss_changes":[2.8722653E2,2.2808838E-1,1.9117206E2,0E0,0E0,1.3237476E2,1.0594749E1,0E0,6.148979E0,1.6775993E1,0E0,0E0,0E0,0E0,7.090719E0,2.6381464E0,0E0,0E0,0E0],"parents":[2147483647,0,0,1,1,2,2,5,5,6,6,8,8,9,9,14,14,15,15],"right_children":[2,4,6,-1,-1,8,10,-1,12,14,-1,-1,-1,-1,16,18,-1,-1,-1],"split_conditions":[-2.055592E0,2.3272412E0,1.2987163E0,5.1241834E-2,1.93395E-2,1.6891601E0,8.960507E-1,-5.1302936E-2,-4.4511832E-2,-9.6779235E-2,5.067107E-2,-3.3819936E-2,5.033287E-2,-6.610971E-2,-1.3455119E-2,4.8670036E-1,-4.624283E-2,1.8521118E-3,4.6269327E-2],"split_indices":[1,63,2,0,0,0,29,0,20,51,0,0,0,0,29,50,0,0,0],"split_type":[0,0,0,0,0,0,0,0,0,0,0,0,0,0,0,0,0,0,0],"sum_hessian":[6.2495685E2,1.9336957E2,4.3158725E2,1.9121709E2,2.1524858E0,3.35694E2,9.589327E1,2.9690598E2,3.8788017E1,2.9137728E1,6.675555E1,1.6324874E0,3.715553E1,4.4724684E0,2.4665258E1,2.2763659E1,1.9016002E0,4.1322613E0,1.8631397E1],"tree_param":{"num_deleted":"0","num_feature":"68","num_nodes":"19","size_leaf_vector":"1"}},{"base_weights":[-1.2243098E-2,1.0165925E0,-4.2865318E-1,1.8241873E-2,5.112158E-2,-8.173949E-1,9.085447E-1,-5.1232874E-2,9.092707E-1,6.67639E-1,5.0738383E-2,-3.2987747E-2,5.002479E-2,-6.918686E-2,8.9119446E-1,1.8150037E-2,9.528492E-1,2.0568974E-2,5.0040014E-2],"categories":[],"categories_nodes":[],"categories_segments":[],"categories_sizes":[],"default_left":[0,0,0,0,0,0,0,0,0,0,0,0,0,0,0,0,0,0,0],"id":58,"left_children":[1,3,5,-1,-1,7,9,-1,11,13,-1,-1,-1,-1,15,-1,17,-1,-1],"loss_changes":[2.5087091E2,2.6908875E-1,2.1742456E2,0E0,0E0,1.16695435E2,1.7371445E0,0E0,5.6980476E0,1.5815541E1,0E0,0E0,0E0,0E0,6.076813E-1,0E0,2.5310326E-1,0E0,0E0],"parents":[2147483647,0,0,1,1,2,2,5,5,6,6,8,8,9,9,14,14,16,16],"right_children":[2,4,6,-1,-1,8,10,-1,12,14,-1,-1,-1,-1,16,-1,18,-1,-1],"split_conditions":[-2.055592E0,-2.0565846E0,2.3800347E0,1.8241873E-2,5.112158E-2,1.6891601E0,7.239434E-1,-5.1232874E-2,-5.1310503E-1,3.7485547E0,5.0738383E-2,-3.2987747E-2,5.002479E-2,-6.918686E-2,-7.9931664E-1,1.8150037E-2,-5.0345457E-1,2.0568974E-2,5.0040014E-2],"split_indices":[1,3,2,0,0,0,34,0,19,39,0,0,0,0,56,0,3,0,0],"split_type":[0,0,0,0,0,0,0,0,0,0,0,0,0,0,0,0,0,0,0],"sum_hessian":[5.835586E2,1.67722E2,4.1583658E2,2.0529695E0,1.6566902E2,3.2247687E2,9.335971E1,2.8827942E2,3.4197437E1,3.079782E1,6.2561893E1,1.5365953E0,3.2660843E1,2.516488E0,2.8281332E1,3.6760874E0,2.4605244E1,2.7809973E0,2.1824247E1],"tree_param":{"num_deleted":"0","num_feature":"68","num_nodes":"19","size_leaf_vector":"1"}},{"base_weights":[3.3108532E-2,5.1071912E-2,-3.8591215E-1,-7.701146E-1,9.1812634E-1,-5.115449E-2,9.360121E-1,9.512267E-1,-4.540798E-2,-3.1534486E-2,5.0293453E-2,-4.1234277E-2,9.8110855E-1,5.021235E-2,8.238035E-3],"categories":[],"categories_nodes":[],"categories_segments":[],"categories_sizes":[],"default_left":[0,0,0,0,0,0,0,0,0,0,0,0,0,0,0],"id":59,"left_children":[1,-1,3,5,7,-1,9,11,-1,-1,-1,-1,13,-1,-1],"loss_changes":[2.4101335E2,0E0,2.0549995E2,1.3746521E2,6.5147476E0,0E0,5.1613045E0,5.7074127E0,0E0,0E0,0E0,0E0,1.5578308E0,0E0,0E0],"parents":[2147483647,0,0,2,2,3,3,4,4,6,6,7,7,12,12],"right_children":[2,-1,4,6,8,-1,10,12,-1,-1,-1,-1,14,-1,-1],"split_conditions":[-2.055592E0,5.1071912E-2,2.3800347E0,1.6891601E0,1.0107032E0,-5.115449E-2,-4.4511832E-2,-2.7829304E-1,-4.540798E-2,-3.1534486E-2,5.0293453E-2,-4.1234277E-2,8.356724E-1,5.021235E-2,8.238035E-3],"split_indices":[1,0,2,0,46,0,20,37,0,0,0,0,53,0,0],"split_type":[0,0,0,0,0,0,0,0,0,0,0,0,0,0,0],"sum_hessian":[5.800224E2,1.7226625E2,4.0775616E2,3.1527707E2,9.2479095E1,2.7491458E2,4.0362484E1,9.130342E1,1.1756738E0,1.3801922E0,3.8982292E1,1.0707239E0,9.02327E1,8.752182E1,2.7108781E0],"tree_param":{"num_deleted":"0","num_feature":"68","num_nodes":"15","size_leaf_vector":"1"}},{"base_weights":[-8.370206E-3,1.0120201E0,-3.886927E-1,1.5981156E-2,5.09412E-2,-7.4224865E-1,9.2291194E-1,-5.1078953E-2,9.405657E-1,4.5354027E-1,5.0031375E-2,-3.133465E-2,5.031695E-2,-6.409686E-2,7.9475194E-1,4.6125215E-2,1.5844418E-2],"categories":[],"categories_nodes":[],"categories_segments":[],"categories_sizes":[],"default_left":[0,0,0,0,0,0,0,0,0,0,0,0,0,0,0,0,0],"id":60,"left_children":[1,3,5,-1,-1,7,9,-1,11,13,-1,-1,-1,-1,15,-1,-1],"loss_changes":[2.0689467E2,3.5629272E-1,1.807758E2,0E0,0E0,1.4501236E2,2.5702972E0,0E0,5.1815224E0,9.075678E0,0E0,0E0,0E0,0E0,4.3948746E-1,0E0,0E0],"parents":[2147483647,0,0,1,1,2,2,5,5,6,6,8,8,9,9,14,14],"right_children":[2,4,6,-1,-1,8,10,-1,12,14,-1,-1,-1,-1,16,-1,-1],"split_conditions":[-2.055592E0,-7.706144E-1,2.3800347E0,1.5981156E-2,5.09412E-2,1.6891601E0,2.8813705E-1,-5.1078953E-2,-5.6989026E-1,-7.9931664E-1,5.0031375E-2,-3.133465E-2,5.031695E-2,-6.409686E-2,1.9104193E-1,4.6125215E-2,1.5844418E-2],"split_indices":[1,39,2,0,0,0,34,0,19,56,0,0,0,0,15,0,0],"split_type":[0,0,0,0,0,0,0,0,0,0,0,0,0,0,0,0,0],"sum_hessian":[5.311137E2,1.4375737E2,3.8735632E2,1.8657457E0,1.4189163E2,3.0545264E2,8.190368E1,2.6230548E2,4.3147167E1,1.2605761E1,6.929791E1,1.394346E0,4.1752823E1,1.6182041E0,1.0987556E1,7.9355783E0,3.0519779E0],"tree_param":{"num_deleted":"0","num_feature":"68","num_nodes":"17","size_leaf_vector":"1"}},{"base_weights":[4.733618E-2,5.0909877E-2,-3.614973E-1,-6.9151753E-1,8.065068E-1,-8.2865894E-1,8.0778146E-1,-1.0680563E-1,9.599094E-1,-9.640246E-1,9.030406E-1,9.121986E-2,4.622075E-2,-4.453059E-2,4.3078702E-2,3.9974412E-1,5.050015E-2,-5.1370252E-2,7.187655E-1,2.1408208E-2,4.7649853E-2,-4.284357E-2,3.6120046E-2,-3.3157196E-2,4.2730927E-2,1.8348435E-2,4.333187E-2],"categories":[],"categories_nodes":[],"categories_segments":[],"categories_sizes":[],"default_left":[0,0,0,0,0,0,0,0,0,0,0,0,0,0,0,0,0,0,0,0,0,0,0,0,0,0,0],"id":61,"left_children":[1,-1,3,5,7,9,11,13,15,17,19,21,-1,-1,-1,23,-1,-1,25,-1,-1,-1,-1,-1,-1,-1,-1],"loss_changes":[2.1267374E2,0E0,1.4592534E2,6.1239655E1,1.1807289E1,6.425249E1,2.0212288E0,1.0569396E1,1.6062164E0,2.7537506E1,6.926727E-2,3.3933625E0,0E0,0E0,0E0,4.209654E0,0E0,0E0,1.8701792E-1,0E0,0E0,0E0,0E0,0E0,0E0,0E0,0E0],"parents":[2147483647,0,0,2,2,3,3,4,4,5,5,6,6,7,7,8,8,9,9,10,10,11,11,15,15,18,18],"right_children":[2,-1,4,6,8,10,12,14,16,18,20,22,-1,-1,-1,24,-1,-1,26,-1,-1,-1,-1,-1,-1,-1,-1],"split_conditions":[-2.055592E0,5.0909877E-2,9.2343223E-1,3.7485547E0,2.3192178E-2,1.2396982E0,-4.9064124E-1,1.474169E0,4.8009902E-1,2.2537475E0,5.129793E-1,4.36954E-1,4.622075E-2,-4.453059E-2,4.3078702E-2,1.3082051E0,5.050015E-2,-5.1370252E-2,1.1180058E0,2.1408208E-2,4.7649853E-2,-4.284357E-2,3.6120046E-2,-3.3157196E-2,4.2730927E-2,1.8348435E-2,4.333187E-2],"split_indices":[1,0,34,39,39,10,27,5,35,15,15,1,0,0,0,19,0,0,45,0,0,0,0,0,0,0,0],"split_type":[0,0,0,0,0,0,0,0,0,0,0,0,0,0,0,0,0,0,0,0,0,0,0,0,0,0,0],"sum_hessian":[5.338819E2,1.5775911E2,3.7612277E2,2.9357965E2,8.2543144E1,2.693861E2,2.419354E1,1.1914078E1,7.062907E1,2.5026628E2,1.9119825E1,3.6361601E0,2.0557379E1,6.628931E0,5.2851467E0,6.534777E0,6.409429E1,2.4155774E2,8.708541E0,2.7309256E0,1.6388899E1,1.3103409E0,2.3258193E0,1.8212557E0,4.7135215E0,3.6075675E0,5.100973E0],"tree_param":{"num_deleted":"0","num_feature":"68","num_nodes":"27","size_leaf_vector":"1"}},{"base_weights":[5.5534594E-2,1.0108169E0,-3.8003224E-1,1.4359388E-2,5.0846815E-2,-7.344376E-1,8.9704025E-1,-5.0934978E-2,9.2858315E-1,5.157126E-1,5.0363895E-2,-3.1874936E-2,5.009898E-2,-6.0875088E-2,7.820207E-1,2.0697613E-3,4.62655E-2],"categories":[],"categories_nodes":[],"categories_segments":[],"categories_sizes":[],"default_left":[0,0,0,0,0,0,0,0,0,0,0,0,0,0,0,0,0],"id":62,"left_children":[1,3,5,-1,-1,7,9,-1,11,13,-1,-1,-1,-1,15,-1,-1],"loss_changes":[2.1405405E2,4.212799E-1,1.6062134E2,0E0,0E0,1.3198949E2,2.7268333E0,0E0,5.3502426E0,9.891588E0,0E0,0E0,0E0,0E0,1.80793E0,0E0,0E0],"parents":[2147483647,0,0,1,1,2,2,5,5,6,6,8,8,9,9,14,14],"right_children":[2,4,6,-1,-1,8,10,-1,12,14,-1,-1,-1,-1,16,-1,-1],"split_conditions":[-2.055592E0,-2.1570985E0,2.3800347E0,1.4359388E-2,5.0846815E-2,1.6891601E0,4.8355043E-1,-5.0934978E-2,-4.4511832E-2,3.7485547E0,5.0363895E-2,-3.1874936E-2,5.009898E-2,-6.0875088E-2,-3.5627517E-1,2.0697613E-3,4.62655E-2],"split_indices":[1,44,2,0,0,0,29,0,20,39,0,0,0,0,3,0,0],"split_type":[0,0,0,0,0,0,0,0,0,0,0,0,0,0,0,0,0],"sum_hessian":[5.125193E2,1.6009009E2,3.5242923E2,1.7443767E0,1.583457E2,2.7620377E2,7.6225464E1,2.3621475E2,3.9989017E1,1.8367588E1,5.785788E1,1.4461617E0,3.8542854E1,1.970592E0,1.6396996E1,2.8670173E0,1.3529978E1],"tree_param":{"num_deleted":"0","num_feature":"68","num_nodes":"17","size_leaf_vector":"1"}},{"base_weights":[2.2961857E-2,5.0545197E-2,-3.4248653E-1,-7.164543E-1,8.983747E-1,-9.3247783E-1,9.248946E-1,5.029431E-1,5.0378192E-2,7.9319566E-1,-5.1059645E-2,-2.6809046E-2,4.9648102E-2,-6.7590736E-2,8.021371E-1,1.4679916E-2,4.4351317E-2,8.819132E-3,4.622572E-2],"categories":[],"categories_nodes":[],"categories_segments":[],"categories_sizes":[],"default_left":[0,0,0,0,0,0,0,0,0,0,0,0,0,0,0,0,0,0,0],"id":63,"left_children":[1,-1,3,5,7,9,11,13,-1,15,-1,-1,-1,-1,17,-1,-1,-1,-1],"loss_changes":[1.7100264E2,0E0,1.6110486E2,9.52728E1,2.9699783E0,3.6908875E1,3.662201E0,1.1861197E1,0E0,3.0642223E-1,0E0,0E0,0E0,0E0,1.1655769E0,0E0,0E0,0E0,0E0],"parents":[2147483647,0,0,2,2,3,3,4,4,5,5,6,6,7,7,9,9,14,14],"right_children":[2,-1,4,6,8,10,12,14,-1,16,-1,-1,-1,-1,18,-1,-1,-1,-1],"split_conditions":[-2.0552704E0,5.0545197E-2,2.3800347E0,1.6891601E0,9.2343223E-1,-1.8143393E0,-1.9039471E-1,1.0197443E-1,5.0378192E-2,2.521856E-1,-5.1059645E-2,-2.6809046E-2,4.9648102E-2,-6.7590736E-2,-7.861941E-1,1.4679916E-2,4.4351317E-2,8.819132E-3,4.622572E-2],"split_indices":[17,0,2,0,34,27,20,40,0,48,0,0,0,0,57,0,0,0,0],"split_type":[0,0,0,0,0,0,0,0,0,0,0,0,0,0,0,0,0,0,0],"sum_hessian":[4.716777E2,1.2688756E2,3.4479016E2,2.6526718E2,7.952297E1,2.3479668E2,3.0470507E1,1.8420124E1,6.1102848E1,1.109218E1,2.237045E2,1.050219E0,2.9420288E1,2.069949E0,1.6350176E1,2.4067202E0,8.68546E0,3.0738566E0,1.3276319E1],"tree_param":{"num_deleted":"0","num_feature":"68","num_nodes":"19","size_leaf_vector":"1"}},{"base_weights":[2.2977311E-2,5.049142E-2,-3.406874E-1,-7.060947E-1,8.763931E-1,-9.508299E-1,9.160162E-1,5.5212975E-1,5.020988E-2,7.117337E-1,-5.100273E-2,-3.0436099E-2,4.9732633E-2,-6.744232E-2,8.349701E-1,4.214763E-2,1.2895512E-2,1.1336565E-2,4.6651553E-2],"categories":[],"categories_nodes":[],"categories_segments":[],"categories_sizes":[],"default_left":[0,0,0,0,0,0,0,0,0,0,0,0,0,0,0,0,0,0,0],"id":64,"left_children":[1,-1,3,5,7,9,11,13,-1,15,-1,-1,-1,-1,17,-1,-1,-1,-1],"loss_changes":[1.6430438E2,0E0,1.4941994E2,1.0324724E2,2.6658134E0,2.6571411E1,4.720026E0,1.4132189E1,0E0,3.5222626E-1,0E0,0E0,0E0,0E0,1.0811901E0,0E0,0E0,0E0,0E0],"parents":[2147483647,0,0,2,2,3,3,4,4,5,5,6,6,7,7,9,9,14,14],"right_children":[2,-1,4,6,8,10,12,14,-1,16,-1,-1,-1,-1,18,-1,-1,-1,-1],"split_conditions":[-2.0552704E0,5.049142E-2,2.3800347E0,1.6891601E0,9.2343223E-1,-1.8143393E0,-1.9039471E-1,1.0197443E-1,5.020988E-2,-4.9965616E-2,-5.100273E-2,-3.0436099E-2,4.9732633E-2,-6.744232E-2,-7.124182E-1,4.214763E-2,1.2895512E-2,1.1336565E-2,4.6651553E-2],"split_indices":[17,0,2,0,34,27,20,40,0,44,0,0,0,0,61,0,0,0,0],"split_type":[0,0,0,0,0,0,0,0,0,0,0,0,0,0,0,0,0,0,0],"sum_hessian":[4.5586313E2,1.2227563E2,3.335875E2,2.5688275E2,7.670474E1,2.2356615E2,3.331661E1,2.3189327E1,5.3515415E1,8.565582E0,2.1500056E2,1.3033848E0,3.2013226E1,2.5152624E0,2.0674065E1,5.979282E0,2.5863E0,3.3301888E0,1.7343876E1],"tree_param":{"num_deleted":"0","num_feature":"68","num_nodes":"19","size_leaf_vector":"1"}},{"base_weights":[5.3521514E-2,1.0052781E0,-3.547434E-1,1.1771525E-2,5.062921E-2,-7.691286E-1,8.856015E-1,-5.0742317E-2,8.982887E-1,5.707617E-1,5.013088E-2,-3.0940369E-2,4.9472995E-2,-6.726708E-2,9.07722E-1,1.908938E-2,4.882539E-2],"categories":[],"categories_nodes":[],"categories_segments":[],"categories_sizes":[],"default_left":[0,0,0,0,0,0,0,0,0,0,0,0,0,0,0,0,0],"id":65,"left_children":[1,3,5,-1,-1,7,9,-1,11,13,-1,-1,-1,-1,15,-1,-1],"loss_changes":[1.7424118E2,5.186615E-1,1.6202179E2,0E0,0E0,9.753447E1,2.3409348E0,0E0,4.875139E0,1.6553885E1,0E0,0E0,0E0,0E0,3.794098E-1,0E0,0E0],"parents":[2147483647,0,0,1,1,2,2,5,5,6,6,8,8,9,9,14,14],"right_children":[2,4,6,-1,-1,8,10,-1,12,14,-1,-1,-1,-1,16,-1,-1],"split_conditions":[-2.055592E0,-8.2170206E-1,2.3800347E0,1.1771525E-2,5.062921E-2,1.6891601E0,4.8355043E-1,-5.0742317E-2,-4.5692623E-1,2.3349516E-1,5.013088E-2,-3.0940369E-2,4.9472995E-2,-6.726708E-2,1.6659904E-1,1.908938E-2,4.882539E-2],"split_indices":[1,39,2,0,0,0,29,0,23,40,0,0,0,0,3,0,0],"split_type":[0,0,0,0,0,0,0,0,0,0,0,0,0,0,0,0,0],"sum_hessian":[4.4650006E2,1.335959E2,3.1290417E2,1.568299E0,1.320276E2,2.3483002E2,7.807415E1,2.0501021E2,2.9819803E1,2.2747648E1,5.53265E1,1.3623796E0,2.8457424E1,2.9544988E0,1.9793148E1,3.046913E0,1.6746237E1],"tree_param":{"num_deleted":"0","num_feature":"68","num_nodes":"17","size_leaf_vector":"1"}},{"base_weights":[-1.399242E-2,5.049759E-2,-4.046683E-1,-7.8377765E-1,7.8267163E-1,-5.0670374E-2,8.9088076E-1,-4.1667346E-2,8.387679E-1,-2.9033301E-2,4.9119204E-2,1.7680444E-1,9.050503E-1,-3.6814705E-2,3.9994754E-2,1.0964716E-2,9.3485665E-1,8.499729E-3,4.8063584E-2],"categories":[],"categories_nodes":[],"categories_segments":[],"categories_sizes":[],"default_left":[0,0,0,0,0,0,0,0,0,0,0,0,0,0,0,0,0,0,0],"id":66,"left_children":[1,-1,3,5,7,-1,9,-1,11,-1,-1,13,15,-1,-1,-1,17,-1,-1],"loss_changes":[1.5924477E2,0E0,1.3030438E2,8.507645E1,7.0655327E0,0E0,4.1961803E0,0E0,2.8399239E0,0E0,0E0,4.836573E0,1.0603561E0,0E0,0E0,0E0,1.0290451E0,0E0,0E0],"parents":[2147483647,0,0,2,2,3,3,4,4,6,6,8,8,11,11,12,12,16,16],"right_children":[2,-1,4,6,8,-1,10,-1,12,-1,-1,14,16,-1,-1,-1,18,-1,-1],"split_conditions":[-2.055592E0,5.049759E-2,1.2987163E0,1.6891601E0,-3.2139805E-1,-5.0670374E-2,-5.6989026E-1,-4.1667346E-2,2.3800347E0,-2.9033301E-2,4.9119204E-2,1.6891601E0,-1.0183171E0,-3.6814705E-2,3.9994754E-2,1.0964716E-2,-1.7947476E0,8.499729E-3,4.8063584E-2],"split_indices":[1,0,2,0,29,0,19,0,2,0,0,0,44,0,0,0,51,0,0],"split_type":[0,0,0,0,0,0,0,0,0,0,0,0,0,0,0,0,0,0,0],"sum_hessian":[3.9606006E2,1.0894221E2,2.8711786E2,2.1788773E2,6.923013E1,1.9196083E2,2.5926888E1,1.8577085E0,6.737242E1,1.2048458E0,2.4722042E1,6.4658E0,6.0906624E1,2.548889E0,3.9169106E0,2.8851511E0,5.8021473E1,2.1851327E0,5.583634E1],"tree_param":{"num_deleted":"0","num_feature":"68","num_nodes":"19","size_leaf_vector":"1"}},{"base_weights":[2.507339E-2,5.0222814E-2,-3.7166038E-1,-7.419423E-1,8.109617E-1,-9.101204E-1,8.581414E-1,3.4540594E-1,4.9898885E-2,7.9868436E-1,-5.0846465E-2,-2.8404567E-2,4.8461743E-2,-6.082958E-2,5.821977E-1,1.6280962E-2,4.3515008E-2,7.3032445E-1,-4.029652E-2,-3.4173943E-2,4.290804E-2],"categories":[],"categories_nodes":[],"categories_segments":[],"categories_sizes":[],"default_left":[0,0,0,0,0,0,0,0,0,0,0,0,0,0,0,0,0,0,0,0,0],"id":67,"left_children":[1,-1,3,5,7,9,11,13,-1,15,-1,-1,-1,-1,17,-1,-1,19,-1,-1,-1],"loss_changes":[1.5465187E2,0E0,1.2466685E2,5.8982605E1,5.5786896E0,3.66214E1,3.8914661E0,8.4853E0,0E0,1.2661743E-1,0E0,0E0,0E0,0E0,4.4819527E0,0E0,0E0,3.7735767E0,0E0,0E0,0E0],"parents":[2147483647,0,0,2,2,3,3,4,4,5,5,6,6,7,7,9,9,14,14,17,17],"right_children":[2,-1,4,6,8,10,12,14,-1,16,-1,-1,-1,-1,18,-1,-1,20,-1,-1,-1],"split_conditions":[-2.0552704E0,5.0222814E-2,1.6467432E0,1.6891601E0,7.221292E-1,-1.8143393E0,-5.6989026E-1,-6.746806E-1,4.9898885E-2,1.27497E-1,-5.0846465E-2,-2.8404567E-2,4.8461743E-2,-6.082958E-2,5.93956E-1,1.6280962E-2,4.3515008E-2,-4.9609783E-1,-4.029652E-2,-3.4173943E-2,4.290804E-2],"split_indices":[17,0,2,0,33,27,19,51,0,48,0,0,0,0,8,0,0,58,0,0,0],"split_type":[0,0,0,0,0,0,0,0,0,0,0,0,0,0,0,0,0,0,0,0,0],"sum_hessian":[3.960579E2,1.1374168E2,2.823162E2,2.1528316E2,6.703306E1,1.9519792E2,2.0085234E1,2.0026417E1,4.7006638E1,1.1102033E1,1.8409589E2,1.1541722E0,1.893106E1,2.0915685E0,1.7934849E1,2.189016E0,8.913016E0,1.6633745E1,1.3011037E0,1.0188856E0,1.561486E1],"tree_param":{"num_deleted":"0","num_feature":"68","num_nodes":"21","size_leaf_vector":"1"}},{"base_weights":[-1.4492485E-2,9.973388E-1,-3.9948374E-1,6.8202117E-3,5.035457E-2,-7.68667E-1,7.958594E-1,-5.0559778E-2,8.867258E-1,-4.11806E-2,8.4974855E-1,-2.9012067E-2,4.8999887E-2,3.5399064E-1,9.5313054E-1,-5.2706756E-2,6.4820164E-1,1.3443592E-2,9.6971583E-1,9.005591E-3,4.2368185E-2,4.9110066E-2,1.7860381E-2],"categories":[],"categories_nodes":[],"categories_segments":[],"categories_sizes":[],"default_left":[0,0,0,0,0,0,0,0,0,0,0,0,0,0,0,0,0,0,0,0,0,0,0],"id":68,"left_children":[1,3,5,-1,-1,7,9,-1,11,-1,13,-1,-1,15,17,-1,19,-1,21,-1,-1,-1,-1],"loss_changes":[1.4254475E2,7.094879E-1,1.175751E2,0E0,0E0,8.2400566E1,6.2009315E0,0E0,4.191057E0,0E0,2.814415E0,0E0,0E0,5.738407E0,3.1003952E-1,0E0,8.4604883E-1,0E0,2.173233E-2,0E0,0E0,0E0,0E0],"parents":[2147483647,0,0,1,1,2,2,5,5,6,6,8,8,10,10,13,13,14,14,16,16,18,18],"right_children":[2,4,6,-1,-1,8,10,-1,12,-1,14,-1,-1,16,18,-1,20,-1,22,-1,-1,-1,-1],"split_conditions":[-2.055592E0,-2.0563898E0,1.6467432E0,6.8202117E-3,5.035457E-2,1.6891601E0,-2.3976727E-1,-5.0559778E-2,-5.6989026E-1,-4.11806E-2,-2.8684556E-2,-2.9012067E-2,4.8999887E-2,-6.799874E-1,-1.310809E0,-5.2706756E-2,2.2604457E-1,1.3443592E-2,1.3712996E0,9.005591E-3,4.2368185E-2,4.9110066E-2,1.7860381E-2],"split_indices":[1,44,2,0,0,0,37,0,19,0,36,0,0,22,11,0,37,0,65,0,0,0,0],"split_type":[0,0,0,0,0,0,0,0,0,0,0,0,0,0,0,0,0,0,0,0,0,0,0],"sum_hessian":[3.6390244E2,9.9860146E1,2.640423E2,1.2863982E0,9.8573746E1,2.020086E2,6.203367E1,1.7653407E2,2.5474539E1,1.537755E0,6.0495914E1,1.2107693E0,2.4263771E1,1.1201992E1,4.9293922E1,1.4896145E0,9.712378E0,1.5738348E0,4.772009E1,3.4673727E0,6.245005E0,4.617527E1,1.5448184E0],"tree_param":{"num_deleted":"0","num_feature":"68","num_nodes":"23","size_leaf_vector":"1"}},{"base_weights":[4.0878296E-2,5.036376E-2,-3.825099E-1,-6.641901E-1,9.703862E-1,-8.671996E-1,8.868504E-1,1.34286275E-2,4.9672596E-2,-5.0941266E-2,6.9836146E-1,6.257895E-3,4.809633E-2,-4.5341667E-2,8.8739157E-1,4.738011E-2,1.7639983E-2],"categories":[],"categories_nodes":[],"categories_segments":[],"categories_sizes":[],"default_left":[0,0,0,0,0,0,0,0,0,0,0,0,0,0,0,0,0],"id":69,"left_children":[1,-1,3,5,7,9,11,-1,-1,-1,13,-1,-1,-1,15,-1,-1],"loss_changes":[1.4970633E2,0E0,9.762715E1,6.72802E1,4.4968796E-1,4.5169785E1,1.3058891E0,0E0,0E0,0E0,6.0026665E0,0E0,0E0,0E0,1.7526436E-1,0E0,0E0],"parents":[2147483647,0,0,2,2,3,3,4,4,5,5,6,6,10,10,14,14],"right_children":[2,-1,4,6,8,10,12,-1,-1,-1,14,-1,-1,-1,16,-1,-1],"split_conditions":[-2.055592E0,5.036376E-2,2.379906E0,1.6891601E0,-1.6052271E-1,3.7485547E0,-4.7189614E-1,1.34286275E-2,4.9672596E-2,-5.0941266E-2,2.3349516E-1,6.257895E-3,4.809633E-2,-4.5341667E-2,-6.982438E-1,4.738011E-2,1.7639983E-2],"split_indices":[1,0,29,0,40,39,43,0,0,0,40,0,0,0,13,0,0],"split_type":[0,0,0,0,0,0,0,0,0,0,0,0,0,0,0,0,0],"sum_hessian":[3.639444E2,1.1045296E2,2.5349144E2,2.1022958E2,4.3261864E1,1.8628798E2,2.39416E1,1.7789191E0,4.1482944E1,1.7015735E2,1.613063E1,2.3873708E0,2.155423E1,1.2993755E0,1.4831256E1,1.2635554E1,2.1957016E0],"tree_param":{"num_deleted":"0","num_feature":"68","num_nodes":"17","size_leaf_vector":"1"}},{"base_weights":[1.6619032E-2,9.9486256E-1,-3.7135676E-1,4.402865E-3,5.0253283E-2,-6.765743E-1,7.7524054E-1,-8.576432E-1,8.7103754E-1,-2.287692E-2,9.556372E-1,-5.0851285E-2,6.639599E-1,5.0270283E-3,4.8178982E-2,-4.2158287E-2,4.1773546E-2,1.8496985E-2,4.9526587E-2,-4.65741E-2,8.7792504E-1,4.670124E-2,1.8310841E-2],"categories":[],"categories_nodes":[],"categories_segments":[],"categories_sizes":[],"default_left":[0,0,0,0,0,0,0,0,0,0,0,0,0,0,0,0,0,0,0,0,0,0,0],"id":70,"left_children":[1,3,5,-1,-1,7,9,11,13,15,17,-1,19,-1,-1,-1,-1,-1,-1,-1,21,-1,-1],"loss_changes":[1.2898322E2,8.0436707E-1,8.569404E1,0E0,0E0,5.4757057E1,7.455391E0,4.2643845E1,1.377984E0,8.093871E0,4.947014E-1,0E0,6.625527E0,0E0,0E0,0E0,0E0,0E0,0E0,0E0,1.03360176E-1,0E0,0E0],"parents":[2147483647,0,0,1,1,2,2,5,5,6,6,7,7,8,8,9,9,10,10,12,12,20,20],"right_children":[2,4,6,-1,-1,8,10,12,14,16,18,-1,20,-1,-1,-1,-1,-1,-1,-1,22,-1,-1],"split_conditions":[-2.055592E0,-1.1735208E0,9.2343223E-1,4.402865E-3,5.0253283E-2,1.6891601E0,2.0241159E-1,3.7485547E0,-6.2590605E-1,1.2396982E0,4.8009902E-1,-5.0851285E-2,2.3349516E-1,5.0270283E-3,4.8178982E-2,-4.2158287E-2,4.1773546E-2,1.8496985E-2,4.9526587E-2,-4.65741E-2,2.2291166E-1,4.670124E-2,1.8310841E-2],